{"learner":{"attributes":{"best_iteration":"5","best_score":"0.09630145311430302","scikit_learn":"{\"_estimator_type\": \"regressor\"}"},"feature_names":["ret_1w","ret_1m","ret_3m","ret_6m","ret_12m","mom_residual","vol_21d","vol_63d","vol_126d","vol_ratio","rsi_7","rsi_14","rsi_28","rsi_14_norm","pos_sma20","pos_sma50","pos_sma200","golden_cross","macd_norm","macd_hist_norm","bb_position","bb_width","dd_1m","dd_3m","dd_6m","vol_ratio_price","roe","debt_equity","earnings_growth","payout_ratio","dividend_yield","div_spread","rf_rate"],"feature_types":["float","float","float","float","float","float","float","float","float","float","float","float","float","float","float","float","float","float","float","float","float","float","float","float","float","float","float","float","float","float","float","float","float"],"gradient_booster":{"model":{"cats":{"enc":[],"feature_segments":[],"sorted_idx":[]},"gbtree_model_param":{"num_parallel_tree":"1","num_trees":"36"},"iteration_indptr":[0,1,2,3,4,5,6,7,8,9,10,11,12,13,14,15,16,17,18,19,20,21,22,23,24,25,26,27,28,29,30,31,32,33,34,35,36],"tree_info":[0,0,0,0,0,0,0,0,0,0,0,0,0,0,0,0,0,0,0,0,0,0,0,0,0,0,0,0,0,0,0,0,0,0,0,0],"trees":[{"base_weights":[-4.5768847E-4,-2.162844E-2,1.4014822E-2,2.6035326E-2,-3.52305E-2,7.959142E-2,4.4300705E-3,1.3643568E-2,6.1431318E-3,1.1033193E-2,-5.4889757E-2,-1.8160722E-3,9.6707195E-2,-4.3907287E-3,5.6937676E-2,1.9429828E-3,-9.100521E-4,-1.4286236E-3,1.3346198E-3,-2.0770552E-3,-5.2562733E-3,9.752479E-4,6.733297E-3,-5.860399E-4,2.1567445E-3,-5.833894E-4,3.6853233E-3],"categories":[],"categories_nodes":[],"categories_segments":[],"categories_sizes":[],"default_left":[0,0,0,0,0,0,0,0,0,0,0,0,0,0,0,0,0,0,0,0,0,0,0,0,0,0,0],"id":0,"left_children":[1,3,5,7,9,11,13,15,-1,17,19,-1,21,23,25,-1,-1,-1,-1,-1,-1,-1,-1,-1,-1,-1,-1],"loss_changes":[1.07539356E-1,9.3762234E-2,1.3052076E-1,3.648104E-2,1.0231875E-1,5.784318E-2,8.536468E-2,2.555232E-2,0E0,2.2540662E-2,4.6089917E-2,0E0,6.492677E-2,5.5974383E-2,3.17764E-2,0E0,0E0,0E0,0E0,0E0,0E0,0E0,0E0,0E0,0E0,0E0,0E0],"parents":[2147483647,0,0,1,1,2,2,3,3,4,4,5,5,6,6,7,7,9,9,10,10,12,12,13,13,14,14],"right_children":[2,4,6,8,10,12,14,16,-1,18,20,-1,22,24,26,-1,-1,-1,-1,-1,-1,-1,-1,-1,-1,-1,-1],"split_conditions":[9.618E-2,2.1073836E-1,5.8740176E-2,3.8261795E-1,-3.8963012E-2,-9.711985E-2,-4.08657E-2,2.086852E-1,6.1431318E-3,2.2463366E-1,2.4917611E-1,-1.8160722E-3,1.868781E-1,8.9542013E-1,9.801575E-1,1.9429828E-3,-9.100521E-4,-1.4286236E-3,1.3346198E-3,-2.0770552E-3,-5.2562733E-3,9.752479E-4,6.733297E-3,-5.860399E-4,2.1567445E-3,-5.833894E-4,3.6853233E-3],"split_indices":[26,8,4,3,16,15,23,7,0,8,8,0,6,20,10,0,0,0,0,0,0,0,0,0,0,0,0],"split_type":[0,0,0,0,0,0,0,0,0,0,0,0,0,0,0,0,0,0,0,0,0,0,0,0,0,0,0],"sum_hessian":[3.48E2,1.41E2,2.07E2,3.1E1,1.1E2,2.5E1,1.82E2,2.9E1,2E0,3.3E1,7.7E1,3E0,2.2E1,1.57E2,2.5E1,1.6E1,1.3E1,9E0,2.4E1,6.3E1,1.4E1,8E0,1.4E1,1.37E2,2E1,5E0,2E1],"tree_param":{"num_deleted":"0","num_feature":"33","num_nodes":"27","size_leaf_vector":"1"}},{"base_weights":[-4.351964E-4,-6.1846506E-3,3.7846714E-2,1.2819764E-2,-1.736487E-2,2.2893814E-2,6.229069E-3,1.0980459E-1,3.0773198E-3,-8.555495E-4,-3.650515E-2,-4.1607656E-2,3.555354E-2,5.203055E-4,6.5678055E-3,5.885368E-4,-2.6649283E-3,4.3643336E-3,-2.786306E-4,-5.1090773E-4,-2.531118E-3,1.897682E-4,-2.4734295E-3,2.4311882E-3,-1.1483355E-3],"categories":[],"categories_nodes":[],"categories_segments":[],"categories_sizes":[],"default_left":[0,0,0,0,0,0,0,0,0,0,0,0,0,0,0,0,0,0,0,0,0,0,0,0,0],"id":1,"left_children":[1,3,5,7,9,11,-1,13,15,17,19,21,23,-1,-1,-1,-1,-1,-1,-1,-1,-1,-1,-1,-1],"loss_changes":[7.83766E-2,6.609448E-2,5.602926E-2,1.08625546E-1,6.1729785E-2,3.6106646E-2,0E0,2.0442605E-2,5.313659E-2,4.5009382E-2,3.2808572E-2,2.9584533E-3,2.882808E-2,0E0,0E0,0E0,0E0,0E0,0E0,0E0,0E0,0E0,0E0,0E0,0E0],"parents":[2147483647,0,0,1,1,2,2,3,3,4,4,5,5,7,7,8,8,9,9,10,10,11,11,12,12],"right_children":[2,4,6,8,10,12,-1,14,16,18,20,22,24,-1,-1,-1,-1,-1,-1,-1,-1,-1,-1,-1,-1],"split_conditions":[7.94599E1,2.1407147E-1,3.8398468E-1,-4.5189545E-2,1.0028008E0,-1.3914283E-1,6.229069E-3,-2.8591843E-2,3.148709E-1,-1.6228291E-1,6.2989E-1,3.399997E-2,7.418038E1,5.203055E-4,6.5678055E-3,5.885368E-4,-2.6649283E-3,4.3643336E-3,-2.786306E-4,-5.1090773E-4,-2.531118E-3,1.897682E-4,-2.4734295E-3,2.4311882E-3,-1.1483355E-3],"split_indices":[10,8,6,0,9,24,0,2,3,3,27,0,12,0,0,0,0,0,0,0,0,0,0,0,0],"split_type":[0,0,0,0,0,0,0,0,0,0,0,0,0,0,0,0,0,0,0,0,0,0,0,0,0],"sum_hessian":[3.53E2,3.08E2,4.5E1,1.14E2,1.94E2,4E1,5E0,9E0,1.05E2,1.05E2,8.9E1,6E0,3.4E1,2E0,7E0,9.2E1,1.3E1,4E0,1.01E2,3.2E1,5.7E1,1E0,5E0,2.8E1,6E0],"tree_param":{"num_deleted":"0","num_feature":"33","num_nodes":"25","size_leaf_vector":"1"}},{"base_weights":[1.1136498E-3,-1.7641341E-2,1.3653417E-2,1.8930739E-2,-2.9472476E-2,6.857441E-2,2.5538371E-3,1.7499822E-3,6.8351873E-3,1.7460387E-2,-4.476628E-2,4.6566734E-3,1.0987039E-1,2.508273E-2,-7.3389774E-3,1.0112363E-3,-1.9924126E-3,2.9202183E-3,9.797195E-5,1.7279306E-3,-2.5314267E-3,3.6968521E-3,-3.884971E-4,-6.6726055E-4,6.9588916E-3,5.4962875E-4,2.4763586E-3,1.3906369E-3,-7.645376E-4],"categories":[],"categories_nodes":[],"categories_segments":[],"categories_sizes":[],"default_left":[0,0,0,0,0,0,0,0,0,0,0,0,0,0,0,0,0,0,0,0,0,0,0,0,0,0,0,0,0],"id":2,"left_children":[1,3,5,7,9,11,13,15,-1,17,19,21,23,25,27,-1,-1,-1,-1,-1,-1,-1,-1,-1,-1,-1,-1,-1,-1],"loss_changes":[8.302821E-2,6.206242E-2,1.2866771E-1,7.14729E-2,7.833403E-2,9.293641E-2,3.9836287E-2,2.6185675E-2,0E0,1.7281778E-2,4.0523827E-2,1.4205997E-2,8.042541E-2,1.7954566E-2,3.543797E-2,0E0,0E0,0E0,0E0,0E0,0E0,0E0,0E0,0E0,0E0,0E0,0E0,0E0,0E0],"parents":[2147483647,0,0,1,1,2,2,3,3,4,4,5,5,6,6,7,7,9,9,10,10,11,11,12,12,13,13,14,14],"right_children":[2,4,6,8,10,12,14,16,-1,18,20,22,24,26,28,-1,-1,-1,-1,-1,-1,-1,-1,-1,-1,-1,-1,-1,-1],"split_conditions":[9.618E-2,2.1119149E-1,2.1667008E-1,4.1130668E-1,-4.0590573E-2,7.513698E-1,1.9804774E-1,2.348605E-1,6.8351873E-3,-9.580106E-2,-1.2659867E-1,-7.728479E-2,3.0091434E1,1.847307E-1,4.452947E-1,1.0112363E-3,-1.9924126E-3,2.9202183E-3,9.797195E-5,1.7279306E-3,-2.5314267E-3,3.6968521E-3,-3.884971E-4,-6.6726055E-4,6.9588916E-3,5.4962875E-4,2.4763586E-3,1.3906369E-3,-7.645376E-4],"split_indices":[26,8,4,3,15,25,7,7,0,1,3,0,11,8,25,0,0,0,0,0,0,0,0,0,0,0,0,0,0],"split_type":[0,0,0,0,0,0,0,0,0,0,0,0,0,0,0,0,0,0,0,0,0,0,0,0,0,0,0,0,0],"sum_hessian":[3.5E2,1.4E2,2.1E2,3.4E1,1.06E2,3.4E1,1.76E2,3.1E1,3E0,2.6E1,8E1,1.4E1,2E1,5.3E1,1.23E2,2.2E1,9E0,6E0,2E1,5E0,7.5E1,1E0,1.3E1,4E0,1.6E1,3.5E1,1.8E1,2.2E1,1.01E2],"tree_param":{"num_deleted":"0","num_feature":"33","num_nodes":"29","size_leaf_vector":"1"}},{"base_weights":[-5.0223613E-4,-1.9451264E-2,1.3747049E-2,1.8474845E-2,-3.1326603E-2,1.6363556E-2,-7.174467E-2,-1.589528E-2,3.9088096E-2,-1.28326025E-2,-6.738268E-2,1.0682485E-2,8.970009E-2,-8.107009E-4,-3.8709573E-3,6.694543E-4,-2.9766324E-3,2.997866E-4,2.8861396E-3,-1.4571403E-4,-2.318611E-3,6.61649E-4,-3.6043038E-3,3.496784E-5,1.7563371E-3,6.290383E-3,-1.6237423E-3],"categories":[],"categories_nodes":[],"categories_segments":[],"categories_sizes":[],"default_left":[0,0,0,0,0,0,0,0,0,0,0,0,0,0,0,0,0,0,0,0,0,0,0,0,0,0,0],"id":3,"left_children":[1,3,5,7,9,11,13,15,17,19,21,23,25,-1,-1,-1,-1,-1,-1,-1,-1,-1,-1,-1,-1,-1,-1],"loss_changes":[9.908979E-2,7.180384E-2,4.862398E-2,2.8208457E-2,7.90549E-2,8.376352E-2,1.6528368E-4,2.1002967E-2,1.4589179E-2,2.6908811E-2,1.6787142E-2,4.6694927E-2,7.009424E-2,0E0,0E0,0E0,0E0,0E0,0E0,0E0,0E0,0E0,0E0,0E0,0E0,0E0,0E0],"parents":[2147483647,0,0,1,1,2,2,3,3,4,4,5,5,6,6,7,7,8,8,9,9,10,10,11,11,12,12],"right_children":[2,4,6,8,10,12,14,16,18,20,22,24,26,-1,-1,-1,-1,-1,-1,-1,-1,-1,-1,-1,-1,-1,-1],"split_conditions":[9.618E-2,2.1119149E-1,4.96233E-1,7.8796E-1,2.1985838E-2,3.563006E-1,1.5377429E-1,3.38844E-2,5.189168E1,5.5470463E1,-9.348713E-2,-5.021278E-2,5.6673473E-1,-8.107009E-4,-3.8709573E-3,6.694543E-4,-2.9766324E-3,2.997866E-4,2.8861396E-3,-1.4571403E-4,-2.318611E-3,6.61649E-4,-3.6043038E-3,3.496784E-5,1.7563371E-3,6.290383E-3,-1.6237423E-3],"split_indices":[26,8,2,27,2,8,3,2,11,12,3,23,6,0,0,0,0,0,0,0,0,0,0,0,0,0,0],"split_type":[0,0,0,0,0,0,0,0,0,0,0,0,0,0,0,0,0,0,0,0,0,0,0,0,0,0,0],"sum_hessian":[3.64E2,1.56E2,2.08E2,3.7E1,1.19E2,2.03E2,5E0,1.4E1,2.3E1,8E1,3.9E1,1.9E2,1.3E1,1E0,4E0,9E0,5E0,9E0,1.4E1,6.3E1,1.7E1,2E0,3.7E1,1.36E2,5.4E1,1E1,3E0],"tree_param":{"num_deleted":"0","num_feature":"33","num_nodes":"27","size_leaf_vector":"1"}},{"base_weights":[-1.6597337E-3,-7.3899957E-3,3.0251341E-2,5.234226E-2,-1.1290037E-2,4.756609E-2,-3.9189406E-2,-1.9810822E-2,1.23825826E-1,-1.7549038E-2,5.7447283E-3,-1.677432E-3,6.863763E-2,-3.2431202E-3,-3.3045989E-3,1.1370565E-3,-2.0689915E-3,4.5741984E-4,7.6288404E-3,-4.894294E-4,-2.3056243E-3,2.436409E-3,-8.916369E-4,2.1224334E-3,-2.5675762E-3,4.8541874E-3,1.360283E-3,-7.512471E-4,3.5007796E-4],"categories":[],"categories_nodes":[],"categories_segments":[],"categories_sizes":[],"default_left":[0,0,0,0,0,0,0,0,0,0,0,0,0,0,0,0,0,0,0,0,0,0,0,0,0,0,0,0,0],"id":4,"left_children":[1,3,5,7,9,11,13,15,17,19,21,23,25,27,-1,-1,-1,-1,-1,-1,-1,-1,-1,-1,-1,-1,-1,-1,-1],"loss_changes":[6.4244494E-2,7.01915E-2,6.712181E-2,9.90982E-2,3.0058298E-2,4.5309886E-2,1.0799533E-2,1.104847E-2,2.9228568E-2,4.487513E-2,7.8831665E-2,3.5052605E-2,3.198482E-2,9.4235345E-4,0E0,0E0,0E0,0E0,0E0,0E0,0E0,0E0,0E0,0E0,0E0,0E0,0E0,0E0,0E0],"parents":[2147483647,0,0,1,1,2,2,3,3,4,4,5,5,6,6,7,7,8,8,9,9,10,10,11,11,12,12,13,13],"right_children":[2,4,6,8,10,12,14,16,18,20,22,24,26,28,-1,-1,-1,-1,-1,-1,-1,-1,-1,-1,-1,-1,-1,-1,-1],"split_conditions":[-4.732818E-2,-5.8995172E-2,7.483332E1,1.8367403E1,1.3793999E-1,1.9268237E-1,2.9528556E-2,2.2973157E-1,-3.0708624E-2,1.3046618E0,2.5832686E-1,7.7048175E-2,1.103853E0,9.801575E-1,-3.3045989E-3,1.1370565E-3,-2.0689915E-3,4.5741984E-4,7.6288404E-3,-4.894294E-4,-2.3056243E-3,2.436409E-3,-8.916369E-4,2.1224334E-3,-2.5675762E-3,4.8541874E-3,1.360283E-3,-7.512471E-4,3.5007796E-4],"split_indices":[23,0,12,10,26,3,18,7,16,25,3,3,9,10,0,0,0,0,0,0,0,0,0,0,0,0,0,0,0],"split_type":[0,0,0,0,0,0,0,0,0,0,0,0,0,0,0,0,0,0,0,0,0,0,0,0,0,0,0,0,0],"sum_hessian":[3.48E2,2.96E2,5.2E1,1.7E1,2.79E2,4.2E1,1E1,9E0,8E0,2.04E2,7.5E1,1.3E1,2.9E1,5E0,5E0,3E0,6E0,2E0,6E0,1.62E2,4.2E1,2.6E1,4.9E1,7E0,6E0,1.6E1,1.3E1,2E0,3E0],"tree_param":{"num_deleted":"0","num_feature":"33","num_nodes":"29","size_leaf_vector":"1"}},{"base_weights":[5.6776E-4,-1.6616128E-2,1.2653123E-2,2.1321815E-2,-2.9832492E-2,5.3174086E-2,3.93632E-3,4.392785E-2,-3.9448682E-2,9.332162E-3,-4.6474937E-2,3.0816428E-3,1.0437051E-1,-2.915329E-3,4.468032E-2,4.2263416E-4,3.7575965E-3,-6.9151324E-4,-3.7344731E-3,2.2470444E-3,-1.0758077E-3,-1.6735705E-3,-4.614691E-3,1.9170794E-3,-9.730735E-4,-2.2685544E-3,7.5186053E-3,-2.066559E-5,-3.4837355E-3,2.8343294E-3,-7.219411E-4],"categories":[],"categories_nodes":[],"categories_segments":[],"categories_sizes":[],"default_left":[0,0,0,0,0,0,0,0,0,0,0,0,0,0,0,0,0,0,0,0,0,0,0,0,0,0,0,0,0,0,0],"id":5,"left_children":[1,3,5,7,9,11,13,15,17,19,21,23,25,27,29,-1,-1,-1,-1,-1,-1,-1,-1,-1,-1,-1,-1,-1,-1,-1,-1],"loss_changes":[7.518167E-2,7.591367E-2,7.474385E-2,5.6863647E-2,7.332578E-2,9.5688336E-2,4.9467757E-2,3.1723686E-2,8.832889E-3,3.934762E-2,4.2137027E-2,1.7414091E-2,1.376683E-1,2.5429351E-2,1.9327637E-2,0E0,0E0,0E0,0E0,0E0,0E0,0E0,0E0,0E0,0E0,0E0,0E0,0E0,0E0,0E0,0E0],"parents":[2147483647,0,0,1,1,2,2,3,3,4,4,5,5,6,6,7,7,8,8,9,9,10,10,11,11,12,12,13,13,14,14],"right_children":[2,4,6,8,10,12,14,16,18,20,22,24,26,28,30,-1,-1,-1,-1,-1,-1,-1,-1,-1,-1,-1,-1,-1,-1,-1,-1],"split_conditions":[9.618E-2,2.1119149E-1,2.1667008E-1,2.348605E-1,-4.1636277E-2,-2.57E-1,-4.08657E-2,1.5347977E-1,8.349E-2,2.9E-1,2.524775E-1,1.5896554E-1,-9.646928E-2,5.0872195E-1,7.800187E1,4.2263416E-4,3.7575965E-3,-6.9151324E-4,-3.7344731E-3,2.2470444E-3,-1.0758077E-3,-1.6735705E-3,-4.614691E-3,1.9170794E-3,-9.730735E-4,-2.2685544E-3,7.5186053E-3,-2.066559E-5,-3.4837355E-3,2.8343294E-3,-7.219411E-4],"split_indices":[26,8,4,7,16,28,23,3,26,28,8,3,15,2,12,0,0,0,0,0,0,0,0,0,0,0,0,0,0,0,0],"split_type":[0,0,0,0,0,0,0,0,0,0,0,0,0,0,0,0,0,0,0,0,0,0,0,0,0,0,0,0,0,0,0],"sum_hessian":[3.59E2,1.48E2,2.11E2,3.8E1,1.1E2,3.6E1,1.75E2,2.8E1,1E1,3.3E1,7.7E1,1.9E1,1.7E1,1.51E2,2.4E1,1.4E1,1.4E1,7E0,3E0,1.5E1,1.8E1,6.2E1,1.5E1,7E0,1.2E1,4E0,1.3E1,1.47E2,4E0,2E1,4E0],"tree_param":{"num_deleted":"0","num_feature":"33","num_nodes":"31","size_leaf_vector":"1"}},{"base_weights":[-1.9030505E-3,-7.195383E-3,3.415918E-2,-2.0224964E-2,2.5369003E-3,1.9890841E-2,5.7589514E-3,1.3844083E-2,-2.997152E-2,7.492459E-2,-4.306957E-3,-1.4214267E-2,3.678858E-2,1.5763877E-3,-1.8744571E-3,-7.0897513E-4,-3.2696172E-3,2.0795016E-4,5.948098E-3,-4.3177485E-4,2.0682185E-3,1.9474364E-3,-1.3697097E-3,2.5531768E-3,-2.0656812E-4],"categories":[],"categories_nodes":[],"categories_segments":[],"categories_sizes":[],"default_left":[0,0,0,0,0,0,0,0,0,0,0,0,0,0,0,0,0,0,0,0,0,0,0,0,0],"id":6,"left_children":[1,3,5,7,9,11,-1,13,15,17,19,21,23,-1,-1,-1,-1,-1,-1,-1,-1,-1,-1,-1,-1],"loss_changes":[6.783533E-2,3.932391E-2,4.916234E-2,4.461979E-2,8.891491E-2,2.4124501E-2,0E0,2.94596E-2,5.6503564E-2,4.7560975E-2,3.3055834E-2,1.1760376E-2,1.6380023E-2,0E0,0E0,0E0,0E0,0E0,0E0,0E0,0E0,0E0,0E0,0E0,0E0],"parents":[2147483647,0,0,1,1,2,2,3,3,4,4,5,5,7,7,8,8,9,9,10,10,11,11,12,12],"right_children":[2,4,6,8,10,12,-1,14,16,18,20,22,24,-1,-1,-1,-1,-1,-1,-1,-1,-1,-1,-1,-1],"split_conditions":[7.94599E1,9.618E-2,3.4838778E-1,2.1119149E-1,5.8740176E-2,3.3053562E-1,5.7589514E-3,2.3161834E-1,2.1985838E-2,2.9331153E-2,3.7352002E-1,8.355046E1,6.6522676E-3,1.5763877E-3,-1.8744571E-3,-7.0897513E-4,-3.2696172E-3,2.0795016E-4,5.948098E-3,-4.3177485E-4,2.0682185E-3,1.9474364E-3,-1.3697097E-3,2.5531768E-3,-2.0656812E-4],"split_indices":[10,26,6,8,4,25,0,7,2,2,26,10,19,0,0,0,0,0,0,0,0,0,0,0,0],"split_type":[0,0,0,0,0,0,0,0,0,0,0,0,0,0,0,0,0,0,0,0,0,0,0,0,0],"sum_hessian":[3.52E2,3.08E2,4.4E1,1.31E2,1.77E2,3.9E1,5E0,2.9E1,1.02E2,1.4E1,1.63E2,1.3E1,2.6E1,2.2E1,7E0,7.2E1,3E1,6E0,8E0,1.5E2,1.3E1,2E0,1.1E1,1.9E1,7E0],"tree_param":{"num_deleted":"0","num_feature":"33","num_nodes":"25","size_leaf_vector":"1"}},{"base_weights":[6.542453E-4,-5.77978E-3,3.2916013E-2,-9.258493E-3,6.3312784E-2,5.246409E-2,-2.7273176E-3,7.82688E-5,-2.7546218E-2,1.2066926E-1,1.4072121E-2,7.563768E-2,-2.013755E-2,-2.2970201E-2,4.235249E-2,3.4645249E-3,-3.8732012E-4,3.2749858E-3,-1.5791223E-3,1.7087385E-3,7.3859836E-3,-1.2906159E-3,1.4935218E-3,4.980706E-3,1.553802E-3,-2.9276663E-3,1.5377485E-3,-2.4181788E-3,1.6885289E-4,-1.6543381E-4,2.5070412E-3],"categories":[],"categories_nodes":[],"categories_segments":[],"categories_sizes":[],"default_left":[0,0,0,0,0,0,0,0,0,0,0,0,0,0,0,0,0,0,0,0,0,0,0,0,0,0,0,0,0,0,0],"id":7,"left_children":[1,3,5,7,9,11,13,15,17,19,21,23,25,27,29,-1,-1,-1,-1,-1,-1,-1,-1,-1,-1,-1,-1,-1,-1,-1,-1],"loss_changes":[7.4285164E-2,7.26247E-2,4.167176E-2,4.8751824E-2,3.8404807E-2,6.705872E-2,2.1991538E-2,1.0397286E-1,3.934399E-2,7.6356977E-3,7.142553E-3,2.6875257E-2,2.32295E-2,1.1284245E-2,2.9160315E-3,0E0,0E0,0E0,0E0,0E0,0E0,0E0,0E0,0E0,0E0,0E0,0E0,0E0,0E0,0E0,0E0],"parents":[2147483647,0,0,1,1,2,2,3,3,4,4,5,5,6,6,7,7,8,8,9,9,10,10,11,11,12,12,13,13,14,14],"right_children":[2,4,6,8,10,12,14,16,18,20,22,24,26,28,30,-1,-1,-1,-1,-1,-1,-1,-1,-1,-1,-1,-1,-1,-1,-1,-1],"split_conditions":[-5.021278E-2,3.665725E-1,1.1275375E0,2.524469E-1,1.5715371E-1,3.065E-1,1.148134E0,-4.47513E-2,-1.6228291E-1,-2.1159358E-2,-3.239778E-2,-3.4430195E-2,4.123716E-2,1.115196E-1,1.1543952E0,3.4645249E-3,-3.8732012E-4,3.2749858E-3,-1.5791223E-3,1.7087385E-3,7.3859836E-3,-1.2906159E-3,1.4935218E-3,4.980706E-3,1.553802E-3,-2.9276663E-3,1.5377485E-3,-2.4181788E-3,1.6885289E-4,-1.6543381E-4,2.5070412E-3],"split_indices":[23,8,9,7,21,29,25,0,3,1,0,23,1,21,9,0,0,0,0,0,0,0,0,0,0,0,0,0,0,0,0],"split_type":[0,0,0,0,0,0,0,0,0,0,0,0,0,0,0,0,0,0,0,0,0,0,0,0,0,0,0,0,0,0,0],"sum_hessian":[3.55E2,2.97E2,5.8E1,2.84E2,1.3E1,3.7E1,2.1E1,1.89E2,9.5E1,5E0,8E0,2.8E1,9E0,1.5E1,6E0,1.8E1,1.71E2,3E0,9.2E1,2E0,3E0,2E0,6E0,1.7E1,1.1E1,5E0,4E0,7E0,8E0,1E0,5E0],"tree_param":{"num_deleted":"0","num_feature":"33","num_nodes":"31","size_leaf_vector":"1"}},{"base_weights":[1.716894E-3,-1.3788115E-2,1.2937505E-2,4.1945614E-2,-1.8565426E-2,4.5414954E-2,6.5156557E-3,1.2659897E-2,3.3028533E-3,1.6732145E-2,-2.4582295E-2,1.3920003E-2,1.3929598E-1,-8.159478E-3,2.1411996E-2,1.6006449E-3,-5.456535E-4,1.8746566E-3,-3.7097984E-3,-7.193863E-4,-2.259967E-3,3.2023315E-3,-7.829447E-4,-3.355543E-4,8.00529E-3,-1.835763E-4,-3.265518E-3,2.7082986E-3,-3.0177785E-4],"categories":[],"categories_nodes":[],"categories_segments":[],"categories_sizes":[],"default_left":[0,0,0,0,0,0,0,0,0,0,0,0,0,0,0,0,0,0,0,0,0,0,0,0,0,0,0,0,0],"id":8,"left_children":[1,3,5,7,9,11,13,15,-1,17,19,21,23,25,27,-1,-1,-1,-1,-1,-1,-1,-1,-1,-1,-1,-1,-1,-1],"loss_changes":[6.315978E-2,4.177235E-2,4.3459136E-2,7.5720996E-3,3.0668866E-2,9.9100366E-2,3.9064597E-2,3.945596E-3,0E0,4.4759538E-2,2.4561621E-2,4.2278334E-2,2.743797E-2,2.28527E-2,8.005333E-2,0E0,0E0,0E0,0E0,0E0,0E0,0E0,0E0,0E0,0E0,0E0,0E0,0E0,0E0],"parents":[2147483647,0,0,1,1,2,2,3,3,4,4,5,5,6,6,7,7,9,9,10,10,11,11,12,12,13,13,14,14],"right_children":[2,4,6,8,10,12,14,16,-1,18,20,22,24,26,28,-1,-1,-1,-1,-1,-1,-1,-1,-1,-1,-1,-1,-1,-1],"split_conditions":[9.618E-2,-1.0095668E-1,-7.834098E-2,-4.8873186E-2,2.249E-2,-8.40625E-2,1.1418E-1,-2.7344717E-2,3.3028533E-3,6.029624E-1,5.5470463E1,-1.7525773E-1,-6.537031E-2,4.8838916E-1,2.9230282E-1,1.6006449E-3,-5.456535E-4,1.8746566E-3,-3.7097984E-3,-7.193863E-4,-2.259967E-3,3.2023315E-3,-7.829447E-4,-3.355543E-4,8.00529E-3,-1.835763E-4,-3.265518E-3,2.7082986E-3,-3.0177785E-4],"split_indices":[26,16,22,14,26,22,26,18,0,3,12,23,1,2,3,0,0,0,0,0,0,0,0,0,0,0,0,0,0],"split_type":[0,0,0,0,0,0,0,0,0,0,0,0,0,0,0,0,0,0,0,0,0,0,0,0,0,0,0,0,0],"sum_hessian":[3.6E2,1.51E2,2.09E2,1.1E1,1.4E2,3.3E1,1.76E2,6E0,5E0,2E1,1.2E2,2.6E1,7E0,8.9E1,8.7E1,3E0,3E0,1.7E1,3E0,8.2E1,3.8E1,9E0,1.7E1,1E0,6E0,8.4E1,5E0,3.9E1,4.8E1],"tree_param":{"num_deleted":"0","num_feature":"33","num_nodes":"29","size_leaf_vector":"1"}},{"base_weights":[-5.7679805E-4,-5.558803E-3,3.8501024E-2,-1.9200737E-2,4.9550254E-3,1.3598141E-2,9.952593E-2,-3.0734572E-3,-4.183899E-2,4.5636702E-2,8.5423875E-4,5.6150667E-2,-8.132032E-3,3.1963014E-4,1.0748254E-1,4.406551E-4,-1.6739423E-3,-1.5802257E-4,-3.0401982E-3,5.7586837E-3,1.9029181E-5,-1.4989654E-4,2.4182273E-3,3.4999482E-3,7.1766425E-4,9.4912574E-4,-1.7092939E-3,5.6274254E-3,1.1871165E-3],"categories":[],"categories_nodes":[],"categories_segments":[],"categories_sizes":[],"default_left":[0,0,0,0,0,0,0,0,0,0,0,0,0,0,0,0,0,0,0,0,0,0,0,0,0,0,0,0,0],"id":9,"left_children":[1,3,5,7,9,11,13,15,17,19,21,23,25,-1,27,-1,-1,-1,-1,-1,-1,-1,-1,-1,-1,-1,-1,-1,-1],"loss_changes":[6.972655E-2,4.5681406E-2,5.9517633E-2,5.0372552E-2,3.0053776E-2,2.8887477E-2,7.491164E-3,3.0259352E-2,4.189015E-2,5.185931E-2,3.0506931E-2,4.5705624E-3,1.6161824E-2,0E0,4.4611096E-4,0E0,0E0,0E0,0E0,0E0,0E0,0E0,0E0,0E0,0E0,0E0,0E0,0E0,0E0],"parents":[2147483647,0,0,1,1,2,2,3,3,4,4,5,5,6,6,7,7,8,8,9,9,10,10,11,11,12,12,14,14],"right_children":[2,4,6,8,10,12,14,16,18,20,22,24,26,-1,28,-1,-1,-1,-1,-1,-1,-1,-1,-1,-1,-1,-1,-1,-1],"split_conditions":[7.94599E1,9.618E-2,2.307913E-1,2.1985838E-2,-3.377282E-2,6.520216E1,2.0061645E-1,2.6003394E-1,2.1726224E-1,2.1407147E-1,3.144211E-1,7.8145E-1,1.9918616E-1,3.1963014E-4,4.1186592E-1,4.406551E-4,-1.6739423E-3,-1.5802257E-4,-3.0401982E-3,5.7586837E-3,1.9029181E-5,-1.4989654E-4,2.4182273E-3,3.4999482E-3,7.1766425E-4,9.4912574E-4,-1.7092939E-3,5.6274254E-3,1.1871165E-3],"split_indices":[10,26,2,2,14,11,7,7,8,8,8,27,8,0,16,0,0,0,0,0,0,0,0,0,0,0,0,0,0],"split_type":[0,0,0,0,0,0,0,0,0,0,0,0,0,0,0,0,0,0,0,0,0,0,0,0,0,0,0,0,0],"sum_hessian":[3.55E2,3.16E2,3.9E1,1.37E2,1.79E2,2.9E1,1E1,8.1E1,5.6E1,1.5E1,1.64E2,9E0,2E1,1E0,9E0,5.9E1,2.2E1,1.9E1,3.7E1,5E0,1E1,1.53E2,1.1E1,6E0,3E0,1E1,1E1,8E0,1E0],"tree_param":{"num_deleted":"0","num_feature":"33","num_nodes":"29","size_leaf_vector":"1"}},{"base_weights":[-3.5130344E-3,-7.938743E-3,2.9419389E-2,1.2481897E-2,-1.4095081E-2,6.523384E-2,3.0131676E-4,2.6324721E-2,-2.1880625E-2,-1.10618165E-2,-7.00357E-2,7.023068E-2,-5.4415216E-4,2.6604554E-2,-3.0246597E-2,-5.644644E-5,1.7058094E-3,-2.436367E-3,7.15668E-5,-1.7438036E-4,-1.8506825E-3,9.455176E-4,-4.0118354E-3,5.1067333E-4,3.8288496E-3,-1.6500503E-3,2.3229157E-3,2.616335E-4,-2.1138394E-3],"categories":[],"categories_nodes":[],"categories_segments":[],"categories_sizes":[],"default_left":[0,0,0,0,0,0,0,0,0,0,0,0,0,0,0,0,0,0,0,0,0,0,0,0,0,0,0,0,0],"id":10,"left_children":[1,3,5,7,9,11,13,15,17,19,21,23,-1,25,27,-1,-1,-1,-1,-1,-1,-1,-1,-1,-1,-1,-1,-1,-1],"loss_changes":[5.3475946E-2,4.0807433E-2,4.5334395E-2,3.6777414E-2,4.1004065E-2,8.563183E-3,2.1696527E-2,1.1715546E-2,1.4186234E-2,4.6490468E-2,1.3617698E-2,5.873248E-3,0E0,1.9458972E-2,5.667109E-3,0E0,0E0,0E0,0E0,0E0,0E0,0E0,0E0,0E0,0E0,0E0,0E0,0E0,0E0],"parents":[2147483647,0,0,1,1,2,2,3,3,4,4,5,5,6,6,7,7,8,8,9,9,10,10,11,11,13,13,14,14],"right_children":[2,4,6,8,10,12,14,16,18,20,22,24,-1,26,28,-1,-1,-1,-1,-1,-1,-1,-1,-1,-1,-1,-1,-1,-1],"split_conditions":[7.94599E1,1.9804774E-1,6.7809555E1,2.64E-1,-5.5182885E-2,1.645456E-1,3.4688994E-2,6.521739E0,1.7765361E-1,1.3588325E0,-2.3890793E-2,6.09407E-2,-5.4415216E-4,7.8145E-1,1.9918616E-1,-5.644644E-5,1.7058094E-3,-2.436367E-3,7.15668E-5,-1.7438036E-4,-1.8506825E-3,9.455176E-4,-4.0118354E-3,5.1067333E-4,3.8288496E-3,-1.6500503E-3,2.3229157E-3,2.616335E-4,-2.1138394E-3],"split_indices":[10,7,11,28,24,1,0,10,7,25,0,21,0,27,8,0,0,0,0,0,0,0,0,0,0,0,0,0,0],"split_type":[0,0,0,0,0,0,0,0,0,0,0,0,0,0,0,0,0,0,0,0,0,0,0,0,0,0,0,0,0],"sum_hessian":[3.63E2,3.21E2,4.2E1,7.4E1,2.47E2,1.8E1,2.4E1,5.3E1,2.1E1,2.36E2,1.1E1,1.7E1,1E0,1.3E1,1.1E1,1.2E1,4.1E1,9E0,1.2E1,1.84E2,5.2E1,1E0,1E1,2E0,1.5E1,3E0,1E1,3E0,8E0],"tree_param":{"num_deleted":"0","num_feature":"33","num_nodes":"29","size_leaf_vector":"1"}},{"base_weights":[1.791658E-3,-6.031529E-4,5.654442E-2,4.6611885E-3,-2.9806063E-2,8.601267E-2,-4.4159975E-2,5.4958954E-2,6.1610324E-4,1.0155742E-2,-5.5311482E-2,1.6882614E-3,1.12374865E-1,-3.0218277E-3,2.5616083E-4,5.1924004E-3,5.413796E-4,-2.0797821E-4,1.7493982E-3,-1.6439073E-3,1.8649882E-3,1.4527828E-3,-3.1025864E-3,8.75669E-4,-5.169468E-4,6.6317717E-4,6.0847197E-3],"categories":[],"categories_nodes":[],"categories_segments":[],"categories_sizes":[],"default_left":[0,0,0,0,0,0,0,0,0,0,0,0,0,0,0,0,0,0,0,0,0,0,0,0,0,0,0],"id":11,"left_children":[1,3,5,7,9,11,13,15,17,19,21,23,25,-1,-1,-1,-1,-1,-1,-1,-1,-1,-1,-1,-1,-1,-1],"loss_changes":[4.8500925E-2,5.4860868E-2,5.1695004E-2,6.1495483E-2,5.639132E-2,2.7502619E-2,4.074171E-3,4.685802E-2,4.6426132E-2,2.8122058E-2,2.1754384E-2,1.1280976E-3,6.353736E-3,0E0,0E0,0E0,0E0,0E0,0E0,0E0,0E0,0E0,0E0,0E0,0E0,0E0,0E0],"parents":[2147483647,0,0,1,1,2,2,3,3,4,4,5,5,6,6,7,7,8,8,9,9,10,10,11,11,12,12],"right_children":[2,4,6,8,10,12,14,16,18,20,22,24,26,-1,-1,-1,-1,-1,-1,-1,-1,-1,-1,-1,-1,-1,-1],"split_conditions":[3.665725E-1,2.6801068E-1,8.160586E-2,-4.47513E-2,-2.960356E-2,4.452947E-1,6.598746E-2,2.1407147E-1,2.1324E-1,-3.5115566E-2,-5.815481E-2,1.6975927E-4,4.7032608E1,-3.0218277E-3,2.5616083E-4,5.1924004E-3,5.413796E-4,-2.0797821E-4,1.7493982E-3,-1.6439073E-3,1.8649882E-3,1.4527828E-3,-3.1025864E-3,8.75669E-4,-5.169468E-4,6.6317717E-4,6.0847197E-3],"split_indices":[8,8,14,0,2,25,0,8,26,14,14,0,12,0,0,0,0,0,0,0,0,0,0,0,0,0,0],"split_type":[0,0,0,0,0,0,0,0,0,0,0,0,0,0,0,0,0,0,0,0,0,0,0,0,0,0,0],"sum_hessian":[3.68E2,3.54E2,1.4E1,3.01E2,5.3E1,1.1E1,3E0,2.1E1,2.8E2,2.1E1,3.2E1,3E0,8E0,2E0,1E0,9E0,1.2E1,2.47E2,3.3E1,8E0,1.3E1,2E0,3E1,1E0,2E0,1E0,7E0],"tree_param":{"num_deleted":"0","num_feature":"33","num_nodes":"27","size_leaf_vector":"1"}},{"base_weights":[-9.997088E-4,-1.7072242E-2,1.1188432E-2,1.4977916E-2,-2.581817E-2,4.0526137E-2,1.9202989E-3,2.6129134E-2,-3.9087895E-2,-1.0902095E-2,-5.1029176E-2,-4.2195576E-3,5.347502E-2,4.250812E-3,-5.0293043E-4,-2.4916997E-4,2.0076467E-3,-2.6202202E-3,-2.6073592E-4,1.9928649E-4,-1.476151E-3,-3.088526E-3,-7.6297845E-4,1.4151421E-3,-2.038583E-3,6.344937E-3,1.9722395E-3,3.661751E-4,-1.1882497E-3],"categories":[],"categories_nodes":[],"categories_segments":[],"categories_sizes":[],"default_left":[0,0,0,0,0,0,0,0,0,0,0,0,0,0,0,0,0,0,0,0,0,0,0,0,0,0,0,0,0],"id":12,"left_children":[1,3,5,7,9,11,13,15,17,19,21,23,25,-1,27,-1,-1,-1,-1,-1,-1,-1,-1,-1,-1,-1,-1,-1,-1],"loss_changes":[7.1102306E-2,4.444832E-2,5.6031797E-2,2.2332037E-2,4.560758E-2,2.9019095E-2,3.1979777E-2,1.3171466E-2,2.5220597E-3,2.2215897E-2,1.6067818E-2,1.6590456E-2,3.21526E-2,0E0,2.8571231E-2,0E0,0E0,0E0,0E0,0E0,0E0,0E0,0E0,0E0,0E0,0E0,0E0,0E0,0E0],"parents":[2147483647,0,0,1,1,2,2,3,3,4,4,5,5,6,6,7,7,8,8,9,9,10,10,11,11,12,12,14,14],"right_children":[2,4,6,8,10,12,14,16,18,20,22,24,26,-1,28,-1,-1,-1,-1,-1,-1,-1,-1,-1,-1,-1,-1,-1,-1],"split_conditions":[9.618E-2,2.1119149E-1,6.2989E-1,1.4928374E0,2.1985838E-2,-2.5978448E-2,-5.6814943E-2,9.901699E-1,1.1140412E0,2.9E-1,3.5143315E-3,-4.6441946E-2,1.5203202E-2,4.250812E-3,3.148709E-1,-2.4916997E-4,2.0076467E-3,-2.6202202E-3,-2.6073592E-4,1.9928649E-4,-1.476151E-3,-3.088526E-3,-7.6297845E-4,1.4151421E-3,-2.038583E-3,6.344937E-3,1.9722395E-3,3.661751E-4,-1.1882497E-3],"split_indices":[26,8,27,25,2,0,15,9,9,28,19,0,15,0,3,0,0,0,0,0,0,0,0,0,0,0,0,0,0],"split_type":[0,0,0,0,0,0,0,0,0,0,0,0,0,0,0,0,0,0,0,0,0,0,0,0,0,0,0,0,0],"sum_hessian":[3.6E2,1.55E2,2.05E2,3.3E1,1.22E2,4.8E1,1.57E2,2.8E1,5E0,7.8E1,4.4E1,1.1E1,3.7E1,3E0,1.54E2,9E0,1.9E1,3E0,2E0,4.4E1,3.4E1,3.3E1,1.1E1,6E0,5E0,4E0,3.3E1,1.16E2,3.8E1],"tree_param":{"num_deleted":"0","num_feature":"33","num_nodes":"29","size_leaf_vector":"1"}},{"base_weights":[2.6315334E-4,-1.3295E-2,1.0106631E-2,1.4224471E-2,-2.2618383E-2,3.994573E-2,3.5916627E-3,3.1259175E-2,-1.133021E-2,1.8432774E-2,-3.4802523E-2,-1.132674E-3,6.5581135E-2,1.7845819E-2,-9.448574E-3,3.7247797E-3,9.740499E-4,1.1607268E-3,-1.7193214E-3,1.9493293E-3,-2.07171E-3,-1.3856175E-3,-3.3571054E-3,1.6308448E-3,-1.734118E-3,5.324985E-3,1.32344E-3,1.4927668E-3,-1.0037178E-3,3.1356346E-3,-6.51939E-4],"categories":[],"categories_nodes":[],"categories_segments":[],"categories_sizes":[],"default_left":[0,0,0,0,0,0,0,0,0,0,0,0,0,0,0,0,0,0,0,0,0,0,0,0,0,0,0,0,0,0,0],"id":13,"left_children":[1,3,5,7,9,11,13,15,17,19,21,23,25,27,29,-1,-1,-1,-1,-1,-1,-1,-1,-1,-1,-1,-1,-1,-1,-1,-1],"loss_changes":[4.7112525E-2,3.8583923E-2,3.9539754E-2,1.7290939E-2,5.673156E-2,3.854817E-2,3.1759176E-2,9.790411E-3,1.433917E-2,3.5031177E-2,1.704286E-2,1.92473E-2,3.1781077E-2,3.8014334E-2,2.441365E-2,0E0,0E0,0E0,0E0,0E0,0E0,0E0,0E0,0E0,0E0,0E0,0E0,0E0,0E0,0E0,0E0],"parents":[2147483647,0,0,1,1,2,2,3,3,4,4,5,5,6,6,7,7,8,8,9,9,10,10,11,11,12,12,13,13,14,14],"right_children":[2,4,6,8,10,12,14,16,18,20,22,24,26,28,30,-1,-1,-1,-1,-1,-1,-1,-1,-1,-1,-1,-1,-1,-1,-1,-1],"split_conditions":[9.618E-2,-4.1636277E-2,1.017E-1,2.9E-1,2.0671244E-1,-5.4500606E-3,-8.894506E-2,-9.580106E-2,-2.2619902E-1,2.348605E-1,2.524775E-1,2.36344E-1,7.014924E1,2.6709315E-1,-3.377282E-2,3.7247797E-3,9.740499E-4,1.1607268E-3,-1.7193214E-3,1.9493293E-3,-2.07171E-3,-1.3856175E-3,-3.3571054E-3,1.6308448E-3,-1.734118E-3,5.324985E-3,1.32344E-3,1.4927668E-3,-1.0037178E-3,3.1356346E-3,-6.51939E-4],"split_indices":[26,16,26,28,8,0,24,1,24,7,8,20,11,8,14,0,0,0,0,0,0,0,0,0,0,0,0,0,0,0,0],"split_type":[0,0,0,0,0,0,0,0,0,0,0,0,0,0,0,0,0,0,0,0,0,0,0,0,0,0,0,0,0,0,0],"sum_hessian":[3.5E2,1.47E2,2.03E2,3.7E1,1.1E2,3.5E1,1.68E2,2.2E1,1.5E1,2.5E1,8.5E1,1.4E1,2.1E1,8E1,8.8E1,3E0,1.9E1,6E0,9E0,1.9E1,6E0,7.2E1,1.3E1,7E0,7E0,9E0,1.2E1,6.1E1,1.9E1,3E0,8.5E1],"tree_param":{"num_deleted":"0","num_feature":"33","num_nodes":"31","size_leaf_vector":"1"}},{"base_weights":[3.8188856E-4,-3.6999544E-3,2.6716758E-2,2.0513708E-2,-1.0369138E-2,5.3177964E-2,9.063784E-3,6.854583E-2,1.7292993E-3,1.0609373E-2,-1.7316798E-2,-1.5733E-3,6.030461E-2,-2.6017418E-3,2.0789118E-2,5.09957E-3,8.6180336E-4,1.5961984E-3,-9.481055E-4,1.872881E-4,2.4516077E-3,-3.460421E-4,-1.8194652E-3,3.2724813E-3,-5.9466314E-4,3.4874678E-4,3.7071798E-3],"categories":[],"categories_nodes":[],"categories_segments":[],"categories_sizes":[],"default_left":[0,0,0,0,0,0,0,0,0,0,0,0,0,0,0,0,0,0,0,0,0,0,0,0,0,0,0],"id":14,"left_children":[1,3,5,7,9,11,13,15,17,19,21,-1,23,-1,25,-1,-1,-1,-1,-1,-1,-1,-1,-1,-1,-1,-1],"loss_changes":[3.9652616E-2,5.191363E-2,2.23994E-2,6.252892E-2,3.6932103E-2,1.4609255E-2,2.4189293E-2,3.0826747E-2,3.3083685E-2,1.6470663E-2,3.7195705E-2,0E0,8.039609E-3,0E0,1.9493118E-2,0E0,0E0,0E0,0E0,0E0,0E0,0E0,0E0,0E0,0E0,0E0,0E0],"parents":[2147483647,0,0,1,1,2,2,3,3,4,4,5,5,6,6,7,7,8,8,9,9,10,10,12,12,14,14],"right_children":[2,4,6,8,10,12,14,16,18,20,22,-1,24,-1,26,-1,-1,-1,-1,-1,-1,-1,-1,-1,-1,-1,-1],"split_conditions":[7.94599E1,8.186603E-3,1.7809559E1,2.1119149E-1,1.7907639E-1,7.6819725E-2,2.141E-1,-6.343799E-2,9.893944E-1,1.9027697E-1,-8.894506E-2,-1.5733E-3,1.645456E-1,-2.6017418E-3,3.3589402E-1,5.09957E-3,8.6180336E-4,1.5961984E-3,-9.481055E-4,1.872881E-4,2.4516077E-3,-3.460421E-4,-1.8194652E-3,3.2724813E-3,-5.9466314E-4,3.4874678E-4,3.7071798E-3],"split_indices":[10,4,13,8,6,6,29,22,9,2,24,0,1,0,16,0,0,0,0,0,0,0,0,0,0,0,0],"split_type":[0,0,0,0,0,0,0,0,0,0,0,0,0,0,0,0,0,0,0,0,0,0,0,0,0,0,0],"sum_hessian":[3.66E2,3.18E2,4.8E1,6.8E1,2.5E2,1.8E1,3E1,1.8E1,5E1,6.2E1,1.88E2,1E0,1.7E1,4E0,2.6E1,1E1,8E0,2E1,3E1,5.4E1,8E0,1.23E2,6.5E1,1.6E1,1E0,2.2E1,4E0],"tree_param":{"num_deleted":"0","num_feature":"33","num_nodes":"27","size_leaf_vector":"1"}},{"base_weights":[-2.2552673E-4,-1.4215342E-2,9.113349E-3,1.2496439E-2,-2.3250999E-2,5.0755724E-2,3.5260732E-3,-1.3508866E-2,3.7540477E-2,-6.0897106E-3,-4.0722705E-2,-2.0421357E-3,7.60853E-2,-1.8570938E-3,3.4600634E-2,1.9071599E-3,-1.1340688E-3,-1.9957675E-4,2.6137389E-3,3.117511E-3,-5.1586644E-4,-3.1699985E-3,-1.3777608E-3,6.525043E-3,1.2799617E-3,2.6082313E-3,-2.9171776E-4,7.654612E-4,3.2742296E-3],"categories":[],"categories_nodes":[],"categories_segments":[],"categories_sizes":[],"default_left":[0,0,0,0,0,0,0,0,0,0,0,0,0,0,0,0,0,0,0,0,0,0,0,0,0,0,0,0,0],"id":15,"left_children":[1,3,5,7,9,11,13,15,17,19,21,-1,23,25,27,-1,-1,-1,-1,-1,-1,-1,-1,-1,-1,-1,-1,-1,-1],"loss_changes":[4.716269E-2,3.531213E-2,5.0104044E-2,2.5183614E-2,3.2160327E-2,6.382509E-2,3.2297697E-2,1.0536402E-2,1.2245914E-2,1.7312523E-2,1.33547485E-2,0E0,5.130709E-2,3.60156E-2,1.5476383E-2,0E0,0E0,0E0,0E0,0E0,0E0,0E0,0E0,0E0,0E0,0E0,0E0,0E0,0E0],"parents":[2147483647,0,0,1,1,2,2,3,3,4,4,5,5,6,6,7,7,8,8,9,9,10,10,12,12,13,13,14,14],"right_children":[2,4,6,8,10,12,14,16,18,20,22,-1,24,26,28,-1,-1,-1,-1,-1,-1,-1,-1,-1,-1,-1,-1,-1,-1],"split_conditions":[9.618E-2,2.1119149E-1,5.8740176E-2,4.9217064E-3,-7.952696E-3,-9.507521E-2,-4.08657E-2,1.6246682E-1,1.9877563E-1,2.4335829E1,2.2662067E-1,-2.0421357E-3,-6.343799E-2,-1.3750617E-1,2.307913E-1,1.9071599E-3,-1.1340688E-3,-1.9957675E-4,2.6137389E-3,3.117511E-3,-5.1586644E-4,-3.1699985E-3,-1.3777608E-3,6.525043E-3,1.2799617E-3,2.6082313E-3,-2.9171776E-4,7.654612E-4,3.2742296E-3],"split_indices":[26,8,4,0,3,2,23,8,8,11,7,0,22,23,2,0,0,0,0,0,0,0,0,0,0,0,0,0,0],"split_type":[0,0,0,0,0,0,0,0,0,0,0,0,0,0,0,0,0,0,0,0,0,0,0,0,0,0,0,0,0],"sum_hessian":[3.58E2,1.43E2,2.15E2,3.6E1,1.07E2,2.4E1,1.91E2,1.8E1,1.8E1,5.5E1,5.2E1,5E0,1.9E1,1.64E2,2.7E1,2E0,1.6E1,5E0,1.3E1,2E0,5.3E1,1.7E1,3.5E1,8E0,1.1E1,1E1,1.54E2,1.8E1,9E0],"tree_param":{"num_deleted":"0","num_feature":"33","num_nodes":"29","size_leaf_vector":"1"}},{"base_weights":[1.0046316E-3,2.5874698E-3,-7.5067E-2,4.4349857E-5,6.7761764E-2,-4.043027E-3,-7.481809E-4,-5.552504E-3,2.7836138E-2,1.10637635E-1,1.1333542E-2,4.5019924E-3,-3.5098815E-4,7.22661E-4,3.3475608E-3,5.9445566E-3,1.1397986E-3,-1.1586761E-3,2.103138E-3],"categories":[],"categories_nodes":[],"categories_segments":[],"categories_sizes":[],"default_left":[0,0,0,0,0,0,0,0,0,0,0,0,0,0,0,0,0,0,0],"id":16,"left_children":[1,3,5,7,9,-1,-1,11,13,15,17,-1,-1,-1,-1,-1,-1,-1,-1],"loss_changes":[4.430087E-2,5.9581194E-2,7.96631E-4,5.428428E-2,3.0781139E-2,0E0,0E0,4.1693248E-2,2.9171728E-2,1.3721511E-3,9.414925E-3,0E0,0E0,0E0,0E0,0E0,0E0,0E0,0E0],"parents":[2147483647,0,0,1,1,2,2,3,3,4,4,7,7,8,8,9,9,10,10],"right_children":[2,4,6,8,10,-1,-1,12,14,16,18,-1,-1,-1,-1,-1,-1,-1,-1],"split_conditions":[4.9044006E-2,4.069422E-1,6.598746E-2,-4.732818E-2,2.7196655E-1,-4.043027E-3,-7.481809E-4,-1.7249729E-1,2.305872E-1,6.4699644E-1,4.521652E1,4.5019924E-3,-3.5098815E-4,7.22661E-4,3.3475608E-3,5.9445566E-3,1.1397986E-3,-1.1586761E-3,2.103138E-3],"split_indices":[18,8,0,23,2,0,0,20,7,4,10,0,0,0,0,0,0,0,0],"split_type":[0,0,0,0,0,0,0,0,0,0,0,0,0,0,0,0,0,0,0],"sum_hessian":[3.64E2,3.58E2,6E0,3.46E2,1.2E1,5E0,1E0,2.89E2,5.7E1,6E0,6E0,3E0,2.86E2,4.4E1,1.3E1,5E0,1E0,3E0,3E0],"tree_param":{"num_deleted":"0","num_feature":"33","num_nodes":"19","size_leaf_vector":"1"}},{"base_weights":[-1.2232037E-3,-1.7121786E-2,1.0005611E-2,1.729566E-2,-2.1885311E-2,4.9157184E-2,4.3049497E-3,-2.1127203E-2,3.2730497E-2,-3.9289914E-2,-9.630298E-3,-2.0401382E-3,6.707395E-2,-1.1923328E-3,2.937341E-2,-2.4189563E-4,-1.138473E-3,2.2588663E-3,2.0934438E-6,-2.1886553E-3,2.3038725E-3,-1.8863131E-4,-3.333574E-3,5.2483645E-3,1.0565865E-3,6.000187E-4,-6.938737E-4,-2.7083303E-4,2.0091338E-3],"categories":[],"categories_nodes":[],"categories_segments":[],"categories_sizes":[],"default_left":[0,0,0,0,0,0,0,0,0,0,0,0,0,0,0,0,0,0,0,0,0,0,0,0,0,0,0,0,0],"id":17,"left_children":[1,3,5,7,9,11,13,15,17,19,21,-1,23,25,27,-1,-1,-1,-1,-1,-1,-1,-1,-1,-1,-1,-1,-1,-1],"loss_changes":[6.622094E-2,2.5733855E-2,4.822636E-2,1.2601741E-2,2.8333724E-2,4.8429467E-2,2.6442846E-2,8.648029E-6,5.896773E-3,2.4266303E-2,2.6854185E-2,0E0,3.758402E-2,2.6774986E-2,1.3300389E-2,0E0,0E0,0E0,0E0,0E0,0E0,0E0,0E0,0E0,0E0,0E0,0E0,0E0,0E0],"parents":[2147483647,0,0,1,1,2,2,3,3,4,4,5,5,6,6,7,7,8,8,9,9,10,10,12,12,13,13,14,14],"right_children":[2,4,6,8,10,12,14,16,18,20,22,-1,24,26,28,-1,-1,-1,-1,-1,-1,-1,-1,-1,-1,-1,-1,-1,-1],"split_conditions":[9.618E-2,-6.281146E-2,5.8740176E-2,2.167168E-1,-1.0477849E-3,-9.646928E-2,7.650275E1,-1.22423396E-1,3.7540916E1,6.687118E1,1.4811912E-1,-2.0401382E-3,-6.962363E-2,7.304588E-1,8.41514E-1,-2.4189563E-4,-1.138473E-3,2.2588663E-3,2.0934438E-6,-2.1886553E-3,2.3038725E-3,-1.8863131E-4,-3.333574E-3,5.2483645E-3,1.0565865E-3,6.000187E-4,-6.938737E-4,-2.7083303E-4,2.0091338E-3],"split_indices":[26,15,4,8,19,15,10,1,12,10,1,0,23,25,20,0,0,0,0,0,0,0,0,0,0,0,0,0,0],"split_type":[0,0,0,0,0,0,0,0,0,0,0,0,0,0,0,0,0,0,0,0,0,0,0,0,0,0,0,0,0],"sum_hessian":[3.68E2,1.52E2,2.16E2,1.8E1,1.34E2,2.6E1,1.9E2,5E0,1.3E1,5.4E1,8E1,4E0,2.2E1,1.57E2,3.3E1,1E0,4E0,9E0,4E0,5.2E1,2E0,7.4E1,6E0,1.1E1,1.1E1,7.7E1,8E1,8E0,2.5E1],"tree_param":{"num_deleted":"0","num_feature":"33","num_nodes":"29","size_leaf_vector":"1"}},{"base_weights":[3.1151046E-4,-6.817087E-3,1.9862505E-2,-7.4525335E-4,-2.5646172E-2,4.2562257E-2,-6.5674097E-3,-1.1144895E-2,2.389523E-2,4.66256E-2,-3.45589E-2,5.0682474E-2,-5.733858E-2,2.4059456E-2,-2.1808896E-2,7.843237E-4,-8.777538E-4,2.7490098E-3,2.1442208E-4,4.2203144E-4,2.5276185E-3,-2.0295335E-3,6.4834E-4,-1.04822626E-4,2.919447E-3,-3.73031E-3,6.196119E-5,2.8683129E-3,-6.7465636E-4,3.7606177E-4,-1.8333305E-3],"categories":[],"categories_nodes":[],"categories_segments":[],"categories_sizes":[],"default_left":[0,0,0,0,0,0,0,0,0,0,0,0,0,0,0,0,0,0,0,0,0,0,0,0,0,0,0,0,0,0,0],"id":18,"left_children":[1,3,5,7,9,11,13,15,17,19,21,23,25,27,29,-1,-1,-1,-1,-1,-1,-1,-1,-1,-1,-1,-1,-1,-1,-1,-1],"loss_changes":[4.877396E-2,2.9296223E-2,5.651484E-2,5.049677E-2,4.2675648E-2,4.5325518E-2,2.155962E-2,2.4234224E-2,3.5300698E-2,4.8453547E-4,1.698602E-2,1.950372E-2,4.6904273E-3,2.0547798E-2,1.3704919E-2,0E0,0E0,0E0,0E0,0E0,0E0,0E0,0E0,0E0,0E0,0E0,0E0,0E0,0E0,0E0,0E0],"parents":[2147483647,0,0,1,1,2,2,3,3,4,4,5,5,6,6,7,7,8,8,9,9,10,10,11,11,12,12,13,13,14,14],"right_children":[2,4,6,8,10,12,14,16,18,20,22,24,26,28,30,-1,-1,-1,-1,-1,-1,-1,-1,-1,-1,-1,-1,-1,-1,-1,-1],"split_conditions":[1.3793999E-1,1.2850615E0,3.2703644E-1,8.14426E-1,1.4791563E-1,2.5622863E-1,6.0578835E-1,-9.475214E-3,5.8740176E-2,7.7554904E-2,8.8937074E-1,-1.9845343E-3,8.170053E-2,2.635E-1,-8.894506E-2,7.843237E-4,-8.777538E-4,2.7490098E-3,2.1442208E-4,4.2203144E-4,2.5276185E-3,-2.0295335E-3,6.4834E-4,-1.04822626E-4,2.919447E-3,-3.73031E-3,6.196119E-5,2.8683129E-3,-6.7465636E-4,3.7606177E-4,-1.8333305E-3],"split_indices":[26,25,3,25,8,8,25,18,4,6,20,18,2,29,24,0,0,0,0,0,0,0,0,0,0,0,0,0,0,0,0],"split_type":[0,0,0,0,0,0,0,0,0,0,0,0,0,0,0,0,0,0,0,0,0,0,0,0,0,0,0,0,0,0,0],"sum_hessian":[3.47E2,2.55E2,9.2E1,1.94E2,6.1E1,4.9E1,4.3E1,1.37E2,5.7E1,6E0,5.5E1,4.6E1,3E0,1.4E1,2.9E1,2.6E1,1.11E2,2.1E1,3.6E1,1E0,5E0,4.9E1,6E0,6E0,4E1,2E0,1E0,7E0,7E0,1E1,1.9E1],"tree_param":{"num_deleted":"0","num_feature":"33","num_nodes":"31","size_leaf_vector":"1"}},{"base_weights":[-1.9230676E-3,1.0581702E-4,-5.3032663E-2,-2.348935E-3,3.8715515E-2,-3.822536E-3,-1.0170737E-2,6.131692E-2,-3.8464721E-3,6.5181285E-2,-1.015051E-2,-1.3509019E-3,7.924481E-4,4.5416667E-3,-5.672352E-4,-5.8714405E-4,5.023917E-4,4.254848E-3,-1.5078533E-4,-1.5260554E-3,4.642332E-4],"categories":[],"categories_nodes":[],"categories_segments":[],"categories_sizes":[],"default_left":[0,0,0,0,0,0,0,0,0,0,0,0,0,0,0,0,0,0,0,0,0],"id":19,"left_children":[1,3,5,7,9,-1,11,13,15,17,19,-1,-1,-1,-1,-1,-1,-1,-1,-1,-1],"loss_changes":[3.6664765E-2,3.2502837E-2,1.2384195E-2,3.110157E-2,2.7504615E-2,0E0,3.4916627E-3,1.7631048E-2,3.4901824E-2,1.8720493E-2,3.7902694E-3,0E0,0E0,0E0,0E0,0E0,0E0,0E0,0E0,0E0,0E0],"parents":[2147483647,0,0,1,1,2,2,3,3,4,4,6,6,7,7,8,8,9,9,10,10],"right_children":[2,4,6,8,10,-1,12,14,16,18,20,-1,-1,-1,-1,-1,-1,-1,-1,-1,-1],"split_conditions":[4.481896E-1,3.7352002E-1,2.003506E-1,-1.009969E-1,2.5654706E-1,-3.822536E-3,3.025644E-1,2.13E-1,9.651521E0,9.6845776E-2,1.8881891E-3,-1.3509019E-3,7.924481E-4,4.5416667E-3,-5.672352E-4,-5.8714405E-4,5.023917E-4,4.254848E-3,-1.5078533E-4,-1.5260554E-3,4.642332E-4],"split_indices":[16,26,1,20,7,0,7,28,13,1,14,0,0,0,0,0,0,0,0,0,0],"split_type":[0,0,0,0,0,0,0,0,0,0,0,0,0,0,0,0,0,0,0,0,0],"sum_hessian":[3.52E2,3.4E2,1.2E1,3.21E2,1.9E1,7E0,5E0,6E0,3.15E2,1.2E1,7E0,3E0,2E0,4E0,2E0,2.01E2,1.14E2,9E0,3E0,3E0,4E0],"tree_param":{"num_deleted":"0","num_feature":"33","num_nodes":"21","size_leaf_vector":"1"}},{"base_weights":[1.4617172E-3,-3.4408153E-3,2.8278375E-2,1.1839471E-4,-3.2769755E-2,5.366065E-2,4.001978E-3,1.9967707E-3,-4.793128E-2,2.0838173E-2,-4.1098196E-2,1.1753489E-2,8.496747E-2,2.3587933E-2,-2.32827E-2,-1.8277553E-4,1.214583E-3,-2.982669E-3,5.3932756E-5,-3.9516605E-4,2.032451E-3,-2.4188764E-3,7.734176E-4,1.6871908E-3,-6.2937685E-4,4.4221855E-3,6.91239E-4,-1.6791754E-3,1.8951696E-3,4.3151583E-4,-2.178903E-3],"categories":[],"categories_nodes":[],"categories_segments":[],"categories_sizes":[],"default_left":[0,0,0,0,0,0,0,0,0,0,0,0,0,0,0,0,0,0,0,0,0,0,0,0,0,0,0,0,0,0,0],"id":20,"left_children":[1,3,5,7,9,11,13,15,17,19,21,23,25,27,29,-1,-1,-1,-1,-1,-1,-1,-1,-1,-1,-1,-1,-1,-1,-1,-1],"loss_changes":[4.8066594E-2,3.231386E-2,3.449262E-2,2.5189426E-2,1.6241375E-2,3.4581453E-2,1.712288E-2,3.3968765E-2,6.128758E-3,3.6135572E-3,1.3269588E-2,7.863233E-3,1.9992217E-3,1.7050445E-2,9.3079E-3,0E0,0E0,0E0,0E0,0E0,0E0,0E0,0E0,0E0,0E0,0E0,0E0,0E0,0E0,0E0,0E0],"parents":[2147483647,0,0,1,1,2,2,3,3,4,4,5,5,6,6,7,7,8,8,9,9,10,10,11,11,12,12,13,13,14,14],"right_children":[2,4,6,8,10,12,14,16,18,20,22,24,26,28,30,-1,-1,-1,-1,-1,-1,-1,-1,-1,-1,-1,-1,-1,-1,-1,-1],"split_conditions":[-4.732818E-2,1.8104879E0,1.0184201E0,7.334938E1,-1.0288193E-1,2.1499808E-1,7.334938E1,3.6137516E-3,2.1324E-1,-1.0677572E-1,-3.1232858E-2,1.1090887E-1,1.3016726E-1,-4.139345E-2,1.7142862E-1,-1.8277553E-4,1.214583E-3,-2.982669E-3,5.3932756E-5,-3.9516605E-4,2.032451E-3,-2.4188764E-3,7.734176E-4,1.6871908E-3,-6.2937685E-4,4.4221855E-3,6.91239E-4,-1.6791754E-3,1.8951696E-3,4.3151583E-4,-2.178903E-3],"split_indices":[23,25,9,12,16,16,12,19,26,4,22,2,1,22,2,0,0,0,0,0,0,0,0,0,0,0,0,0,0,0,0],"split_type":[0,0,0,0,0,0,0,0,0,0,0,0,0,0,0,0,0,0,0,0,0,0,0,0,0,0,0,0,0,0,0],"sum_hessian":[3.63E2,3.08E2,5.5E1,2.76E2,3.2E1,2.6E1,2.9E1,2.67E2,9E0,4E0,2.8E1,1.2E1,1.4E1,1.7E1,1.2E1,2.14E2,5.3E1,7E0,2E0,2E0,2E0,2.5E1,3E0,6E0,6E0,1.3E1,1E0,3E0,1.4E1,5E0,7E0],"tree_param":{"num_deleted":"0","num_feature":"33","num_nodes":"31","size_leaf_vector":"1"}},{"base_weights":[1.9404074E-3,-1.1965851E-3,3.083559E-2,3.9030347E-2,-3.4442914E-3,4.2401552E-2,-1.7740067E-2,-1.8356565E-3,5.2327745E-2,6.302554E-2,-4.9188593E-3,-7.704852E-3,6.355071E-2,8.15108E-3,-3.7717856E-2,-5.81427E-4,4.3719687E-4,1.0185814E-3,3.477875E-3,4.436993E-3,1.4766648E-4,-7.349324E-4,2.0674968E-4,-1.3565797E-3,1.8612981E-3,1.339898E-3,4.045825E-3,-7.709485E-5,8.4153004E-4,-2.1381674E-3,-4.0117302E-4],"categories":[],"categories_nodes":[],"categories_segments":[],"categories_sizes":[],"default_left":[0,0,0,0,0,0,0,0,0,0,0,0,0,0,0,0,0,0,0,0,0,0,0,0,0,0,0,0,0,0,0],"id":21,"left_children":[1,3,5,7,9,11,13,15,17,19,21,23,25,27,29,-1,-1,-1,-1,-1,-1,-1,-1,-1,-1,-1,-1,-1,-1,-1,-1],"loss_changes":[3.1010259E-2,2.8186118E-2,1.9949425E-2,9.110374E-3,2.9330231E-2,2.9876448E-2,4.3405215E-3,7.2234496E-4,4.75695E-3,9.647539E-3,2.5724877E-2,9.807163E-3,9.193085E-3,4.1751337E-4,1.5953742E-4,0E0,0E0,0E0,0E0,0E0,0E0,0E0,0E0,0E0,0E0,0E0,0E0,0E0,0E0,0E0,0E0],"parents":[2147483647,0,0,1,1,2,2,3,3,4,4,5,5,6,6,7,7,8,8,9,9,10,10,11,11,12,12,13,13,14,14],"right_children":[2,4,6,8,10,12,14,16,18,20,22,24,26,28,30,-1,-1,-1,-1,-1,-1,-1,-1,-1,-1,-1,-1,-1,-1,-1,-1],"split_conditions":[1.2991827E0,-1.2659867E-1,-6.402164E-2,-2.1126775E-2,-1.009969E-1,-8.085501E-2,2.1701263E-1,9.401515E-2,2.3613393E-1,4.6624937E-3,1.778264E-1,9.12786E-3,8.349E-2,9.28463E-3,1.7671218E-2,-5.81427E-4,4.3719687E-4,1.0185814E-3,3.477875E-3,4.436993E-3,1.4766648E-4,-7.349324E-4,2.0674968E-4,-1.3565797E-3,1.8612981E-3,1.339898E-3,4.045825E-3,-7.709485E-5,8.4153004E-4,-2.1381674E-3,-4.0117302E-4],"split_indices":[9,3,24,0,20,4,3,20,7,4,3,0,26,0,0,0,0,0,0,0,0,0,0,0,0,0,0,0,0,0,0],"split_type":[0,0,0,0,0,0,0,0,0,0,0,0,0,0,0,0,0,0,0,0,0,0,0,0,0,0,0,0,0,0,0],"sum_hessian":[3.4E2,3.08E2,3.2E1,1.5E1,2.93E2,2.6E1,6E0,4E0,1.1E1,5E0,2.88E2,8E0,1.8E1,3E0,3E0,2E0,2E0,5E0,6E0,3E0,2E0,1.38E2,1.5E2,6E0,2E0,7E0,1.1E1,2E0,1E0,2E0,1E0],"tree_param":{"num_deleted":"0","num_feature":"33","num_nodes":"31","size_leaf_vector":"1"}},{"base_weights":[2.1243047E-3,5.096425E-4,6.472126E-2,-5.397497E-3,1.8151162E-2,6.042268E-3,1.1502758E-3,-3.3766376E-3,-4.008367E-3,2.6012681E-2,-4.022121E-2,1.5082769E-2,-1.2309188E-3,1.8811071E-3,-3.247211E-4,1.8645832E-3,-5.5763783E-4,-2.4419993E-3,8.331425E-4,8.4523374E-4,1.7412197E-4],"categories":[],"categories_nodes":[],"categories_segments":[],"categories_sizes":[],"default_left":[0,0,0,0,0,0,0,0,0,0,0,0,0,0,0,0,0,0,0,0,0],"id":22,"left_children":[1,3,5,7,9,-1,11,13,-1,15,17,19,-1,-1,-1,-1,-1,-1,-1,-1,-1],"loss_changes":[3.416371E-2,3.469288E-2,3.0118339E-2,3.7293244E-2,3.988717E-2,0E0,2.5315885E-3,3.1619802E-2,0E0,3.1853385E-2,6.3685626E-3,6.8019144E-6,0E0,0E0,0E0,0E0,0E0,0E0,0E0,0E0,0E0],"parents":[2147483647,0,0,1,1,2,2,3,3,4,4,6,6,7,7,9,9,10,10,11,11],"right_children":[2,4,6,8,10,-1,12,14,-1,16,18,20,-1,-1,-1,-1,-1,-1,-1,-1,-1],"split_conditions":[4.5951465E-1,1.3793999E-1,1.305435E-1,6.886446E-1,-5.5182885E-2,6.042268E-3,4.8878175E-1,2.249E-2,-4.008367E-3,2.648937E-1,4.2037037E-1,1.03514E0,-1.2309188E-3,1.8811071E-3,-3.247211E-4,1.8645832E-3,-5.5763783E-4,-2.4419993E-3,8.331425E-4,8.4523374E-4,1.7412197E-4],"split_indices":[7,26,21,3,24,0,7,26,0,7,2,3,0,0,0,0,0,0,0,0,0],"split_type":[0,0,0,0,0,0,0,0,0,0,0,0,0,0,0,0,0,0,0,0,0],"sum_hessian":[3.37E2,3.3E2,7E0,2.48E2,8.2E1,3E0,4E0,2.43E2,5E0,7.3E1,9E0,3E0,1E0,1.6E1,2.27E2,5.6E1,1.7E1,8E0,1E0,2E0,1E0],"tree_param":{"num_deleted":"0","num_feature":"33","num_nodes":"21","size_leaf_vector":"1"}},{"base_weights":[-1.0301813E-3,-2.6751126E-3,5.4183017E-2,-1.135501E-3,-6.460258E-2,9.895689E-2,3.7936585E-3,-5.538675E-3,2.2969764E-2,-3.493359E-3,-5.0236227E-4,3.7171147E-4,5.8408594E-3,1.4668415E-2,-5.907013E-4,2.8651475E-3,-3.5773727E-4,1.9471676E-3,-1.7609262E-4,8.210842E-4,1.7063953E-4],"categories":[],"categories_nodes":[],"categories_segments":[],"categories_sizes":[],"default_left":[0,0,0,0,0,0,0,0,0,0,0,0,0,0,0,0,0,0,0,0,0],"id":23,"left_children":[1,3,5,7,9,11,13,15,17,-1,-1,-1,-1,19,-1,-1,-1,-1,-1,-1,-1],"loss_changes":[3.2958724E-2,3.3403467E-2,2.3126217E-2,3.6755953E-2,1.3883412E-3,7.687751E-3,1.3631828E-3,3.0320253E-2,2.2845117E-2,0E0,0E0,0E0,0E0,4.737929E-6,0E0,0E0,0E0,0E0,0E0,0E0,0E0],"parents":[2147483647,0,0,1,1,2,2,3,3,4,4,5,5,6,6,7,7,8,8,13,13],"right_children":[2,4,6,8,10,12,14,16,18,-1,-1,-1,-1,20,-1,-1,-1,-1,-1,-1,-1],"split_conditions":[4.5951465E-1,5.0677454E-1,1.305435E-1,-4.6774242E-2,7.422909E-2,-2.1159358E-2,4.8878175E-1,-1.009969E-1,-3.4430195E-2,-3.493359E-3,-5.0236227E-4,3.7171147E-4,5.8408594E-3,9.1047816E-2,-5.907013E-4,2.8651475E-3,-3.5773727E-4,1.9471676E-3,-1.7609262E-4,8.210842E-4,1.7063953E-4],"split_indices":[7,16,21,23,5,1,7,20,23,0,0,0,0,1,0,0,0,0,0,0,0],"split_type":[0,0,0,0,0,0,0,0,0,0,0,0,0,0,0,0,0,0,0,0,0],"sum_hessian":[3.59E2,3.5E2,9E0,3.43E2,7E0,4E0,5E0,2.91E2,5.2E1,6E0,1E0,1E0,3E0,3E0,2E0,6E0,2.85E2,3.2E1,2E1,2E0,1E0],"tree_param":{"num_deleted":"0","num_feature":"33","num_nodes":"21","size_leaf_vector":"1"}},{"base_weights":[6.043904E-4,-3.4282056E-3,1.7780114E-2,6.2633175E-5,-3.3241846E-2,2.381093E-2,-4.7095053E-2,1.7479435E-3,-5.219304E-2,3.0852156E-3,-4.281638E-2,1.3647782E-2,6.144145E-2,-2.55911E-3,-4.92315E-4,-2.0080619E-4,1.2796364E-3,-3.5163348E-3,-6.315998E-4,-4.986902E-4,-2.8252641E-3,1.6415481E-3,-3.1399116E-4,3.4752924E-3,4.3060505E-4],"categories":[],"categories_nodes":[],"categories_segments":[],"categories_sizes":[],"default_left":[0,0,0,0,0,0,0,0,0,0,0,0,0,0,0,0,0,0,0,0,0,0,0,0,0],"id":24,"left_children":[1,3,5,7,9,11,13,15,17,-1,19,21,23,-1,-1,-1,-1,-1,-1,-1,-1,-1,-1,-1,-1],"loss_changes":[2.5684021E-2,3.1277545E-2,2.92652E-2,2.3958972E-2,3.2598488E-2,2.3792304E-2,2.3363438E-4,3.637039E-2,4.765235E-3,0E0,1.2417216E-2,2.0760965E-2,4.8536137E-3,0E0,0E0,0E0,0E0,0E0,0E0,0E0,0E0,0E0,0E0,0E0,0E0],"parents":[2147483647,0,0,1,1,2,2,3,3,4,4,5,5,6,6,7,7,8,8,10,10,11,11,12,12],"right_children":[2,4,6,8,10,12,14,16,18,-1,20,22,24,-1,-1,-1,-1,-1,-1,-1,-1,-1,-1,-1,-1],"split_conditions":[-5.1428575E-2,1.8104879E0,3.8572252E-1,5.6673473E-1,-6.039697E-2,2.1562122E-1,3.3973403E-2,1.2127959E0,-1.04761906E-1,3.0852156E-3,-5.177394E-2,1.8315311E-1,1.3513647E0,-2.55911E-3,-4.92315E-4,-2.0080619E-4,1.2796364E-3,-3.5163348E-3,-6.315998E-4,-4.986902E-4,-2.8252641E-3,1.6415481E-3,-3.1399116E-4,3.4752924E-3,4.3060505E-4],"split_indices":[23,25,2,6,0,8,0,9,22,0,1,6,25,0,0,0,0,0,0,0,0,0,0,0,0],"split_type":[0,0,0,0,0,0,0,0,0,0,0,0,0,0,0,0,0,0,0,0,0,0,0,0,0],"sum_hessian":[3.68E2,2.99E2,6.9E1,2.69E2,3E1,6.4E1,5E0,2.62E2,7E0,2E0,2.8E1,5.2E1,1.2E1,4E0,1E0,2.12E2,5E1,4E0,3E0,9E0,1.9E1,2.6E1,2.6E1,1E1,2E0],"tree_param":{"num_deleted":"0","num_feature":"33","num_nodes":"25","size_leaf_vector":"1"}},{"base_weights":[1.9977253E-3,-2.3471708E-3,2.8840434E-2,2.6915413E-3,-1.896444E-2,8.883488E-3,5.64222E-2,9.7395456E-4,5.8308174E-3,-4.400143E-2,-3.273839E-4,2.9714098E-3,-4.523015E-3,1.9387303E-2,8.2877256E-2,4.9409963E-4,-7.2194537E-4,-1.0055462E-3,-3.0012436E-3,2.209629E-3,-4.730934E-4,1.2281492E-3,-6.707226E-4,-9.441343E-4,1.5862122E-3,4.6058376E-3,1.1139896E-3],"categories":[],"categories_nodes":[],"categories_segments":[],"categories_sizes":[],"default_left":[0,0,0,0,0,0,0,0,0,0,0,0,0,0,0,0,0,0,0,0,0,0,0,0,0,0,0],"id":25,"left_children":[1,3,5,7,9,11,13,15,-1,17,19,-1,21,23,25,-1,-1,-1,-1,-1,-1,-1,-1,-1,-1,-1,-1],"loss_changes":[4.144644E-2,2.57397E-2,2.6495334E-2,4.6106946E-2,3.3341423E-2,2.1070842E-2,1.767493E-2,3.2410495E-2,0E0,9.864908E-3,1.7910557E-2,0E0,7.088965E-3,5.855972E-3,3.3602193E-3,0E0,0E0,0E0,0E0,0E0,0E0,0E0,0E0,0E0,0E0,0E0,0E0],"parents":[2147483647,0,0,1,1,2,2,3,3,4,4,5,5,6,6,7,7,9,9,10,10,12,12,13,13,14,14],"right_children":[2,4,6,8,10,12,14,16,-1,18,20,-1,22,24,26,-1,-1,-1,-1,-1,-1,-1,-1,-1,-1,-1,-1],"split_conditions":[-4.6774242E-2,5.964044E-2,1.9774157E-1,2.432931E-2,3.274569E-2,1.2960885E-1,-3.517588E-2,9.753601E-2,5.8308174E-3,2.4325101E-1,6.520216E1,2.9714098E-3,1.5268351E-1,-2.6608545E-2,3.4688994E-2,4.9409963E-4,-7.2194537E-4,-1.0055462E-3,-3.0012436E-3,2.209629E-3,-4.730934E-4,1.2281492E-3,-6.707226E-4,-9.441343E-4,1.5862122E-3,4.6058376E-3,1.1139896E-3],"split_indices":[23,15,8,18,14,7,22,21,0,6,11,0,3,1,0,0,0,0,0,0,0,0,0,0,0,0,0],"split_type":[0,0,0,0,0,0,0,0,0,0,0,0,0,0,0,0,0,0,0,0,0,0,0,0,0,0,0],"sum_hessian":[3.53E2,3.05E2,4.8E1,2.35E2,7E1,2.9E1,1.9E1,2.33E2,2E0,2.9E1,4.1E1,5E0,2.4E1,9E0,1E1,1.48E2,8.5E1,1.3E1,1.6E1,6E0,3.5E1,5E0,1.9E1,2E0,7E0,8E0,2E0],"tree_param":{"num_deleted":"0","num_feature":"33","num_nodes":"27","size_leaf_vector":"1"}},{"base_weights":[1.4611157E-3,-1.0255956E-3,5.3549223E-2,2.438224E-3,-2.5236968E-2,8.7883614E-2,5.725626E-3,-1.5541592E-3,3.4804408E-2,7.284362E-3,-4.2736843E-2,7.58659E-4,9.376016E-2,-2.1548586E-2,3.715223E-2,-2.979567E-4,1.3144356E-3,2.5475633E-3,7.817677E-5,1.6367208E-3,-8.3184516E-4,3.9985587E-4,-2.7020879E-3,4.9675587E-3,1.0365524E-3,-1.2109895E-3,-1.9056328E-4,2.253129E-3,1.8932064E-4],"categories":[],"categories_nodes":[],"categories_segments":[],"categories_sizes":[],"default_left":[0,0,0,0,0,0,0,0,0,0,0,0,0,0,0,0,0,0,0,0,0,0,0,0,0,0,0,0,0],"id":26,"left_children":[1,3,5,7,9,11,13,15,17,19,21,-1,23,25,27,-1,-1,-1,-1,-1,-1,-1,-1,-1,-1,-1,-1,-1,-1],"loss_changes":[4.690678E-2,2.9151114E-2,2.6338119E-2,3.942808E-2,2.5223654E-2,1.9252598E-3,8.486522E-3,3.3656333E-2,1.7861146E-2,1.0862058E-2,1.6994242E-2,0E0,3.81127E-4,1.2212782E-4,9.317696E-4,0E0,0E0,0E0,0E0,0E0,0E0,0E0,0E0,0E0,0E0,0E0,0E0,0E0,0E0],"parents":[2147483647,0,0,1,1,2,2,3,3,4,4,5,5,6,6,7,7,8,8,9,9,10,10,12,12,13,13,14,14],"right_children":[2,4,6,8,10,12,14,16,18,20,22,-1,24,26,28,-1,-1,-1,-1,-1,-1,-1,-1,-1,-1,-1,-1,-1,-1],"split_conditions":[3.563006E-1,2.6801068E-1,-1.3750617E-1,1.276403E0,8.853607E-1,-2.7232763E-1,1.0638889E-1,2.1324E-1,1.608E0,-9.357059E0,-7.1471535E-2,7.58659E-4,6.4699644E-1,1.1642053E-2,3.023727E-2,-2.979567E-4,1.3144356E-3,2.5475633E-3,7.817677E-5,1.6367208E-3,-8.3184516E-4,3.9985587E-4,-2.7020879E-3,4.9675587E-3,1.0365524E-3,-1.2109895E-3,-1.9056328E-4,2.253129E-3,1.8932064E-4],"split_indices":[8,8,23,9,9,4,15,26,28,13,5,0,4,0,0,0,0,0,0,0,0,0,0,0,0,0,0,0,0],"split_type":[0,0,0,0,0,0,0,0,0,0,0,0,0,0,0,0,0,0,0,0,0,0,0,0,0,0,0,0,0],"sum_hessian":[3.6E2,3.45E2,1.5E1,3.03E2,4.2E1,8E0,7E0,2.71E2,3.2E1,1.5E1,2.7E1,1E0,7E0,4E0,3E0,2.35E2,3.6E1,2.1E1,1.1E1,7E0,8E0,5E0,2.2E1,6E0,1E0,3E0,1E0,2E0,1E0],"tree_param":{"num_deleted":"0","num_feature":"33","num_nodes":"29","size_leaf_vector":"1"}},{"base_weights":[-1.6667438E-3,-4.206321E-4,-3.4813273E-3,-2.5410869E-3,5.823921E-2,3.557611E-2,-4.191877E-3,1.0090307E-1,2.0355674E-2,1.3019002E-4,2.9195591E-3,7.5155134E-5,-1.0466409E-3,1.0158214E-3,5.6019537E-3,-8.843881E-4,1.807157E-3],"categories":[],"categories_nodes":[],"categories_segments":[],"categories_sizes":[],"default_left":[0,0,0,0,0,0,0,0,0,0,0,0,0,0,0,0,0],"id":27,"left_children":[1,3,-1,5,7,9,11,13,15,-1,-1,-1,-1,-1,-1,-1,-1],"loss_changes":[3.0569877E-2,4.4565428E-2,0E0,2.1963762E-2,1.7122306E-2,1.06797945E-2,3.1747524E-2,1.5214197E-3,6.0641165E-3,0E0,0E0,0E0,0E0,0E0,0E0,0E0,0E0],"parents":[2147483647,0,0,1,1,3,3,4,4,5,5,6,6,7,7,8,8],"right_children":[2,4,-1,6,8,10,12,14,16,-1,-1,-1,-1,-1,-1,-1,-1],"split_conditions":[4.9044006E-2,4.069422E-1,-3.4813273E-3,-1.0288193E-1,4.5919403E-1,-2.9281018E-2,2.5339586E-1,-6.0738884E-2,-3.239778E-2,1.3019002E-4,2.9195591E-3,7.5155134E-5,-1.0466409E-3,1.0158214E-3,5.6019537E-3,-8.843881E-4,1.807157E-3],"split_indices":[18,8,0,16,8,0,7,1,0,0,0,0,0,0,0,0,0],"split_type":[0,0,0,0,0,0,0,0,0,0,0,0,0,0,0,0,0],"sum_hessian":[3.6E2,3.55E2,5E0,3.44E2,1.1E1,1.3E1,3.31E2,4E0,7E0,6E0,7E0,2.48E2,8.3E1,1E0,3E0,2E0,5E0],"tree_param":{"num_deleted":"0","num_feature":"33","num_nodes":"17","size_leaf_vector":"1"}},{"base_weights":[3.4192041E-3,-1.2825073E-4,2.80607E-2,-2.3082322E-3,3.9849736E-2,4.260371E-2,-1.5445288E-2,1.9444764E-2,-7.368414E-3,5.3218614E-2,-1.4021908E-3,1.6075874E-2,6.699567E-2,-1.8107916E-3,7.20112E-4,4.5273174E-4,2.3361205E-3,2.714061E-3,-4.4909772E-4,3.986268E-3,9.801192E-4,-4.9083383E-4,1.8699603E-4,-1.0536935E-3,1.608829E-3,4.753898E-3,2.2176707E-3,6.6998653E-4,-1.1568185E-3],"categories":[],"categories_nodes":[],"categories_segments":[],"categories_sizes":[],"default_left":[0,0,0,0,0,0,0,0,0,0,0,0,0,0,0,0,0,0,0,0,0,0,0,0,0,0,0,0,0],"id":28,"left_children":[1,3,5,7,9,11,13,15,17,19,21,23,25,-1,27,-1,-1,-1,-1,-1,-1,-1,-1,-1,-1,-1,-1,-1,-1],"loss_changes":[3.1605773E-2,2.78085E-2,2.9775247E-2,3.3512335E-2,9.211551E-3,2.0708263E-2,4.236171E-3,1.566197E-2,2.5251709E-2,8.7939985E-3,2.930456E-4,1.2082661E-2,4.801765E-3,0E0,3.036206E-3,0E0,0E0,0E0,0E0,0E0,0E0,0E0,0E0,0E0,0E0,0E0,0E0,0E0,0E0],"parents":[2147483647,0,0,1,1,2,2,3,3,4,4,5,5,6,6,7,7,8,8,9,9,10,10,11,11,12,12,14,14],"right_children":[2,4,6,8,10,12,14,16,18,20,22,24,26,-1,28,-1,-1,-1,-1,-1,-1,-1,-1,-1,-1,-1,-1,-1,-1],"split_conditions":[7.94599E1,3.7352002E-1,8.34364E1,1.8684763E-1,1.1620562E0,1.9182259E-1,8.905183E1,1.8700682E-1,-1.6657849E-1,2.4214578E-1,7.458564E-2,9.044642E-1,7.4816793E-3,-1.8107916E-3,9.682776E1,4.5273174E-4,2.3361205E-3,2.714061E-3,-4.4909772E-4,3.986268E-3,9.801192E-4,-4.9083383E-4,1.8699603E-4,-1.0536935E-3,1.608829E-3,4.753898E-3,2.2176707E-3,6.6998653E-4,-1.1568185E-3],"split_indices":[10,26,11,7,25,16,10,6,2,8,2,9,5,0,10,0,0,0,0,0,0,0,0,0,0,0,0,0,0],"split_type":[0,0,0,0,0,0,0,0,0,0,0,0,0,0,0,0,0,0,0,0,0,0,0,0,0,0,0,0,0],"sum_hessian":[3.6E2,3.16E2,4.4E1,3.01E2,1.5E1,3.3E1,1.1E1,5.6E1,2.45E2,1.1E1,4E0,1.7E1,1.6E1,4E0,7E0,4.2E1,1.4E1,5E0,2.4E2,5E0,6E0,1E0,3E0,5E0,1.2E1,5E0,1.1E1,5E0,2E0],"tree_param":{"num_deleted":"0","num_feature":"33","num_nodes":"29","size_leaf_vector":"1"}},{"base_weights":[1.0450582E-3,-1.3425448E-3,4.265589E-2,9.106909E-3,-1.17193265E-2,1.0211392E-1,1.1589615E-2,7.7017285E-2,5.92765E-3,-7.2060265E-3,-4.1127E-2,3.79791E-4,5.8613718E-3,2.9156746E-2,-2.5108442E-2,1.0238593E-3,4.5996318E-3,3.274489E-5,1.8008783E-3,-6.329526E-4,1.6364226E-3,-2.6251734E-3,-5.0360337E-5,-1.061633E-4,2.9086096E-3,-1.6811508E-3,2.641427E-4],"categories":[],"categories_nodes":[],"categories_segments":[],"categories_sizes":[],"default_left":[0,0,0,0,0,0,0,0,0,0,0,0,0,0,0,0,0,0,0,0,0,0,0,0,0,0,0],"id":29,"left_children":[1,3,5,7,9,11,13,15,17,19,21,-1,-1,23,25,-1,-1,-1,-1,-1,-1,-1,-1,-1,-1,-1,-1],"loss_changes":[3.5702925E-2,3.7081085E-2,3.4244027E-2,3.6126953E-2,2.2317907E-2,7.949606E-3,1.0445976E-2,3.5246871E-3,2.6063643E-2,3.3394903E-2,1.0190159E-2,0E0,0E0,9.71511E-3,1.6896669E-3,0E0,0E0,0E0,0E0,0E0,0E0,0E0,0E0,0E0,0E0,0E0,0E0],"parents":[2147483647,0,0,1,1,2,2,3,3,4,4,5,5,6,6,7,7,8,8,9,9,10,10,13,13,14,14],"right_children":[2,4,6,8,10,12,14,16,18,20,22,-1,-1,24,26,-1,-1,-1,-1,-1,-1,-1,-1,-1,-1,-1,-1],"split_conditions":[3.563006E-1,9.029531E-2,1.4152116E-1,-4.47513E-2,7.3094E1,-1.2253265E-1,5.6673473E-1,-2.8591843E-2,-6.2111802E-2,-5.1428575E-2,8.765963E1,3.79791E-4,5.8613718E-3,8.683338E-1,-3.239778E-2,1.0238593E-3,4.5996318E-3,3.274489E-5,1.8008783E-3,-6.329526E-4,1.6364226E-3,-2.6251734E-3,-5.0360337E-5,-1.061633E-4,2.9086096E-3,-1.6811508E-3,2.641427E-4],"split_indices":[8,21,21,0,12,5,6,2,24,23,12,0,0,9,0,0,0,0,0,0,0,0,0,0,0,0,0],"split_type":[0,0,0,0,0,0,0,0,0,0,0,0,0,0,0,0,0,0,0,0,0,0,0,0,0,0,0],"sum_hessian":[3.57E2,3.39E2,1.8E1,1.69E2,1.7E2,5E0,1.3E1,6E0,1.63E2,1.49E2,2.1E1,1E0,4E0,9E0,4E0,2E0,4E0,1.4E2,2.3E1,1.32E2,1.7E1,1.6E1,5E0,5E0,4E0,3E0,1E0],"tree_param":{"num_deleted":"0","num_feature":"33","num_nodes":"27","size_leaf_vector":"1"}},{"base_weights":[2.824635E-3,-2.0029861E-3,1.9293861E-2,2.5961854E-2,-5.198131E-3,4.8281536E-2,6.3935627E-4,3.7073113E-3,1.593156E-2,-1.9990178E-2,1.4927724E-3,2.4481554E-2,9.953177E-2,-2.1213623E-2,1.7274372E-2,-1.1144762E-3,1.4703235E-3,-1.2719141E-3,1.1511673E-3,5.1127106E-4,-6.869337E-4,2.5124126E-3,-2.0268522E-3,1.3642029E-4,5.5219457E-3,-1.7275921E-3,3.426295E-4,1.8403655E-3,-1.1664566E-3],"categories":[],"categories_nodes":[],"categories_segments":[],"categories_sizes":[],"default_left":[0,0,0,0,0,0,0,0,0,0,0,0,0,0,0,0,0,0,0,0,0,0,0,0,0,0,0,0,0],"id":30,"left_children":[1,3,5,7,9,11,13,-1,15,17,19,21,23,25,27,-1,-1,-1,-1,-1,-1,-1,-1,-1,-1,-1,-1,-1,-1],"loss_changes":[2.8243266E-2,2.4818823E-2,4.3484133E-2,1.200225E-2,2.463934E-2,3.4767225E-2,1.8907672E-2,0E0,1.411634E-2,1.9040024E-2,2.3155097E-2,4.242526E-2,9.578578E-3,8.778104E-3,2.4684645E-2,0E0,0E0,0E0,0E0,0E0,0E0,0E0,0E0,0E0,0E0,0E0,0E0,0E0,0E0],"parents":[2147483647,0,0,1,1,2,2,3,3,4,4,5,5,6,6,8,8,9,9,10,10,11,11,12,12,13,13,14,14],"right_children":[2,4,6,8,10,12,14,-1,16,18,20,22,24,26,28,-1,-1,-1,-1,-1,-1,-1,-1,-1,-1,-1,-1,-1,-1],"split_conditions":[1.9027697E-1,3.5908257E1,8.5968055E-2,-1.7249729E-1,-2.876067E-2,1.8292828E-2,1.8761262E-2,3.7073113E-3,1.15724534E-1,7.938883E-3,1.1815205E-2,9.8715514E-1,1.8765756E-1,1.3178303E0,5.0192486E-2,-1.1144762E-3,1.4703235E-3,-1.2719141E-3,1.1511673E-3,5.1127106E-4,-6.869337E-4,2.5124126E-3,-2.0268522E-3,1.3642029E-4,5.5219457E-3,-1.7275921E-3,3.426295E-4,1.8403655E-3,-1.1664566E-3],"split_indices":[2,12,15,20,5,18,0,0,20,18,18,9,7,25,5,0,0,0,0,0,0,0,0,0,0,0,0,0,0],"split_type":[0,0,0,0,0,0,0,0,0,0,0,0,0,0,0,0,0,0,0,0,0,0,0,0,0,0,0,0,0],"sum_hessian":[3.53E2,2.74E2,7.9E1,2.7E1,2.47E2,3E1,4.9E1,3E0,2.4E1,7.6E1,1.71E2,2.2E1,8E0,2.1E1,2.8E1,6E0,1.8E1,6.8E1,8E0,1.09E2,6.2E1,1.6E1,6E0,1E0,7E0,1.4E1,7E0,1.9E1,9E0],"tree_param":{"num_deleted":"0","num_feature":"33","num_nodes":"29","size_leaf_vector":"1"}},{"base_weights":[1.9943824E-3,-3.7672669E-3,1.7679388E-2,-6.4004012E-3,4.924216E-2,-3.4888286E-2,2.5141835E-2,4.217799E-3,-1.7460303E-2,8.8676583E-4,8.130174E-2,-8.589841E-3,-2.859075E-3,3.4790386E-2,-7.5261006E-3,3.18821E-3,-3.5141139E-9,9.08717E-5,-1.5396449E-3,-1.2073691E-3,1.0031092E-3,5.020627E-3,8.2134426E-4,-6.7780836E-4,4.738254E-4,2.2726E-3,3.0717996E-4,-1.4154232E-3,6.215383E-4],"categories":[],"categories_nodes":[],"categories_segments":[],"categories_sizes":[],"default_left":[0,0,0,0,0,0,0,0,0,0,0,0,0,0,0,0,0,0,0,0,0,0,0,0,0,0,0,0,0],"id":31,"left_children":[1,3,5,7,9,11,13,15,17,19,21,23,-1,25,27,-1,-1,-1,-1,-1,-1,-1,-1,-1,-1,-1,-1,-1,-1],"loss_changes":[3.2136604E-2,3.6833588E-2,3.877881E-2,2.9410813E-2,1.9270027E-2,6.59169E-3,2.7026996E-2,3.2273926E-2,3.156917E-2,3.846935E-3,6.8243816E-3,8.6562295E-4,0E0,1.958622E-2,9.030238E-3,0E0,0E0,0E0,0E0,0E0,0E0,0E0,0E0,0E0,0E0,0E0,0E0,0E0,0E0],"parents":[2147483647,0,0,1,1,2,2,3,3,4,4,5,5,6,6,7,7,8,8,9,9,10,10,11,11,13,13,14,14],"right_children":[2,4,6,8,10,12,14,16,18,20,22,24,-1,26,28,-1,-1,-1,-1,-1,-1,-1,-1,-1,-1,-1,-1,-1,-1],"split_conditions":[1.3793999E-1,4.069422E-1,-2.603125E-2,2.2006829E-1,1.9718312E-2,4.7836296E1,6.957836E1,-4.5189545E-2,-2.960356E-2,-3.3863164E-2,5.318626E-1,1.3333334E-2,-2.859075E-3,2.6003394E-1,2.2654562E-1,3.18821E-3,-3.5141139E-9,9.08717E-5,-1.5396449E-3,-1.2073691E-3,1.0031092E-3,5.020627E-3,8.2134426E-4,-6.7780836E-4,4.738254E-4,2.2726E-3,3.0717996E-4,-1.4154232E-3,6.215383E-4],"split_indices":[26,8,1,8,0,12,12,0,2,0,4,0,0,7,8,0,0,0,0,0,0,0,0,0,0,0,0,0,0],"split_type":[0,0,0,0,0,0,0,0,0,0,0,0,0,0,0,0,0,0,0,0,0,0,0,0,0,0,0,0,0],"sum_hessian":[3.53E2,2.59E2,9.4E1,2.48E2,1.1E1,1.1E1,8.3E1,1.27E2,1.21E2,5E0,6E0,6E0,5E0,6.4E1,1.9E1,7E0,1.2E2,5E1,7.1E1,2E0,3E0,4E0,2E0,5E0,1E0,4.6E1,1.8E1,9E0,1E1],"tree_param":{"num_deleted":"0","num_feature":"33","num_nodes":"29","size_leaf_vector":"1"}},{"base_weights":[1.2662688E-3,-2.111031E-3,2.50883E-2,8.420887E-4,-2.5937945E-2,5.4855432E-2,2.6122476E-3,-4.5699957E-3,1.7597795E-2,-1.49471415E-2,-3.1990425E-3,6.45082E-2,1.2691604E-2,-3.5512008E-2,1.3451772E-2,1.5799421E-3,-3.5443486E-4,1.6518275E-3,-6.705948E-4,-1.5274646E-3,4.968849E-4,-8.2752355E-5,3.4621197E-3,5.971685E-5,7.42422E-4,-3.9681155E-4,-1.918068E-3,8.04918E-5,3.0141452E-3],"categories":[],"categories_nodes":[],"categories_segments":[],"categories_sizes":[],"default_left":[0,0,0,0,0,0,0,0,0,0,0,0,0,0,0,0,0,0,0,0,0,0,0,0,0,0,0,0,0],"id":32,"left_children":[1,3,5,7,9,11,13,15,17,19,-1,21,23,25,27,-1,-1,-1,-1,-1,-1,-1,-1,-1,-1,-1,-1,-1,-1],"loss_changes":[2.9485434E-2,2.2654703E-2,3.022672E-2,2.619208E-2,1.3408832E-2,6.7083836E-3,1.2080889E-2,2.0241011E-2,3.4416564E-2,1.1908967E-2,0E0,5.026959E-3,1.0978652E-4,5.405862E-5,1.2332284E-2,0E0,0E0,0E0,0E0,0E0,0E0,0E0,0E0,0E0,0E0,0E0,0E0,0E0,0E0],"parents":[2147483647,0,0,1,1,2,2,3,3,4,4,5,5,6,6,7,7,8,8,9,9,11,11,12,12,13,13,14,14],"right_children":[2,4,6,8,10,12,14,16,18,20,-1,22,24,26,28,-1,-1,-1,-1,-1,-1,-1,-1,-1,-1,-1,-1,-1,-1],"split_conditions":[7.94599E1,9.962547E-2,7.014924E1,1.3793999E-1,-5.4836914E-2,9.54089E1,2.141E-1,3.265202E1,2.5654706E-1,4.9518782E-1,-3.1990425E-3,-1.0958217E-1,2.664578E-2,2.006119E-2,3.3589402E-1,1.5799421E-3,-3.5443486E-4,1.6518275E-3,-6.705948E-4,-1.5274646E-3,4.968849E-4,-8.2752355E-5,3.4621197E-3,5.971685E-5,7.42422E-4,-3.9681155E-4,-1.918068E-3,8.04918E-5,3.0141452E-3],"split_indices":[10,1,11,26,24,10,29,12,7,4,0,3,0,0,16,0,0,0,0,0,0,0,0,0,0,0,0,0,0],"split_type":[0,0,0,0,0,0,0,0,0,0,0,0,0,0,0,0,0,0,0,0,0,0,0,0,0,0,0,0,0],"sum_hessian":[3.64E2,3.2E2,4.4E1,2.86E2,3.4E1,1.8E1,2.6E1,2.17E2,6.9E1,2.8E1,6E0,1.4E1,4E0,5E0,2.1E1,1.3E1,2.04E2,4.6E1,2.3E1,1.7E1,1.1E1,1E0,1.3E1,1E0,3E0,1E0,4E0,1.8E1,3E0],"tree_param":{"num_deleted":"0","num_feature":"33","num_nodes":"29","size_leaf_vector":"1"}},{"base_weights":[5.6996255E-4,-4.6218415E-3,1.5125835E-2,-7.804417E-3,2.6382728E-2,-3.1201122E-2,2.1952808E-2,2.2860784E-3,-2.1259058E-2,4.7417495E-2,-2.1579929E-2,2.953392E-4,-2.6128916E-3,4.068314E-2,5.792002E-3,-2.827297E-4,1.6337329E-3,-2.0504827E-3,-7.174505E-4,-2.1166187E-4,2.7245888E-3,6.8213855E-4,-1.4502422E-3,-3.7462421E-4,5.090841E-4,2.535714E-3,1.5550716E-4,1.5862075E-3,-3.6220354E-4],"categories":[],"categories_nodes":[],"categories_segments":[],"categories_sizes":[],"default_left":[0,0,0,0,0,0,0,0,0,0,0,0,0,0,0,0,0,0,0,0,0,0,0,0,0,0,0,0,0],"id":33,"left_children":[1,3,5,7,9,11,13,15,17,19,21,23,-1,25,27,-1,-1,-1,-1,-1,-1,-1,-1,-1,-1,-1,-1,-1,-1],"loss_changes":[2.6592582E-2,2.5914855E-2,3.0282667E-2,3.2181084E-2,2.6252544E-2,8.313297E-3,2.4316374E-2,3.321538E-2,1.2969799E-2,6.7403764E-3,2.8165272E-3,6.148842E-4,0E0,1.3897169E-2,1.5726145E-2,0E0,0E0,0E0,0E0,0E0,0E0,0E0,0E0,0E0,0E0,0E0,0E0,0E0,0E0],"parents":[2147483647,0,0,1,1,2,2,3,3,4,4,5,5,6,6,7,7,8,8,9,9,10,10,11,11,13,13,14,14],"right_children":[2,4,6,8,10,12,14,16,18,20,22,24,-1,26,28,-1,-1,-1,-1,-1,-1,-1,-1,-1,-1,-1,-1,-1,-1],"split_conditions":[1.3793999E-1,-5.9481364E-2,-2.603125E-2,-5.198956E-2,1.0848693E0,-9.804885E-3,-8.30945E-2,2.5059287E-3,-1.0346217E-3,3.6035288E-2,2.9867511E-2,6.185567E-3,-2.6128916E-3,9.91956E-2,2.9294122E-2,-2.827297E-4,1.6337329E-3,-2.0504827E-3,-7.174505E-4,-2.1166187E-4,2.7245888E-3,6.8213855E-4,-1.4502422E-3,-3.7462421E-4,5.090841E-4,2.535714E-3,1.5550716E-4,1.5862075E-3,-3.6220354E-4],"split_indices":[26,24,1,22,9,15,24,19,19,20,4,0,0,15,1,0,0,0,0,0,0,0,0,0,0,0,0,0,0],"split_type":[0,0,0,0,0,0,0,0,0,0,0,0,0,0,0,0,0,0,0,0,0,0,0,0,0,0,0,0,0],"sum_hessian":[3.49E2,2.58E2,9.1E1,2.35E2,2.3E1,1.1E1,8E1,1.35E2,1E2,1.6E1,7E0,5E0,6E0,3.6E1,4.4E1,1.08E2,2.7E1,2.4E1,7.6E1,2E0,1.4E1,1E0,6E0,3E0,2E0,2.8E1,8E0,1.4E1,3E1],"tree_param":{"num_deleted":"0","num_feature":"33","num_nodes":"29","size_leaf_vector":"1"}},{"base_weights":[7.904563E-4,2.9145237E-3,-2.914079E-2,3.026033E-4,3.2703348E-2,-4.1109744E-2,9.808112E-3,-7.3394026E-3,1.0703134E-2,5.0974052E-2,3.8119585E-3,-4.9511924E-2,-3.3280315E-4,-1.1528365E-2,1.6518625E-3,1.1476962E-3,-6.660406E-4,1.2819539E-3,-9.191392E-6,3.593176E-3,1.0544581E-3,9.870811E-4,-9.4749656E-4,-2.8091008E-3,-2.235388E-4,5.0524867E-4,-7.373004E-4,1.2970825E-4,-8.33758E-4],"categories":[],"categories_nodes":[],"categories_segments":[],"categories_sizes":[],"default_left":[0,0,0,0,0,0,0,0,0,0,0,0,0,0,0,0,0,0,0,0,0,0,0,0,0,0,0,0,0],"id":34,"left_children":[1,3,5,7,9,11,13,15,17,19,21,23,25,27,-1,-1,-1,-1,-1,-1,-1,-1,-1,-1,-1,-1,-1,-1,-1],"loss_changes":[2.1584293E-2,2.4610763E-2,1.1093808E-2,2.3366002E-2,1.3169117E-2,5.9710518E-3,3.7928803E-3,3.1171499E-2,2.025165E-2,7.40302E-3,4.7309296E-3,3.9794445E-3,9.0050005E-4,3.9197312E-4,0E0,0E0,0E0,0E0,0E0,0E0,0E0,0E0,0E0,0E0,0E0,0E0,0E0,0E0,0E0],"parents":[2147483647,0,0,1,1,2,2,3,3,4,4,5,5,6,6,7,7,8,8,9,9,10,10,11,11,12,12,13,13],"right_children":[2,4,6,8,10,12,14,16,18,20,22,24,26,28,-1,-1,-1,-1,-1,-1,-1,-1,-1,-1,-1,-1,-1,-1,-1],"split_conditions":[7.418038E1,-4.08657E-2,-1.2373312E-2,7.1012176E-4,-3.2774277E-2,1.3178303E0,2.1991822E-1,-4.231975E-2,-5.0818197E-2,9.834628E-1,6.8062386E1,8.932029E-2,2.5062698E-3,-6.1224387E-3,1.6518625E-3,1.1476962E-3,-6.660406E-4,1.2819539E-3,-9.191392E-6,3.593176E-3,1.0544581E-3,9.870811E-4,-9.4749656E-4,-2.8091008E-3,-2.235388E-4,5.0524867E-4,-7.373004E-4,1.2970825E-4,-8.33758E-4],"split_indices":[12,23,22,19,23,25,2,0,22,9,12,14,0,0,0,0,0,0,0,0,0,0,0,0,0,0,0,0,0],"split_type":[0,0,0,0,0,0,0,0,0,0,0,0,0,0,0,0,0,0,0,0,0,0,0,0,0,0,0,0,0],"sum_hessian":[3.36E2,3.15E2,2.1E1,2.91E2,2.4E1,1.6E1,5E0,1.68E2,1.23E2,1.4E1,1E1,1.3E1,3E0,3E0,2E0,2.7E1,1.41E2,5.1E1,7.2E1,7E0,7E0,6E0,4E0,1.1E1,2E0,2E0,1E0,1E0,2E0],"tree_param":{"num_deleted":"0","num_feature":"33","num_nodes":"29","size_leaf_vector":"1"}},{"base_weights":[-3.1621076E-4,1.3620734E-3,-3.7262E-2,-1.1753242E-3,3.0398648E-2,-1.2820977E-3,-4.9609516E-2,8.6939785E-5,-5.3029682E-2,5.980131E-2,-6.7375912E-3,-7.619212E-4,1.3223698E-2,-5.516178E-2,1.737849E-4,-1.01987986E-4,1.4358566E-3,-6.946509E-4,-3.17361E-3,3.6743905E-3,7.437316E-4,2.0255141E-3,-1.6513898E-3,1.3059359E-4,7.9506537E-4,-3.3304759E-3,-8.8474806E-4],"categories":[],"categories_nodes":[],"categories_segments":[],"categories_sizes":[],"default_left":[0,0,0,0,0,0,0,0,0,0,0,0,0,0,0,0,0,0,0,0,0,0,0,0,0,0,0],"id":35,"left_children":[1,3,5,7,9,11,13,15,17,19,21,-1,23,25,-1,-1,-1,-1,-1,-1,-1,-1,-1,-1,-1,-1,-1],"loss_changes":[2.2119096E-2,2.52144E-2,6.790662E-3,2.0657618E-2,3.063174E-2,1.4157244E-3,3.6771353E-3,1.8932642E-2,1.7424058E-3,7.891126E-3,1.8776057E-2,0E0,3.7151796E-5,2.7355775E-3,0E0,0E0,0E0,0E0,0E0,0E0,0E0,0E0,0E0,0E0,0E0,0E0,0E0],"parents":[2147483647,0,0,1,1,2,2,3,3,4,4,5,5,6,6,7,7,8,8,9,9,10,10,12,12,13,13],"right_children":[2,4,6,8,10,12,14,16,18,20,22,-1,24,26,-1,-1,-1,-1,-1,-1,-1,-1,-1,-1,-1,-1,-1],"split_conditions":[6.029624E-1,4.7563568E-1,8.453368E-1,5.6673473E-1,2.7605477E-1,6.184171E1,2.7067297E0,3.4519407E-1,3.4697052E1,2.4355527E-2,1.56E0,-7.619212E-4,-1.7369991E-2,5.9804082E-2,1.737849E-4,-1.01987986E-4,1.4358566E-3,-6.946509E-4,-3.17361E-3,3.6743905E-3,7.437316E-4,2.0255141E-3,-1.6513898E-3,1.3059359E-4,7.9506537E-4,-3.3304759E-3,-8.8474806E-4],"split_indices":[3,3,4,6,6,12,25,6,10,5,30,0,0,14,0,0,0,0,0,0,0,0,0,0,0,0,0],"split_type":[0,0,0,0,0,0,0,0,0,0,0,0,0,0,0,0,0,0,0,0,0,0,0,0,0,0,0],"sum_hessian":[3.54E2,3.4E2,1.4E1,3.14E2,2.6E1,4E0,1E1,3.08E2,6E0,1.4E1,1.2E1,2E0,2E0,9E0,1E0,2.88E2,2E1,2E0,4E0,1E1,4E0,4E0,8E0,1E0,1E0,6E0,3E0],"tree_param":{"num_deleted":"0","num_feature":"33","num_nodes":"27","size_leaf_vector":"1"}}]},"name":"gbtree"},"learner_model_param":{"base_score":"[2.116009E-2]","boost_from_average":"1","num_class":"0","num_feature":"33","num_target":"1"},"objective":{"name":"reg:squarederror","reg_loss_param":{"scale_pos_weight":"1"}}},"version":[3,2,0]}