{"learner":{"attributes":{"best_iteration":"12","best_score":"0.10063969406519492","scikit_learn":"{\"_estimator_type\": \"regressor\"}"},"feature_names":["ret_1w","ret_1m","ret_3m","ret_6m","ret_12m","mom_residual","vol_21d","vol_63d","vol_126d","vol_ratio","rsi_7","rsi_14","rsi_28","rsi_14_norm","pos_sma20","pos_sma50","pos_sma200","golden_cross","macd_norm","macd_hist_norm","bb_position","bb_width","dd_1m","dd_3m","dd_6m","vol_ratio_price","roe","debt_equity","earnings_growth","payout_ratio","dividend_yield","div_spread","rf_rate"],"feature_types":["float","float","float","float","float","float","float","float","float","float","float","float","float","float","float","float","float","float","float","float","float","float","float","float","float","float","float","float","float","float","float","float","float"],"gradient_booster":{"model":{"cats":{"enc":[],"feature_segments":[],"sorted_idx":[]},"gbtree_model_param":{"num_parallel_tree":"1","num_trees":"43"},"iteration_indptr":[0,1,2,3,4,5,6,7,8,9,10,11,12,13,14,15,16,17,18,19,20,21,22,23,24,25,26,27,28,29,30,31,32,33,34,35,36,37,38,39,40,41,42,43],"tree_info":[0,0,0,0,0,0,0,0,0,0,0,0,0,0,0,0,0,0,0,0,0,0,0,0,0,0,0,0,0,0,0,0,0,0,0,0,0,0,0,0,0,0,0],"trees":[{"base_weights":[-5.809879E-4,-2.9361904E-2,1.48524195E-2,-7.871444E-3,-5.1190022E-2,6.1428368E-2,5.0779916E-3,-4.2435585E-4,-4.3144324E-3,-5.8390453E-2,3.1638516E-3,-2.3267243E-2,8.074437E-2,-6.416793E-3,6.5694086E-2,-3.179842E-3,2.3091734E-4,1.4273825E-4,-3.3108422E-3,1.7651769E-3,-7.4361265E-4,3.8478945E-4,-1.7285141E-3,6.2225165E-4,4.775197E-3,-8.8112673E-4,8.034246E-4,4.091723E-3,-6.39301E-4],"categories":[],"categories_nodes":[],"categories_segments":[],"categories_sizes":[],"default_left":[0,0,0,0,0,0,0,0,0,0,0,0,0,0,0,0,0,0,0,0,0,0,0,0,0,0,0,0,0],"id":0,"left_children":[1,3,5,7,9,11,13,15,-1,17,19,21,23,25,27,-1,-1,-1,-1,-1,-1,-1,-1,-1,-1,-1,-1,-1,-1],"loss_changes":[1.5589772E-1,5.6859888E-2,1.0355747E-1,3.70278E-2,2.3955062E-2,6.743929E-2,1.3336682E-1,1.9394891E-2,0E0,2.5927663E-2,5.7148E-3,3.3738674E-3,3.097938E-2,4.1116975E-2,4.0203795E-2,0E0,0E0,0E0,0E0,0E0,0E0,0E0,0E0,0E0,0E0,0E0,0E0,0E0,0E0],"parents":[2147483647,0,0,1,1,2,2,3,3,4,4,5,5,6,6,7,7,9,9,10,10,11,11,12,12,13,13,14,14],"right_children":[2,4,6,8,10,12,14,16,-1,18,20,22,24,26,28,-1,-1,-1,-1,-1,-1,-1,-1,-1,-1,-1,-1,-1,-1],"split_conditions":[9.618E-2,-2.8795952E-3,1.7508176E-1,6.362069E-2,-9.6435E-2,2.3392511E1,-4.08657E-2,1.7800023E-1,-4.3144324E-3,-9.4787024E-2,5.881687E-1,1.3006787E-1,4.1112623E-1,1.27651375E-2,1.2222605E-1,-3.179842E-3,2.3091734E-4,1.4273825E-4,-3.3108422E-3,1.7651769E-3,-7.4361265E-4,3.8478945E-4,-1.7285141E-3,6.2225165E-4,4.775197E-3,-8.8112673E-4,8.034246E-4,4.091723E-3,-6.39301E-4],"split_indices":[26,15,4,2,24,10,23,7,0,3,25,7,25,5,1,0,0,0,0,0,0,0,0,0,0,0,0,0,0],"split_type":[0,0,0,0,0,0,0,0,0,0,0,0,0,0,0,0,0,0,0,0,0,0,0,0,0,0,0,0,0],"sum_hessian":[3.48E2,1.21E2,2.27E2,6.2E1,5.9E1,3.8E1,1.89E2,5.8E1,4E0,5.2E1,7E0,7E0,3.1E1,1.6E2,2.9E1,3E0,5.5E1,6E0,4.6E1,2E0,5E0,2E0,5E0,6E0,2.5E1,1.07E2,5.3E1,2.4E1,5E0],"tree_param":{"num_deleted":"0","num_feature":"33","num_nodes":"29","size_leaf_vector":"1"}},{"base_weights":[-2.3254441E-4,-2.3660023E-2,1.3001652E-2,-1.0961861E-2,-5.646245E-2,4.9873464E-2,5.447494E-3,-4.216596E-3,-6.3212193E-3,-6.951983E-2,5.666166E-2,1.0431722E-2,9.166737E-2,-1.1434429E-2,2.0419344E-2,-7.526487E-4,1.3314621E-3,-1.8675663E-3,-4.404616E-3,-1.3270623E-4,3.7373255E-3,-1.1959419E-3,1.6722629E-3,5.4833054E-4,6.9679576E-3,8.1755126E-5,-2.0732365E-3,6.461981E-4,3.2027338E-3],"categories":[],"categories_nodes":[],"categories_segments":[],"categories_sizes":[],"default_left":[0,0,0,0,0,0,0,0,0,0,0,0,0,0,0,0,0,0,0,0,0,0,0,0,0,0,0,0,0],"id":1,"left_children":[1,3,5,7,9,11,13,-1,15,17,19,21,23,25,27,-1,-1,-1,-1,-1,-1,-1,-1,-1,-1,-1,-1,-1,-1],"loss_changes":[1.1037198E-1,5.2595764E-2,6.295929E-2,3.1376135E-2,5.8345884E-2,6.2029973E-2,4.8499797E-2,0E0,2.6639508E-2,1.4481559E-2,5.1248074E-3,1.8196305E-2,6.8909645E-2,3.5621315E-2,3.195518E-2,0E0,0E0,0E0,0E0,0E0,0E0,0E0,0E0,0E0,0E0,0E0,0E0,0E0,0E0],"parents":[2147483647,0,0,1,1,2,2,3,3,4,4,5,5,6,6,8,8,9,9,10,10,11,11,12,12,13,13,14,14],"right_children":[2,4,6,8,10,12,14,-1,16,18,20,22,24,26,28,-1,-1,-1,-1,-1,-1,-1,-1,-1,-1,-1,-1,-1,-1],"split_conditions":[9.618E-2,5.0052512E-2,1.786256E-1,1.716124E-1,3.0095365E-2,8.2356226E-1,5.8333332E1,-4.216596E-3,7.9242E-1,4.489796E1,1.06212154E-1,2.0407161E-3,-2.57E-1,2.6315746E-1,6.17E0,-7.526487E-4,1.3314621E-3,-1.8675663E-3,-4.404616E-3,-1.3270623E-4,3.7373255E-3,-1.1959419E-3,1.6722629E-3,5.4833054E-4,6.9679576E-3,8.1755126E-5,-2.0732365E-3,6.461981E-4,3.2027338E-3],"split_indices":[26,2,4,7,18,25,10,0,27,10,1,2,28,6,30,0,0,0,0,0,0,0,0,0,0,0,0,0,0],"split_type":[0,0,0,0,0,0,0,0,0,0,0,0,0,0,0,0,0,0,0,0,0,0,0,0,0,0,0,0,0],"sum_hessian":[3.53E2,1.27E2,2.26E2,9.3E1,3.4E1,3.7E1,1.89E2,4E0,8.9E1,3.1E1,3E0,2E1,1.7E1,8.9E1,1E2,7.1E1,1.8E1,1.3E1,1.8E1,1E0,2E0,8E0,1.2E1,7E0,1E1,6.3E1,2.6E1,8.7E1,1.3E1],"tree_param":{"num_deleted":"0","num_feature":"33","num_nodes":"29","size_leaf_vector":"1"}},{"base_weights":[1.2893525E-3,-2.3496091E-2,1.4953701E-2,-6.589657E-3,-5.2006282E-2,6.220739E-2,6.456617E-3,2.0455329E-2,-1.6037306E-2,-6.1285693E-2,5.503012E-2,4.6023545E-3,9.6717246E-2,-1.34249125E-2,2.307363E-2,-3.817128E-4,2.079797E-3,1.9067625E-3,-1.3307545E-3,-3.612442E-3,-8.2544173E-4,-1.300521E-4,3.6305448E-3,1.3310891E-3,-1.0636733E-3,-6.823401E-4,6.1556525E-3,2.068129E-4,-1.954734E-3,2.1074482E-3,3.762528E-4],"categories":[],"categories_nodes":[],"categories_segments":[],"categories_sizes":[],"default_left":[0,0,0,0,0,0,0,0,0,0,0,0,0,0,0,0,0,0,0,0,0,0,0,0,0,0,0,0,0,0,0],"id":2,"left_children":[1,3,5,7,9,11,13,15,17,19,21,23,25,27,29,-1,-1,-1,-1,-1,-1,-1,-1,-1,-1,-1,-1,-1,-1,-1,-1],"loss_changes":[1.19571984E-1,5.9977658E-2,9.0743005E-2,2.1060748E-2,5.1244244E-2,6.7916304E-2,6.472193E-2,1.3243696E-2,3.6190506E-2,1.9564837E-2,4.8426976E-3,9.111182E-3,6.5152794E-2,4.0588364E-2,3.1111527E-2,0E0,0E0,0E0,0E0,0E0,0E0,0E0,0E0,0E0,0E0,0E0,0E0,0E0,0E0,0E0,0E0],"parents":[2147483647,0,0,1,1,2,2,3,3,4,4,5,5,6,6,7,7,8,8,9,9,10,10,11,11,12,12,13,13,14,14],"right_children":[2,4,6,8,10,12,14,16,18,20,22,24,26,28,30,-1,-1,-1,-1,-1,-1,-1,-1,-1,-1,-1,-1,-1,-1,-1,-1],"split_conditions":[9.618E-2,1.417065E-2,1.786256E-1,-5.5929866E-2,3.0095365E-2,-2.57E-1,7.147538E-1,2.3229358E-1,1.9978897E-1,9.4053787E-1,1.06212154E-1,1.3702026E-1,-7.7440895E-2,9.986075E-1,8.053912E-2,-3.817128E-4,2.079797E-3,1.9067625E-3,-1.3307545E-3,-3.612442E-3,-8.2544173E-4,-1.300521E-4,3.6305448E-3,1.3310891E-3,-1.0636733E-3,-6.823401E-4,6.1556525E-3,2.068129E-4,-1.954734E-3,2.1074482E-3,3.762528E-4],"split_indices":[26,15,4,15,18,28,20,8,8,20,1,7,15,9,15,0,0,0,0,0,0,0,0,0,0,0,0,0,0,0,0],"split_type":[0,0,0,0,0,0,0,0,0,0,0,0,0,0,0,0,0,0,0,0,0,0,0,0,0,0,0,0,0,0,0],"sum_hessian":[3.5E2,1.24E2,2.26E2,7.9E1,4.5E1,3.3E1,1.93E2,2E1,5.9E1,4.2E1,3E0,1.3E1,2E1,8.8E1,1.05E2,9E0,1.1E1,9E0,5E1,3.3E1,9E0,1E0,2E0,7E0,6E0,4E0,1.6E1,5.3E1,3.5E1,4.6E1,5.9E1],"tree_param":{"num_deleted":"0","num_feature":"33","num_nodes":"31","size_leaf_vector":"1"}},{"base_weights":[-4.18022E-4,-2.554297E-2,1.4463464E-2,-1.1253434E-2,-5.7847206E-2,1.17855435E-2,7.251303E-3,2.8494421E-2,-1.7953599E-2,-7.268035E-2,1.2566214E-2,2.396177E-2,-1.3204246E-2,3.0670434E-3,3.6092548E-4,-1.9729212E-3,-9.934487E-5,-9.236773E-4,-4.27354E-3,2.4203423E-3,-1.0092545E-3,-1.164482E-3,1.5857164E-3,1.2611514E-3,-1.4856652E-3],"categories":[],"categories_nodes":[],"categories_segments":[],"categories_sizes":[],"default_left":[0,0,0,0,0,0,0,0,0,0,0,0,0,0,0,0,0,0,0,0,0,0,0,0,0],"id":3,"left_children":[1,3,5,7,9,11,-1,13,15,17,19,21,23,-1,-1,-1,-1,-1,-1,-1,-1,-1,-1,-1,-1],"loss_changes":[1.3721336E-1,6.203364E-2,7.802732E-2,2.6466975E-2,4.471475E-2,6.96986E-2,0E0,9.468969E-3,2.8553057E-2,2.155143E-2,1.1443177E-2,5.7337947E-2,4.9021244E-2,0E0,0E0,0E0,0E0,0E0,0E0,0E0,0E0,0E0,0E0,0E0,0E0],"parents":[2147483647,0,0,1,1,2,2,3,3,4,4,5,5,7,7,8,8,9,9,10,10,11,11,12,12],"right_children":[2,4,6,8,10,12,-1,14,16,18,20,22,24,-1,-1,-1,-1,-1,-1,-1,-1,-1,-1,-1,-1],"split_conditions":[9.618E-2,4.2154565E-2,9.495156E-2,-1.0762342E-1,-7.396296E-2,3.2296756E-1,7.251303E-3,-9.832739E-3,-1.6460906E-1,-4.1215075E-3,2.1684322E-1,-3.958009E-2,6.281978E-1,3.0670434E-3,3.6092548E-4,-1.9729212E-3,-9.934487E-5,-9.236773E-4,-4.27354E-3,2.4203423E-3,-1.0092545E-3,-1.164482E-3,1.5857164E-3,1.2611514E-3,-1.4856652E-3],"split_indices":[26,2,0,3,24,3,0,0,24,19,8,1,25,0,0,0,0,0,0,0,0,0,0,0,0],"split_type":[0,0,0,0,0,0,0,0,0,0,0,0,0,0,0,0,0,0,0,0,0,0,0,0,0],"sum_hessian":[3.64E2,1.35E2,2.29E2,9.5E1,4E1,2.26E2,3E0,1.3E1,8.2E1,3.3E1,7E0,1.52E2,7.4E1,4E0,9E0,3.4E1,4.8E1,7E0,2.6E1,3E0,4E0,2.1E1,1.31E2,2.2E1,5.2E1],"tree_param":{"num_deleted":"0","num_feature":"33","num_nodes":"25","size_leaf_vector":"1"}},{"base_weights":[-1.2054383E-3,-1.0358229E-2,3.9478015E-2,6.733325E-2,-1.238015E-2,4.9985185E-2,-2.1699596E-2,4.745526E-3,1.7311575E-2,-3.5309087E-2,-5.0781765E-3,7.6024365E-3,7.173501E-2,4.6015745E-3,-4.6864726E-2,1.2569795E-3,-2.0172974E-4,6.1185664E-4,-2.2445375E-3,2.4506606E-3,-4.4664028E-4,2.7884997E-3,-1.49586E-3,4.292983E-3,9.017248E-4,-6.4860855E-4,5.6673324E-4,-2.807188E-3,-1.0218118E-4],"categories":[],"categories_nodes":[],"categories_segments":[],"categories_sizes":[],"default_left":[0,0,0,0,0,0,0,0,0,0,0,0,0,0,0,0,0,0,0,0,0,0,0,0,0,0,0,0,0],"id":4,"left_children":[1,3,5,7,9,11,13,-1,15,17,19,21,23,25,27,-1,-1,-1,-1,-1,-1,-1,-1,-1,-1,-1,-1,-1,-1],"loss_changes":[1.3075572E-1,4.6255533E-2,4.308781E-2,7.881381E-3,4.669417E-2,5.0342828E-2,7.2731385E-3,0E0,9.0408395E-4,3.1575106E-2,4.5380466E-2,3.9550927E-2,2.5362626E-2,9.896692E-4,2.115326E-3,0E0,0E0,0E0,0E0,0E0,0E0,0E0,0E0,0E0,0E0,0E0,0E0,0E0,0E0],"parents":[2147483647,0,0,1,1,2,2,3,3,4,4,5,5,6,6,8,8,9,9,10,10,11,11,12,12,13,13,14,14],"right_children":[2,4,6,8,10,12,14,-1,16,18,20,22,24,26,28,-1,-1,-1,-1,-1,-1,-1,-1,-1,-1,-1,-1,-1,-1],"split_conditions":[-5.021278E-2,-2.5352827E-1,7.770832E1,-7.541617E-2,-3.7274722E-3,2.1593654E-1,1.2711704E-1,4.745526E-3,-7.889583E-3,-1.6226025E-2,1.5692836E-1,1.7693783E-1,5.1106025E-2,4.1666735E-2,3.0748898E-2,1.2569795E-3,-2.0172974E-4,6.1185664E-4,-2.2445375E-3,2.4506606E-3,-4.4664028E-4,2.7884997E-3,-1.49586E-3,4.292983E-3,9.017248E-4,-6.4860855E-4,5.6673324E-4,-2.807188E-3,-1.0218118E-4],"split_indices":[23,24,12,3,19,3,1,0,0,18,20,7,0,1,0,0,0,0,0,0,0,0,0,0,0,0,0,0,0],"split_type":[0,0,0,0,0,0,0,0,0,0,0,0,0,0,0,0,0,0,0,0,0,0,0,0,0,0,0,0,0],"sum_hessian":[3.48E2,2.85E2,6.3E1,6E0,2.79E2,5.4E1,9E0,3E0,3E0,6.6E1,2.13E2,1.9E1,3.5E1,5E0,4E0,2E0,1E0,1.1E1,5.5E1,1.3E1,2E2,8E0,1.1E1,2.7E1,8E0,1E0,4E0,3E0,1E0],"tree_param":{"num_deleted":"0","num_feature":"33","num_nodes":"29","size_leaf_vector":"1"}},{"base_weights":[3.0508745E-4,-2.278601E-2,1.3319907E-2,-9.65124E-3,-4.872275E-2,9.168375E-3,6.658213E-2,-3.9655487E-3,-4.94585E-3,-6.612048E-2,3.458329E-2,2.0151073E-2,-2.6605833E-2,9.634398E-2,-4.4897452E-2,1.629069E-4,-1.8317336E-3,-3.6718682E-3,5.1948824E-4,3.416365E-3,-9.093578E-4,6.3334365E-4,3.360275E-3,-4.41561E-3,-8.5609796E-4,6.0653216E-3,-1.3482901E-3,1.4310542E-3,-3.908446E-3],"categories":[],"categories_nodes":[],"categories_segments":[],"categories_sizes":[],"default_left":[0,0,0,0,0,0,0,0,0,0,0,0,0,0,0,0,0,0,0,0,0,0,0,0,0,0,0,0,0],"id":5,"left_children":[1,3,5,7,9,11,13,-1,15,17,19,21,23,25,27,-1,-1,-1,-1,-1,-1,-1,-1,-1,-1,-1,-1,-1,-1],"loss_changes":[1.08795054E-1,4.3752484E-2,5.027356E-2,2.8419804E-2,6.647612E-2,8.586647E-2,6.1232716E-2,0E0,2.2146909E-2,2.157779E-2,1.6999856E-2,5.7358503E-2,2.7870465E-2,4.6461254E-2,1.4363233E-2,0E0,0E0,0E0,0E0,0E0,0E0,0E0,0E0,0E0,0E0,0E0,0E0,0E0,0E0],"parents":[2147483647,0,0,1,1,2,2,3,3,4,4,5,5,6,6,8,8,9,9,10,10,11,11,12,12,13,13,14,14],"right_children":[2,4,6,8,10,12,14,-1,16,18,20,22,24,26,28,-1,-1,-1,-1,-1,-1,-1,-1,-1,-1,-1,-1,-1,-1],"split_conditions":[9.618E-2,3.8375903E-2,4.0928474E-1,1.716124E-1,-7.396296E-2,2.6367596E-1,1.2847129E-1,-3.9655487E-3,1.417065E-2,1.2739692E0,2.3462252E-1,2.1324E-1,1.06929995E-1,5.558654E-1,2.879551E-1,1.629069E-4,-1.8317336E-3,-3.6718682E-3,5.1948824E-4,3.416365E-3,-9.093578E-4,6.3334365E-4,3.360275E-3,-4.41561E-3,-8.5609796E-4,6.0653216E-3,-1.3482901E-3,1.4310542E-3,-3.908446E-3],"split_indices":[26,2,7,7,24,7,14,0,15,9,7,26,26,6,2,0,0,0,0,0,0,0,0,0,0,0,0,0,0],"split_type":[0,0,0,0,0,0,0,0,0,0,0,0,0,0,0,0,0,0,0,0,0,0,0,0,0,0,0,0,0],"sum_hessian":[3.59E2,1.29E2,2.3E2,8.7E1,4.2E1,2.15E2,1.5E1,4E0,8.3E1,3.5E1,7E0,1.65E2,5E1,1.2E1,3E0,6.7E1,1.6E1,3.2E1,3E0,4E0,3E0,1.44E2,2.1E1,5E0,4.5E1,1E1,2E0,1E0,2E0],"tree_param":{"num_deleted":"0","num_feature":"33","num_nodes":"29","size_leaf_vector":"1"}},{"base_weights":[-1.8100081E-3,-9.406416E-3,3.0585283E-2,-1.32334605E-2,4.4208877E-2,4.11896E-2,-2.101646E-2,-1.7736413E-2,2.0422056E-2,8.693997E-2,-4.154886E-2,2.1533694E-2,6.945628E-2,3.2139763E-2,-4.2877335E-2,-4.825048E-4,-2.3776644E-3,-1.8371253E-3,1.9137807E-3,-1.115698E-3,5.4425583E-3,1.0349123E-3,-3.4914573E-3,2.6334792E-3,-5.674083E-4,4.480012E-3,5.624148E-4,2.2046557E-3,4.913735E-4,-2.6588917E-3,-1.2144196E-4],"categories":[],"categories_nodes":[],"categories_segments":[],"categories_sizes":[],"default_left":[0,0,0,0,0,0,0,0,0,0,0,0,0,0,0,0,0,0,0,0,0,0,0,0,0,0,0,0,0,0,0],"id":6,"left_children":[1,3,5,7,9,11,13,15,17,19,21,23,25,27,29,-1,-1,-1,-1,-1,-1,-1,-1,-1,-1,-1,-1,-1,-1,-1,-1],"loss_changes":[8.742361E-2,5.986914E-2,3.823457E-2,4.1385822E-2,7.687655E-2,2.9148318E-2,1.659262E-2,5.68161E-2,3.5278715E-2,3.596078E-2,1.5370756E-2,3.724166E-2,2.4870373E-2,5.501942E-4,3.764337E-3,0E0,0E0,0E0,0E0,0E0,0E0,0E0,0E0,0E0,0E0,0E0,0E0,0E0,0E0,0E0,0E0],"parents":[2147483647,0,0,1,1,2,2,3,3,4,4,5,5,6,6,7,7,8,8,9,9,10,10,11,11,12,12,13,13,14,14],"right_children":[2,4,6,8,10,12,14,16,18,20,22,24,26,28,30,-1,-1,-1,-1,-1,-1,-1,-1,-1,-1,-1,-1,-1,-1,-1,-1],"split_conditions":[-5.1428575E-2,3.595523E-1,7.5272446E1,1.2970883E0,3.1849957E-1,2.3232228E-1,1.13143794E-1,2.8108612E-1,-1.4773792E-3,3.0059677E-1,1.8055174E-1,1.7693783E-1,3.9934522E-1,3.056567E-2,4.649266E-1,-4.825048E-4,-2.3776644E-3,-1.8371253E-3,1.9137807E-3,-1.115698E-3,5.4425583E-3,1.0349123E-3,-3.4914573E-3,2.6334792E-3,-5.674083E-4,4.480012E-3,5.624148E-4,2.2046557E-3,4.913735E-4,-2.6588917E-3,-1.2144196E-4],"split_indices":[23,8,12,9,2,2,8,6,19,6,21,7,16,2,2,0,0,0,0,0,0,0,0,0,0,0,0,0,0,0,0],"split_type":[0,0,0,0,0,0,0,0,0,0,0,0,0,0,0,0,0,0,0,0,0,0,0,0,0,0,0,0,0,0,0],"sum_hessian":[3.52E2,2.86E2,6.6E1,2.68E2,1.8E1,5.5E1,1.1E1,2.37E2,3.1E1,1.2E1,6E0,3.4E1,2.1E1,3E0,8E0,1.88E2,4.9E1,7E0,2.4E1,2E0,1E1,2E0,4E0,1.7E1,1.7E1,1.5E1,6E0,1E0,2E0,6E0,2E0],"tree_param":{"num_deleted":"0","num_feature":"33","num_nodes":"31","size_leaf_vector":"1"}},{"base_weights":[-4.5609885E-4,-9.822541E-3,3.986443E-2,-1.2817082E-2,8.077656E-2,5.3757794E-2,-4.4387053E-3,-2.6550047E-2,-1.5060352E-3,2.4056107E-2,6.7890286E-3,8.189386E-3,7.787562E-2,1.6497437E-2,-2.7308431E-3,-1.8133402E-4,-2.2213964E-3,-3.0503678E-4,2.3920808E-3,-2.9610185E-4,1.967687E-3,2.4812527E-3,-7.8701804E-4,4.4237343E-3,-9.960498E-4,1.842368E-3,-1.8242432E-3],"categories":[],"categories_nodes":[],"categories_segments":[],"categories_sizes":[],"default_left":[0,0,0,0,0,0,0,0,0,0,0,0,0,0,0,0,0,0,0,0,0,0,0,0,0,0,0],"id":7,"left_children":[1,3,5,7,9,11,13,15,17,19,-1,21,23,25,-1,-1,-1,-1,-1,-1,-1,-1,-1,-1,-1,-1,-1],"loss_changes":[1.352231E-1,8.0366395E-2,4.1905485E-2,4.382194E-2,2.4739064E-2,5.564244E-2,1.9735955E-2,5.201053E-2,3.592225E-2,3.330446E-3,0E0,2.0506803E-2,3.7368268E-2,1.6572064E-2,0E0,0E0,0E0,0E0,0E0,0E0,0E0,0E0,0E0,0E0,0E0,0E0,0E0],"parents":[2147483647,0,0,1,1,2,2,3,3,4,4,5,5,6,6,7,7,8,8,9,9,11,11,12,12,13,13],"right_children":[2,4,6,8,10,12,14,16,18,20,-1,22,24,26,-1,-1,-1,-1,-1,-1,-1,-1,-1,-1,-1,-1,-1],"split_conditions":[-5.1428575E-2,4.6209648E-1,3.065E-1,-9.1326726E-4,7.5378686E-1,3.4109586E-1,1.9764E-1,-9.632858E-3,1.3494605E0,-3.0973451E-2,6.7890286E-3,1.5458365E-2,5.901208E-1,1.04225E0,-2.7308431E-3,-1.8133402E-4,-2.2213964E-3,-3.0503678E-4,2.3920808E-3,-2.9610185E-4,1.967687E-3,2.4812527E-3,-7.8701804E-4,4.4237343E-3,-9.960498E-4,1.842368E-3,-1.8242432E-3],"split_indices":[23,7,29,19,25,25,8,15,9,0,0,18,3,27,0,0,0,0,0,0,0,0,0,0,0,0,0],"split_type":[0,0,0,0,0,0,0,0,0,0,0,0,0,0,0,0,0,0,0,0,0,0,0,0,0,0,0],"sum_hessian":[3.55E2,2.89E2,6.6E1,2.81E2,8E0,5E1,1.6E1,1.26E2,1.55E2,5E0,3E0,1.8E1,3.2E1,1.2E1,4E0,5.6E1,7E1,1.43E2,1.2E1,2E0,3E0,6E0,1.2E1,2.9E1,3E0,9E0,3E0],"tree_param":{"num_deleted":"0","num_feature":"33","num_nodes":"27","size_leaf_vector":"1"}},{"base_weights":[1.7930769E-3,-1.9911975E-2,1.4258281E-2,4.8217345E-2,-2.4870694E-2,1.181222E-2,6.6583753E-3,1.2284037E-2,3.5500235E-3,-1.2958882E-2,-4.660445E-2,1.4345044E-3,3.6379375E-2,-3.1247383E-4,9.242878E-4,-1.2813063E-3,4.9490144E-4,-2.7618867E-3,2.3314948E-3,8.525063E-4,-9.5422997E-4,2.1940954E-3,-2.2077807E-3],"categories":[],"categories_nodes":[],"categories_segments":[],"categories_sizes":[],"default_left":[0,0,0,0,0,0,0,0,0,0,0,0,0,0,0,0,0,0,0,0,0,0,0],"id":8,"left_children":[1,3,5,7,9,11,-1,13,-1,15,17,19,21,-1,-1,-1,-1,-1,-1,-1,-1,-1,-1],"loss_changes":[9.8232545E-2,4.656183E-2,6.468354E-2,6.469138E-3,3.1325698E-2,5.7923056E-2,0E0,8.054572E-4,0E0,2.4267029E-2,3.8877524E-2,5.223569E-2,4.369106E-2,0E0,0E0,0E0,0E0,0E0,0E0,0E0,0E0,0E0,0E0],"parents":[2147483647,0,0,1,1,2,2,3,3,4,4,5,5,7,7,9,9,10,10,11,11,12,12],"right_children":[2,4,6,8,10,12,-1,14,-1,16,18,20,22,-1,-1,-1,-1,-1,-1,-1,-1,-1,-1],"split_conditions":[9.618E-2,-1.0432431E-1,9.495156E-2,3.35062E1,4.2154565E-2,-5.021278E-2,6.6583753E-3,-1.6686249E-1,3.5500235E-3,7.8796E-1,3.0095365E-2,1.9922364E-1,6.926268E-1,-3.1247383E-4,9.242878E-4,-1.2813063E-3,4.9490144E-4,-2.7618867E-3,2.3314948E-3,8.525063E-4,-9.5422997E-4,2.1940954E-3,-2.2077807E-3],"split_indices":[26,16,0,12,2,23,0,3,0,27,18,16,3,0,0,0,0,0,0,0,0,0,0],"split_type":[0,0,0,0,0,0,0,0,0,0,0,0,0,0,0,0,0,0,0,0,0,0,0],"sum_hessian":[3.6E2,1.31E2,2.29E2,8E0,1.23E2,2.26E2,3E0,4E0,4E0,8.1E1,4.2E1,1.6E2,6.6E1,1E0,3E0,5.2E1,2.9E1,3.9E1,3E0,9.1E1,6.9E1,6.1E1,5E0],"tree_param":{"num_deleted":"0","num_feature":"33","num_nodes":"23","size_leaf_vector":"1"}},{"base_weights":[-4.0944706E-5,-2.0777522E-2,1.2290434E-2,5.3731237E-2,-2.5537666E-2,2.991176E-4,2.9397516E-2,8.934781E-4,3.420932E-3,-2.8526967E-2,6.501463E-2,2.7648063E-2,-1.1426607E-2,4.440586E-2,4.5461184E-3,-8.385025E-4,-2.4785304E-3,2.677062E-4,3.9882935E-3,-1.7472295E-4,2.5199873E-3,2.3058348E-3,-8.0547435E-4,1.7504616E-3,6.184937E-3,5.4228713E-4,-2.9749253E-3],"categories":[],"categories_nodes":[],"categories_segments":[],"categories_sizes":[],"default_left":[0,0,0,0,0,0,0,0,0,0,0,0,0,0,0,0,0,0,0,0,0,0,0,0,0,0,0],"id":9,"left_children":[1,3,5,7,9,11,13,-1,-1,15,17,19,21,23,25,-1,-1,-1,-1,-1,-1,-1,-1,-1,-1,-1,-1],"loss_changes":[9.154387E-2,4.9407016E-2,4.603994E-2,2.6431568E-3,3.7024066E-2,4.3285497E-2,3.419768E-2,0E0,0E0,2.9307984E-2,3.3196844E-3,2.8960248E-2,2.6579134E-2,3.6346532E-2,1.5694141E-2,0E0,0E0,0E0,0E0,0E0,0E0,0E0,0E0,0E0,0E0,0E0,0E0],"parents":[2147483647,0,0,1,1,2,2,3,3,4,4,5,5,6,6,9,9,10,10,11,11,12,12,13,13,14,14],"right_children":[2,4,6,8,10,12,14,-1,-1,16,18,20,22,24,26,-1,-1,-1,-1,-1,-1,-1,-1,-1,-1,-1,-1],"split_conditions":[9.618E-2,-1.0432431E-1,1.5228483E-2,-4.7770392E-2,-6.691091E-2,1.846597E-1,5.2594416E-2,8.934781E-4,3.420932E-3,4.6390846E-2,2.2368221E-1,5.365734E-1,-1.6940473E-1,3.1568184E-1,-4.6461493E-2,-8.385025E-4,-2.4785304E-3,2.677062E-4,3.9882935E-3,-1.7472295E-4,2.5199873E-3,2.3058348E-3,-8.0547435E-4,1.7504616E-3,6.184937E-3,5.4228713E-4,-2.9749253E-3],"split_indices":[26,16,0,14,24,7,14,0,0,2,6,25,23,7,24,0,0,0,0,0,0,0,0,0,0,0,0],"split_type":[0,0,0,0,0,0,0,0,0,0,0,0,0,0,0,0,0,0,0,0,0,0,0,0,0,0,0],"sum_hessian":[3.55E2,1.32E2,2.23E2,7E0,1.25E2,1.32E2,9.1E1,3E0,4E0,1.22E2,3E0,3.9E1,9.3E1,5.6E1,3.5E1,8E1,4.2E1,1E0,2E0,1.7E1,2.2E1,6E0,8.7E1,5.2E1,4E0,3.3E1,2E0],"tree_param":{"num_deleted":"0","num_feature":"33","num_nodes":"27","size_leaf_vector":"1"}},{"base_weights":[-4.0880013E-3,-2.1906763E-2,6.2910714E-3,4.0540118E-2,-2.6336685E-2,8.974792E-3,-7.565768E-2,4.093159E-3,3.2965343E-3,-2.9278642E-2,6.318257E-2,-9.013252E-3,2.0802308E-2,1.1280878E-3,-4.798746E-3,6.0750404E-4,-2.858987E-4,-9.541865E-4,-2.3367102E-3,2.6235203E-4,3.8743422E-3,-7.3864235E-4,2.8840418E-3,-8.246794E-5,1.5067168E-3],"categories":[],"categories_nodes":[],"categories_segments":[],"categories_sizes":[],"default_left":[0,0,0,0,0,0,0,0,0,0,0,0,0,0,0,0,0,0,0,0,0,0,0,0,0],"id":10,"left_children":[1,3,5,7,9,11,13,15,-1,17,19,21,23,-1,-1,-1,-1,-1,-1,-1,-1,-1,-1,-1,-1],"loss_changes":[6.761816E-2,3.8808934E-2,5.193175E-2,8.386587E-3,3.6090106E-2,4.8257247E-2,1.821465E-2,5.389722E-4,0E0,2.0640008E-2,3.1193998E-3,3.6042012E-2,2.8673984E-2,0E0,0E0,0E0,0E0,0E0,0E0,0E0,0E0,0E0,0E0,0E0,0E0],"parents":[2147483647,0,0,1,1,2,2,3,3,4,4,5,5,6,6,7,7,9,9,10,10,11,11,12,12],"right_children":[2,4,6,8,10,12,14,16,-1,18,20,22,24,-1,-1,-1,-1,-1,-1,-1,-1,-1,-1,-1,-1],"split_conditions":[9.618E-2,-1.0432431E-1,5.130495E-1,3.35062E1,-6.691091E-2,-1.2311857E-3,7.194139E-1,-1.928818E-1,3.2965343E-3,1.417065E-2,2.2368221E-1,3.6782783E-1,1.73E0,1.1280878E-3,-4.798746E-3,6.0750404E-4,-2.858987E-4,-9.541865E-4,-2.3367102E-3,2.6235203E-4,3.8743422E-3,-7.3864235E-4,2.8840418E-3,-8.246794E-5,1.5067168E-3],"split_indices":[26,16,16,12,24,19,4,4,0,15,6,8,30,0,0,0,0,0,0,0,0,0,0,0,0],"split_type":[0,0,0,0,0,0,0,0,0,0,0,0,0,0,0,0,0,0,0,0,0,0,0,0,0],"sum_hessian":[3.63E2,1.33E2,2.3E2,8E0,1.25E2,2.24E2,6E0,4E0,4E0,1.22E2,3E0,8.9E1,1.35E2,1E0,5E0,2E0,2E0,7.9E1,4.3E1,1E0,2E0,8.3E1,6E0,4E1,9.5E1],"tree_param":{"num_deleted":"0","num_feature":"33","num_nodes":"25","size_leaf_vector":"1"}},{"base_weights":[2.050744E-3,-1.5281431E-2,1.2362272E-2,4.1396115E-2,-1.9699903E-2,4.337041E-2,5.5810707E-3,1.332385E-2,5.559662E-2,-1.1702302E-2,-5.1629197E-2,-1.2459819E-2,6.671456E-2,-4.7625604E-4,3.9074585E-2,8.533721E-4,-7.0446324E-5,2.3890803E-4,3.17666E-3,1.2427886E-3,-8.3965017E-4,-2.1680526E-4,-4.3529077E-3,-1.5829466E-3,1.2050208E-3,-2.6497156E-3,3.9155628E-3,4.3314608E-4,-1.1973798E-3,3.5844897E-3,-6.942439E-4],"categories":[],"categories_nodes":[],"categories_segments":[],"categories_sizes":[],"default_left":[0,0,0,0,0,0,0,0,0,0,0,0,0,0,0,0,0,0,0,0,0,0,0,0,0,0,0,0,0,0,0],"id":11,"left_children":[1,3,5,7,9,11,13,15,17,19,21,23,25,27,29,-1,-1,-1,-1,-1,-1,-1,-1,-1,-1,-1,-1,-1,-1,-1,-1],"loss_changes":[6.632085E-2,3.5907548E-2,4.8525255E-2,3.0745808E-3,3.2162555E-2,5.5334203E-2,3.9082535E-2,3.3941434E-4,2.1662544E-3,2.026031E-2,4.2160153E-2,1.0620465E-2,4.717779E-2,3.559787E-2,5.244799E-2,0E0,0E0,0E0,0E0,0E0,0E0,0E0,0E0,0E0,0E0,0E0,0E0,0E0,0E0,0E0,0E0],"parents":[2147483647,0,0,1,1,2,2,3,3,4,4,5,5,6,6,7,7,8,8,9,9,10,10,11,11,12,12,13,13,14,14],"right_children":[2,4,6,8,10,12,14,16,18,20,22,24,26,28,30,-1,-1,-1,-1,-1,-1,-1,-1,-1,-1,-1,-1,-1,-1,-1,-1],"split_conditions":[9.618E-2,-1.0026869E-1,1.786256E-1,3.35062E1,2.5871685E-1,4.1436705E-1,-4.08657E-2,-9.29514E-3,-5.291578E-2,1.9978897E-1,-5.8647394E-2,5.0485016E1,1.5726642E1,1.1586918E0,2.7592381E-2,8.533721E-4,-7.0446324E-5,2.3890803E-4,3.17666E-3,1.2427886E-3,-8.3965017E-4,-2.1680526E-4,-4.3529077E-3,-1.5829466E-3,1.2050208E-3,-2.6497156E-3,3.9155628E-3,4.3314608E-4,-1.1973798E-3,3.5844897E-3,-6.942439E-4],"split_indices":[26,16,4,12,8,25,23,0,0,8,16,10,11,25,5,0,0,0,0,0,0,0,0,0,0,0,0,0,0,0,0],"split_type":[0,0,0,0,0,0,0,0,0,0,0,0,0,0,0,0,0,0,0,0,0,0,0,0,0,0,0,0,0,0,0],"sum_hessian":[3.68E2,1.37E2,2.31E2,9E0,1.28E2,4E1,1.91E2,4E0,5E0,1.04E2,2.4E1,1.2E1,2.8E1,1.63E2,2.8E1,3E0,1E0,1E0,4E0,1.2E1,9.2E1,1.1E1,1.3E1,8E0,4E0,2E0,2.6E1,1.18E2,4.5E1,1.7E1,1.1E1],"tree_param":{"num_deleted":"0","num_feature":"33","num_nodes":"31","size_leaf_vector":"1"}},{"base_weights":[-1.1384647E-3,-1.7758122E-2,9.122249E-3,2.4252007E-2,-2.2774344E-2,3.546385E-2,1.6571338E-3,3.6156386E-2,-1.6029297E-3,-5.1303576E-3,-3.854991E-2,-2.943706E-3,4.344934E-2,6.255906E-3,-6.514124E-2,1.7975623E-4,3.0743184E-3,9.0117793E-4,-1.1098746E-3,-1.3795536E-3,-3.8848035E-3,3.4207297E-3,7.324188E-4,1.154466E-3,-1.06599495E-4,-1.0441073E-3,-4.2284834E-3],"categories":[],"categories_nodes":[],"categories_segments":[],"categories_sizes":[],"default_left":[0,0,0,0,0,0,0,0,0,0,0,0,0,0,0,0,0,0,0,0,0,0,0,0,0,0,0],"id":12,"left_children":[1,3,5,7,9,11,13,15,-1,17,19,-1,21,23,25,-1,-1,-1,-1,-1,-1,-1,-1,-1,-1,-1,-1],"loss_changes":[6.1889414E-2,3.0014895E-2,4.405822E-2,1.2128995E-2,3.435716E-2,4.1127115E-2,5.48304E-2,1.0802902E-2,0E0,2.4507958E-2,2.4883702E-2,0E0,3.1931333E-2,2.3583125E-2,7.2396807E-3,0E0,0E0,0E0,0E0,0E0,0E0,0E0,0E0,0E0,0E0,0E0,0E0],"parents":[2147483647,0,0,1,1,2,2,3,3,4,4,5,5,6,6,7,7,9,9,10,10,12,12,13,13,14,14],"right_children":[2,4,6,8,10,12,14,16,-1,18,20,-1,22,24,26,-1,-1,-1,-1,-1,-1,-1,-1,-1,-1,-1,-1],"split_conditions":[9.618E-2,2.0424546E-1,6.2989E-1,7.272259E1,-1.0686637E-2,-5.928798E-2,5.457298E-1,1.7997775E-2,-1.6029297E-3,-7.274119E-2,2.5149086E-1,-2.943706E-3,6.096393E1,7.143908E-2,5.772004E-1,1.7975623E-4,3.0743184E-3,9.0117793E-4,-1.1098746E-3,-1.3795536E-3,-3.8848035E-3,3.4207297E-3,7.324188E-4,1.154466E-3,-1.06599495E-4,-1.0441073E-3,-4.2284834E-3],"split_indices":[26,8,27,10,2,15,3,3,0,3,8,0,11,2,25,0,0,0,0,0,0,0,0,0,0,0,0],"split_type":[0,0,0,0,0,0,0,0,0,0,0,0,0,0,0,0,0,0,0,0,0,0,0,0,0,0,0],"sum_hessian":[3.6E2,1.37E2,2.23E2,1.4E1,1.23E2,4.8E1,1.75E2,1.2E1,2E0,5.9E1,6.4E1,3E0,4.5E1,1.65E2,1E1,6E0,6E0,2.5E1,3.4E1,5.2E1,1.2E1,2.3E1,2.2E1,5.4E1,1.11E2,4E0,6E0],"tree_param":{"num_deleted":"0","num_feature":"33","num_nodes":"27","size_leaf_vector":"1"}},{"base_weights":[8.036542E-4,-1.5009807E-2,1.0415917E-2,1.261036E-3,-3.0020248E-2,1.4672495E-2,-3.197764E-2,3.8674235E-2,-4.207404E-3,-5.8908388E-2,-1.8982895E-2,1.2742235E-2,5.89288E-3,-5.320576E-2,3.0617686E-3,6.1078905E-4,2.9060466E-3,-1.7009408E-3,2.2916221E-4,4.3074694E-4,-3.3938107E-3,-1.8313349E-3,2.5640902E-4,9.112904E-4,-7.5412396E-4,-3.7959025E-3,-3.8695452E-4],"categories":[],"categories_nodes":[],"categories_segments":[],"categories_sizes":[],"default_left":[0,0,0,0,0,0,0,0,0,0,0,0,0,0,0,0,0,0,0,0,0,0,0,0,0,0,0],"id":13,"left_children":[1,3,5,7,9,11,13,15,17,19,21,23,-1,25,-1,-1,-1,-1,-1,-1,-1,-1,-1,-1,-1,-1,-1],"loss_changes":[5.366362E-2,3.266183E-2,4.031289E-2,1.36448415E-2,2.0482592E-2,3.7681744E-2,4.5451216E-2,3.3085123E-3,1.556448E-2,1.2079559E-2,2.261582E-2,3.0699227E-2,0E0,1.719011E-2,0E0,0E0,0E0,0E0,0E0,0E0,0E0,0E0,0E0,0E0,0E0,0E0,0E0],"parents":[2147483647,0,0,1,1,2,2,3,3,4,4,5,5,6,6,7,7,8,8,9,9,10,10,11,11,13,13],"right_children":[2,4,6,8,10,12,14,16,18,20,22,24,-1,26,-1,-1,-1,-1,-1,-1,-1,-1,-1,-1,-1,-1,-1],"split_conditions":[9.618E-2,-6.726016E-3,5.642857E-1,-1.0952944E-1,-2.463622E-2,9.495156E-2,4.585489E-1,3.35062E1,-4.262337E-2,2.3173923E1,-1.3929513E-1,1.04225E0,5.89288E-3,7.3957734E-2,3.0617686E-3,6.1078905E-4,2.9060466E-3,-1.7009408E-3,2.2916221E-4,4.3074694E-4,-3.3938107E-3,-1.8313349E-3,2.5640902E-4,9.112904E-4,-7.5412396E-4,-3.7959025E-3,-3.8695452E-4],"split_indices":[26,15,3,16,5,0,7,12,14,10,24,27,0,14,0,0,0,0,0,0,0,0,0,0,0,0,0],"split_type":[0,0,0,0,0,0,0,0,0,0,0,0,0,0,0,0,0,0,0,0,0,0,0,0,0,0,0],"sum_hessian":[3.5E2,1.32E2,2.18E2,6.4E1,6.8E1,1.99E2,1.9E1,7E0,5.7E1,1.7E1,5.1E1,1.97E2,2E0,1.6E1,3E0,4E0,3E0,1.2E1,4.5E1,2E0,1.5E1,2.9E1,2.2E1,1.65E2,3.2E1,1E1,6E0],"tree_param":{"num_deleted":"0","num_feature":"33","num_nodes":"27","size_leaf_vector":"1"}},{"base_weights":[2.3624845E-4,-6.4868517E-3,2.9724384E-2,-3.8983584E-3,-5.7139374E-2,5.8574225E-3,5.4397743E-2,-7.1435673E-3,4.386794E-2,-4.673912E-3,-2.325393E-2,6.099109E-2,-5.798291E-3,6.9317825E-2,-1.1188765E-2,-5.619327E-4,1.4110125E-3,2.9220756E-3,-2.1818304E-3,-5.8374502E-5,-1.9499196E-3,2.2853159E-4,3.500141E-3,3.618291E-4,-1.6450918E-3,4.456391E-3,1.2255978E-3,9.679907E-4,-2.7199246E-3],"categories":[],"categories_nodes":[],"categories_segments":[],"categories_sizes":[],"default_left":[0,0,0,0,0,0,0,0,0,0,0,0,0,0,0,0,0,0,0,0,0,0,0,0,0,0,0,0,0],"id":14,"left_children":[1,3,5,7,9,11,13,15,17,-1,19,21,23,25,27,-1,-1,-1,-1,-1,-1,-1,-1,-1,-1,-1,-1,-1,-1],"loss_changes":[7.314672E-2,3.9065547E-2,3.9860204E-2,4.5035895E-2,1.4594097E-2,2.3986174E-2,3.3944994E-2,3.964897E-2,2.7417481E-2,0E0,3.2352265E-3,2.824964E-3,1.1485819E-2,2.1132067E-2,1.1479684E-2,0E0,0E0,0E0,0E0,0E0,0E0,0E0,0E0,0E0,0E0,0E0,0E0,0E0,0E0],"parents":[2147483647,0,0,1,1,2,2,3,3,4,4,5,5,6,6,7,7,8,8,10,10,11,11,12,12,13,13,14,14],"right_children":[2,4,6,8,10,12,14,16,18,-1,20,22,24,26,28,-1,-1,-1,-1,-1,-1,-1,-1,-1,-1,-1,-1,-1,-1],"split_conditions":[-5.021278E-2,8.5991466E-1,2.0900726E-1,3.563466E-1,-2.9356973E-2,1.0761672E-1,-4.5074787E-2,1.2970883E0,1.3145659E0,-4.673912E-3,1.6773186E1,-2.6225276E-2,1.8817186E-1,1.24399245E-1,5.8446635E-2,-5.619327E-4,1.4110125E-3,2.9220756E-3,-2.1818304E-3,-5.8374502E-5,-1.9499196E-3,2.2853159E-4,3.500141E-3,3.618291E-4,-1.6450918E-3,4.456391E-3,1.2255978E-3,9.679907E-4,-2.7199246E-3],"split_indices":[23,4,16,8,5,7,24,9,9,0,13,14,7,15,1,0,0,0,0,0,0,0,0,0,0,0,0,0,0],"split_type":[0,0,0,0,0,0,0,0,0,0,0,0,0,0,0,0,0,0,0,0,0,0,0,0,0,0,0,0,0],"sum_hessian":[3.66E2,2.99E2,6.7E1,2.86E2,1.3E1,3.5E1,3.2E1,2.69E2,1.7E1,5E0,8E0,5E0,3E1,2.6E1,6E0,2.42E2,2.7E1,1.5E1,2E0,4E0,4E0,1E0,4E0,2.1E1,9E0,1.7E1,9E0,4E0,2E0],"tree_param":{"num_deleted":"0","num_feature":"33","num_nodes":"29","size_leaf_vector":"1"}},{"base_weights":[-5.332466E-4,-1.897053E-2,9.057509E-3,-1.248675E-2,-4.8859622E-2,3.7918244E-2,3.6189791E-3,-2.8489078E-3,-3.6518175E-2,-6.929379E-2,-1.7553292E-2,-5.2366372E-2,5.4225095E-2,-3.259118E-3,3.7054658E-2,-1.620137E-3,3.9748987E-4,-3.1522908E-3,-7.8165805E-4,-3.8973067E-3,-6.819702E-4,-1.1315712E-3,-1.61932E-4,-2.8732584E-3,-4.8646037E-4,4.6977127E-4,4.842108E-3,5.7555863E-4,-9.4326603E-4,4.8334375E-3,9.708246E-4],"categories":[],"categories_nodes":[],"categories_segments":[],"categories_sizes":[],"default_left":[0,0,0,0,0,0,0,0,0,0,0,0,0,0,0,0,0,0,0,0,0,0,0,0,0,0,0,0,0,0,0],"id":15,"left_children":[1,3,5,7,9,11,13,15,17,19,21,23,25,27,29,-1,-1,-1,-1,-1,-1,-1,-1,-1,-1,-1,-1,-1,-1,-1,-1],"loss_changes":[6.3827224E-2,2.3018453E-2,3.7072156E-2,2.3815695E-2,1.1929449E-2,5.946903E-2,4.6520878E-2,2.4481699E-2,1.4865484E-2,4.4245534E-3,6.533202E-4,5.744491E-4,6.0726717E-2,3.9166365E-2,3.346072E-2,0E0,0E0,0E0,0E0,0E0,0E0,0E0,0E0,0E0,0E0,0E0,0E0,0E0,0E0,0E0,0E0],"parents":[2147483647,0,0,1,1,2,2,3,3,4,4,5,5,6,6,7,7,8,8,9,9,10,10,11,11,12,12,13,13,14,14],"right_children":[2,4,6,8,10,12,14,16,18,20,22,24,26,28,30,-1,-1,-1,-1,-1,-1,-1,-1,-1,-1,-1,-1,-1,-1,-1,-1],"split_conditions":[9.618E-2,1.0261917E-1,1.786256E-1,2.7957637E-2,2.5038224E-1,-8.07972E-2,-4.08657E-2,-4.696869E-3,5.9361744E1,2.7397258E-2,2.2126438E-1,-2.7916275E-2,-2.57E-1,8.0359495E-1,-2.2284701E-2,-1.620137E-3,3.9748987E-4,-3.1522908E-3,-7.8165805E-4,-3.8973067E-3,-6.819702E-4,-1.1315712E-3,-1.61932E-4,-2.8732584E-3,-4.8646037E-4,4.6977127E-4,4.842108E-3,5.7555863E-4,-9.4326603E-4,4.8334375E-3,9.708246E-4],"split_indices":[26,2,4,1,7,2,23,19,11,0,2,0,28,25,5,0,0,0,0,0,0,0,0,0,0,0,0,0,0,0,0],"split_type":[0,0,0,0,0,0,0,0,0,0,0,0,0,0,0,0,0,0,0,0,0,0,0,0,0,0,0,0,0,0,0],"sum_hessian":[3.58E2,1.22E2,2.36E2,1.02E2,2E1,3.6E1,2E2,7.4E1,2.8E1,1.1E1,9E0,5E0,3.1E1,1.67E2,3.3E1,1.9E1,5.5E1,1.1E1,1.7E1,9E0,2E0,6E0,3E0,4E0,1E0,1.6E1,1.5E1,8.6E1,8.1E1,6E0,2.7E1],"tree_param":{"num_deleted":"0","num_feature":"33","num_nodes":"31","size_leaf_vector":"1"}},{"base_weights":[1.4148954E-3,-4.99783E-3,2.8354622E-2,-7.789646E-3,4.017938E-2,3.5758734E-2,-2.4833692E-2,7.100342E-3,-1.6895602E-2,6.7694224E-2,-3.0936347E-3,1.7880876E-2,8.397451E-2,-6.0591687E-2,1.7697126E-2,2.8977133E-3,1.6188658E-4,1.1382641E-3,-1.1420547E-3,1.7045664E-4,5.623516E-3,-1.1706025E-3,1.2942519E-3,4.7076616E-4,4.664227E-3,-3.3091537E-3,-7.086086E-4,1.353748E-3,3.6740425E-5],"categories":[],"categories_nodes":[],"categories_segments":[],"categories_sizes":[],"default_left":[0,0,0,0,0,0,0,0,0,0,0,0,0,0,0,0,0,0,0,0,0,0,0,0,0,0,0,0,0],"id":16,"left_children":[1,3,5,7,9,11,13,15,17,19,-1,21,23,25,27,-1,-1,-1,-1,-1,-1,-1,-1,-1,-1,-1,-1,-1,-1],"loss_changes":[6.335528E-2,3.786597E-2,2.9095791E-2,3.8212262E-2,5.542171E-2,5.162237E-2,1.6056206E-2,2.0834645E-2,4.192767E-2,4.116217E-2,0E0,1.6608506E-2,1.0135993E-2,2.0585954E-5,8.450417E-4,0E0,0E0,0E0,0E0,0E0,0E0,0E0,0E0,0E0,0E0,0E0,0E0,0E0,0E0],"parents":[2147483647,0,0,1,1,2,2,3,3,4,4,5,5,6,6,7,7,8,8,9,9,11,11,12,12,13,13,14,14],"right_children":[2,4,6,8,10,12,14,16,18,20,-1,22,24,26,28,-1,-1,-1,-1,-1,-1,-1,-1,-1,-1,-1,-1,-1,-1],"split_conditions":[-5.021278E-2,3.6782783E-1,4.2271525E-1,7.844793E-2,5.371825E-1,2.6342478E-1,7.612538E-2,2.4308814E-2,-1.8757911E-2,8.2356226E-1,-3.0936347E-3,-4.08657E-2,1.9733217E-1,3.0748898E-2,4.2869312E-1,2.8977133E-3,1.6188658E-4,1.1382641E-3,-1.1420547E-3,1.7045664E-4,5.623516E-3,-1.1706025E-3,1.2942519E-3,4.7076616E-4,4.664227E-3,-3.3091537E-3,-7.086086E-4,1.353748E-3,3.6740425E-5],"split_indices":[23,8,16,21,2,16,14,20,18,25,0,22,8,0,2,0,0,0,0,0,0,0,0,0,0,0,0,0,0],"split_type":[0,0,0,0,0,0,0,0,0,0,0,0,0,0,0,0,0,0,0,0,0,0,0,0,0,0,0,0,0],"sum_hessian":[3.64E2,2.95E2,6.9E1,2.79E2,1.6E1,6.1E1,8E0,1.06E2,1.73E2,1.3E1,3E0,4.6E1,1.5E1,4E0,4E0,6E0,1E2,2.2E1,1.51E2,6E0,7E0,7E0,3.9E1,2E0,1.3E1,3E0,1E0,2E0,2E0],"tree_param":{"num_deleted":"0","num_feature":"33","num_nodes":"29","size_leaf_vector":"1"}},{"base_weights":[-2.2324037E-3,-1.838273E-2,7.1828123E-3,-6.2893527E-3,-4.317277E-2,3.3310574E-2,1.5525994E-3,-3.5407913E-3,-2.2186304E-3,-7.113278E-2,-2.3732087E-2,-3.2075763E-2,5.036145E-2,-3.723259E-3,2.9030371E-2,-1.4037936E-3,3.1616035E-4,8.789067E-5,-4.0354067E-3,2.1683777E-4,-1.6586672E-3,1.4721277E-3,-2.225448E-3,3.1461534E-3,-2.885043E-4,3.0215713E-3,-2.9434546E-4,2.010633E-3,-1.7399229E-3],"categories":[],"categories_nodes":[],"categories_segments":[],"categories_sizes":[],"default_left":[0,0,0,0,0,0,0,0,0,0,0,0,0,0,0,0,0,0,0,0,0,0,0,0,0,0,0,0,0],"id":17,"left_children":[1,3,5,7,9,11,13,-1,15,17,19,21,23,25,27,-1,-1,-1,-1,-1,-1,-1,-1,-1,-1,-1,-1,-1,-1],"loss_changes":[5.6383792E-2,4.051476E-2,3.4418512E-2,2.4323912E-2,2.1656297E-2,4.8691187E-2,2.835857E-2,0E0,2.0034011E-2,1.2426987E-2,7.7684447E-3,9.231944E-3,2.4165556E-2,2.3367597E-2,2.458221E-2,0E0,0E0,0E0,0E0,0E0,0E0,0E0,0E0,0E0,0E0,0E0,0E0,0E0,0E0],"parents":[2147483647,0,0,1,1,2,2,3,3,4,4,5,5,6,6,8,8,9,9,10,10,11,11,12,12,13,13,14,14],"right_children":[2,4,6,8,10,12,14,-1,16,18,20,22,24,26,28,-1,-1,-1,-1,-1,-1,-1,-1,-1,-1,-1,-1,-1,-1],"split_conditions":[9.618E-2,4.2154565E-2,1.786256E-1,1.716124E-1,5.994156E-3,1.50935135E1,-4.08657E-2,-3.5407913E-3,-4.696869E-3,-1.3767664E-2,1.3682737E-2,9.9602655E-2,4.4169626E-3,-1.4373232E-2,1.3840523E-1,-1.4037936E-3,3.1616035E-4,8.789067E-5,-4.0354067E-3,2.1683777E-4,-1.6586672E-3,1.4721277E-3,-2.225448E-3,3.1461534E-3,-2.885043E-4,3.0215713E-3,-2.9434546E-4,2.010633E-3,-1.7399229E-3],"split_indices":[26,2,4,7,18,10,23,0,19,18,18,7,19,18,1,0,0,0,0,0,0,0,0,0,0,0,0,0,0],"split_type":[0,0,0,0,0,0,0,0,0,0,0,0,0,0,0,0,0,0,0,0,0,0,0,0,0,0,0,0,0],"sum_hessian":[3.68E2,1.35E2,2.33E2,9.2E1,4.3E1,4E1,1.93E2,4E0,8.8E1,1.6E1,2.7E1,8E0,3.2E1,1.63E2,3E1,2.1E1,6.7E1,2E0,1.4E1,7E0,2E1,1E0,7E0,2.6E1,6E0,4E0,1.59E2,2.6E1,4E0],"tree_param":{"num_deleted":"0","num_feature":"33","num_nodes":"29","size_leaf_vector":"1"}},{"base_weights":[-3.7555405E-4,-6.953907E-3,2.5712574E-2,-2.0905176E-2,4.53649E-3,7.339773E-2,1.6010951E-2,2.8959191E-3,-3.0421013E-2,8.372122E-3,-3.64548E-2,5.5830604E-3,1.8196326E-2,2.2115033E-2,-5.1061258E-2,-2.5654733E-4,2.1180979E-3,-9.4601075E-4,-2.662014E-3,1.5996917E-3,2.6380827E-5,-4.8350147E-4,-2.7974308E-3,1.6339353E-3,-4.111149E-4,6.0190685E-4,3.50342E-3,-3.172975E-3,9.461695E-5],"categories":[],"categories_nodes":[],"categories_segments":[],"categories_sizes":[],"default_left":[0,0,0,0,0,0,0,0,0,0,0,0,0,0,0,0,0,0,0,0,0,0,0,0,0,0,0,0,0],"id":18,"left_children":[1,3,5,7,9,11,13,15,17,19,21,-1,23,25,27,-1,-1,-1,-1,-1,-1,-1,-1,-1,-1,-1,-1,-1,-1],"loss_changes":[6.00767E-2,4.4947673E-2,3.0852206E-2,2.8782792E-2,2.4749462E-2,2.124254E-2,2.64634E-2,1.2205605E-2,2.2239834E-2,2.6380027E-2,6.237317E-3,0E0,2.8899703E-3,2.6036752E-2,3.7910538E-3,0E0,0E0,0E0,0E0,0E0,0E0,0E0,0E0,0E0,0E0,0E0,0E0,0E0,0E0],"parents":[2147483647,0,0,1,1,2,2,3,3,4,4,5,5,6,6,7,7,8,8,9,9,10,10,12,12,13,13,14,14],"right_children":[2,4,6,8,10,12,14,16,18,20,22,-1,24,26,28,-1,-1,-1,-1,-1,-1,-1,-1,-1,-1,-1,-1,-1,-1],"split_conditions":[-5.1428575E-2,-1.8493667E-2,1.3859999E-1,4.0604385E1,1.7442212E0,7.5480866E-1,6.926268E-1,1.07370004E-1,2.4922241E-1,1.285662E-2,2.1636629E-1,5.5830604E-3,2.2202414E-2,7.973907E-1,3.0748898E-2,-2.5654733E-4,2.1180979E-3,-9.4601075E-4,-2.662014E-3,1.5996917E-3,2.6380827E-5,-4.8350147E-4,-2.7974308E-3,1.6339353E-3,-4.111149E-4,6.0190685E-4,3.50342E-3,-3.172975E-3,9.461695E-5],"split_indices":[23,5,29,12,25,20,3,26,8,1,6,0,0,4,0,0,0,0,0,0,0,0,0,0,0,0,0,0,0],"split_type":[0,0,0,0,0,0,0,0,0,0,0,0,0,0,0,0,0,0,0,0,0,0,0,0,0,0,0,0,0],"sum_hessian":[3.47E2,2.78E2,6.9E1,1.25E2,1.53E2,1E1,5.9E1,3.6E1,8.9E1,1.41E2,1.2E1,5E0,5E0,5.5E1,4E0,3.1E1,5E0,6.1E1,2.8E1,3.4E1,1.07E2,6E0,6E0,3E0,2E0,4.7E1,8E0,3E0,1E0],"tree_param":{"num_deleted":"0","num_feature":"33","num_nodes":"29","size_leaf_vector":"1"}},{"base_weights":[-2.337102E-3,-8.418995E-3,1.4960222E-2,-1.0513313E-2,9.231008E-2,3.9906E-2,-1.265191E-3,-8.0070095E-3,-6.856596E-2,-3.5389222E-4,5.8377786E-3,5.554736E-2,-1.3422639E-3,4.8884325E-2,-9.668618E-3,5.9403665E-4,-6.4164895E-4,-4.085833E-3,-3.621557E-4,7.345315E-4,3.7650098E-3,1.0543261E-3,-1.578045E-3,-5.061535E-4,2.9388296E-3,-1.5551789E-3,2.958388E-4],"categories":[],"categories_nodes":[],"categories_segments":[],"categories_sizes":[],"default_left":[0,0,0,0,0,0,0,0,0,0,0,0,0,0,0,0,0,0,0,0,0,0,0,0,0,0,0],"id":19,"left_children":[1,3,5,7,9,11,13,15,17,-1,-1,19,21,23,25,-1,-1,-1,-1,-1,-1,-1,-1,-1,-1,-1,-1],"loss_changes":[3.737729E-2,5.6832418E-2,3.751562E-2,3.6787607E-2,1.4602289E-2,2.3660872E-2,2.4941064E-2,2.417512E-2,7.579785E-3,0E0,0E0,1.9727156E-2,8.792588E-3,5.8540944E-3,1.7146701E-2,0E0,0E0,0E0,0E0,0E0,0E0,0E0,0E0,0E0,0E0,0E0,0E0],"parents":[2147483647,0,0,1,1,2,2,3,3,4,4,5,5,6,6,7,7,8,8,11,11,12,12,13,13,14,14],"right_children":[2,4,6,8,10,12,14,16,18,-1,-1,20,22,24,26,-1,-1,-1,-1,-1,-1,-1,-1,-1,-1,-1,-1],"split_conditions":[1.3793999E-1,8.963248E-2,6.49513E-1,3.484542E-1,2.3086831E-2,2.5911906E-1,3.5567707E-1,1.6189802E-1,3.475001E1,-3.5389222E-4,5.8377786E-3,0E0,-4.7325104E-2,-3.3388007E-2,9.312764E0,5.9403665E-4,-6.4164895E-4,-4.085833E-3,-3.621557E-4,7.345315E-4,3.7650098E-3,1.0543261E-3,-1.578045E-3,-5.061535E-4,2.9388296E-3,-1.5551789E-3,2.958388E-4],"split_indices":[26,0,25,2,2,7,4,6,13,0,0,28,22,5,13,0,0,0,0,0,0,0,0,0,0,0,0],"split_type":[0,0,0,0,0,0,0,0,0,0,0,0,0,0,0,0,0,0,0,0,0,0,0,0,0,0,0],"sum_hessian":[3.52E2,2.61E2,9.1E1,2.57E2,4E0,3.5E1,5.6E1,2.48E2,9E0,1E0,3E0,2.5E1,1E1,7E0,4.9E1,4.8E1,2E2,7E0,2E0,9E0,1.6E1,6E0,4E0,1E0,6E0,2E1,2.9E1],"tree_param":{"num_deleted":"0","num_feature":"33","num_nodes":"27","size_leaf_vector":"1"}},{"base_weights":[2.1103274E-3,-3.9653587E-3,2.8931465E-2,-2.0352054E-2,4.1963584E-3,6.406418E-3,5.5941865E-2,9.550445E-3,-2.9529613E-2,7.3319706E-3,-3.143701E-2,4.11859E-2,-3.2835894E-3,7.477981E-2,1.5064417E-2,2.0950667E-5,3.2079727E-3,-6.367739E-4,-2.3705384E-3,-4.6983347E-4,6.2394113E-4,3.0880966E-4,-2.2107188E-3,4.8017642E-4,2.7896753E-3,1.9076437E-3,-4.0164086E-4,-3.0867392E-4,4.7483034E-3,1.7117526E-3,-1.0034669E-4],"categories":[],"categories_nodes":[],"categories_segments":[],"categories_sizes":[],"default_left":[0,0,0,0,0,0,0,0,0,0,0,0,0,0,0,0,0,0,0,0,0,0,0,0,0,0,0,0,0,0,0],"id":20,"left_children":[1,3,5,7,9,11,13,15,17,19,21,23,25,27,29,-1,-1,-1,-1,-1,-1,-1,-1,-1,-1,-1,-1,-1,-1,-1,-1],"loss_changes":[5.9569847E-2,4.0050562E-2,4.0530127E-2,2.7729008E-2,2.2748092E-2,1.31778745E-2,2.1796666E-2,1.2176806E-2,2.206713E-2,1.6147412E-2,8.339476E-3,3.1176917E-3,6.6586365E-3,3.437937E-2,3.8666509E-3,0E0,0E0,0E0,0E0,0E0,0E0,0E0,0E0,0E0,0E0,0E0,0E0,0E0,0E0,0E0,0E0],"parents":[2147483647,0,0,1,1,2,2,3,3,4,4,5,5,6,6,7,7,8,8,9,9,10,10,11,11,12,12,13,13,14,14],"right_children":[2,4,6,8,10,12,14,16,18,20,22,24,26,28,30,-1,-1,-1,-1,-1,-1,-1,-1,-1,-1,-1,-1,-1,-1,-1,-1],"split_conditions":[-5.021278E-2,-3.203328E-2,1.9733217E-1,-1.3767664E-2,7.026877E1,7.143908E-2,3.9934522E-1,1.03360005E-1,9.116206E-1,-1.77E-1,6.2989E-1,-1.768953E-2,-2.5909135E-2,1.7659996E-1,1.136971E-1,2.0950667E-5,3.2079727E-3,-6.367739E-4,-2.3705384E-3,-4.6983347E-4,6.2394113E-4,3.0880966E-4,-2.2107188E-3,4.8017642E-4,2.7896753E-3,1.9076437E-3,-4.0164086E-4,-3.0867392E-4,4.7483034E-3,1.7117526E-3,-1.0034669E-4],"split_indices":[23,5,8,18,12,2,16,26,9,28,27,0,0,16,1,0,0,0,0,0,0,0,0,0,0,0,0,0,0,0,0],"split_type":[0,0,0,0,0,0,0,0,0,0,0,0,0,0,0,0,0,0,0,0,0,0,0,0,0,0,0,0,0,0,0],"sum_hessian":[3.63E2,2.97E2,6.6E1,9.8E1,1.99E2,3.7E1,2.9E1,2.3E1,7.5E1,1.84E2,1.5E1,7E0,3E1,1.9E1,1E1,2.1E1,2E0,4E1,3.5E1,4.3E1,1.41E2,4E0,1.1E1,3E0,4E0,2E0,2.8E1,4E0,1.5E1,4E0,6E0],"tree_param":{"num_deleted":"0","num_feature":"33","num_nodes":"31","size_leaf_vector":"1"}},{"base_weights":[2.3997577E-3,4.1906006E-4,4.702455E-2,1.3001657E-2,-8.132621E-3,8.103604E-2,-2.7784272E-3,4.9711797E-2,5.0896322E-3,2.3381324E-2,-1.2512406E-2,2.961138E-2,1.1376007E-1,5.139274E-4,4.1589816E-3,9.8252356E-5,5.033163E-3,1.3030268E-4,2.150643E-3,-2.9027415E-4,-2.0140696E-3,1.1160917E-4,1.6990321E-3,6.2249075E-3,1.0940129E-3],"categories":[],"categories_nodes":[],"categories_segments":[],"categories_sizes":[],"default_left":[0,0,0,0,0,0,0,0,0,0,0,0,0,0,0,0,0,0,0,0,0,0,0,0,0],"id":21,"left_children":[1,3,5,7,9,11,-1,13,15,17,19,21,23,-1,-1,-1,-1,-1,-1,-1,-1,-1,-1,-1,-1],"loss_changes":[3.015502E-2,3.550598E-2,5.7350066E-2,3.8395755E-2,2.7560614E-2,1.4299564E-2,0E0,2.9731568E-2,3.30003E-2,9.824193E-3,3.196263E-2,6.637974E-4,2.3269057E-3,0E0,0E0,0E0,0E0,0E0,0E0,0E0,0E0,0E0,0E0,0E0,0E0],"parents":[2147483647,0,0,1,1,2,2,3,3,4,4,5,5,7,7,8,8,9,9,10,10,11,11,12,12],"right_children":[2,4,6,8,10,12,-1,14,16,18,20,22,24,-1,-1,-1,-1,-1,-1,-1,-1,-1,-1,-1,-1],"split_conditions":[4.107921E-1,2.1144702E-1,5.371825E-1,2.6843152E-3,-1.01988085E-1,-5.944147E-2,-2.7784272E-3,2.867316E-2,8.364796E-1,8.1765854E-1,2.6816857E-1,-4.8765812E-2,2.037736E-1,5.139274E-4,4.1589816E-3,9.8252356E-5,5.033163E-3,1.3030268E-4,2.150643E-3,-2.9027415E-4,-2.0140696E-3,1.1160917E-4,1.6990321E-3,6.2249075E-3,1.0940129E-3],"split_indices":[8,8,2,4,3,5,0,2,4,25,8,0,1,0,0,0,0,0,0,0,0,0,0,0,0],"split_type":[0,0,0,0,0,0,0,0,0,0,0,0,0,0,0,0,0,0,0,0,0,0,0,0,0],"sum_hessian":[3.4E2,3.27E2,1.3E1,1.32E2,1.95E2,1E1,3E0,2.2E1,1.1E2,2.3E1,1.72E2,5E0,5E0,1.1E1,1.1E1,1.08E2,2E0,1.2E1,1.1E1,1.4E2,3.2E1,1E0,4E0,4E0,1E0],"tree_param":{"num_deleted":"0","num_feature":"33","num_nodes":"25","size_leaf_vector":"1"}},{"base_weights":[2.4026567E-3,-3.909437E-3,2.174934E-2,-1.3994943E-2,1.1448226E-2,4.1168515E-2,-2.5523675E-3,9.941351E-3,-2.2135952E-2,4.3932204E-3,6.1717074E-2,2.1283407E-2,6.0960405E-2,-4.5023877E-2,1.6892085E-2,-7.500453E-4,1.3574298E-3,1.0045983E-3,-1.4336728E-3,1.0499071E-3,-1.0745416E-3,5.020974E-3,-7.4638333E-4,-4.782132E-4,1.3844891E-3,3.8066064E-3,7.6952705E-4,5.989172E-5,-2.6999568E-3,2.5594062E-3,7.178844E-5],"categories":[],"categories_nodes":[],"categories_segments":[],"categories_sizes":[],"default_left":[0,0,0,0,0,0,0,0,0,0,0,0,0,0,0,0,0,0,0,0,0,0,0,0,0,0,0,0,0,0,0],"id":22,"left_children":[1,3,5,7,9,11,13,15,17,19,21,23,25,27,29,-1,-1,-1,-1,-1,-1,-1,-1,-1,-1,-1,-1,-1,-1,-1,-1],"loss_changes":[4.1464508E-2,3.996956E-2,3.9562862E-2,3.0631687E-2,3.594461E-2,1.6354546E-2,3.2935478E-2,1.7992973E-2,3.3025753E-2,4.000384E-2,3.932774E-2,5.436603E-3,1.3798334E-2,5.2826665E-3,1.4467246E-2,0E0,0E0,0E0,0E0,0E0,0E0,0E0,0E0,0E0,0E0,0E0,0E0,0E0,0E0,0E0,0E0],"parents":[2147483647,0,0,1,1,2,2,3,3,4,4,5,5,6,6,7,7,8,8,9,9,10,10,11,11,12,12,13,13,14,14],"right_children":[2,4,6,8,10,12,14,16,18,20,22,24,26,28,30,-1,-1,-1,-1,-1,-1,-1,-1,-1,-1,-1,-1,-1,-1,-1,-1],"split_conditions":[1.3793999E-1,7.018361E-1,3.1455877E-1,-9.53195E-3,3.6155584E-1,0E0,2.2493494E-1,2.3243386E-1,1.7632422E-1,2.177813E-1,2.639347E-1,-2.91935E-3,2.5911906E-1,7.0674825E-1,5.1904922E1,-7.500453E-4,1.3574298E-3,1.0045983E-3,-1.4336728E-3,1.0499071E-3,-1.0745416E-3,5.020974E-3,-7.4638333E-4,-4.782132E-4,1.3844891E-3,3.8066064E-3,7.6952705E-4,5.989172E-5,-2.6999568E-3,2.5594062E-3,7.178844E-5],"split_indices":[26,20,3,18,6,28,8,8,8,8,21,19,7,25,11,0,0,0,0,0,0,0,0,0,0,0,0,0,0,0,0],"split_type":[0,0,0,0,0,0,0,0,0,0,0,0,0,0,0,0,0,0,0,0,0,0,0,0,0,0,0,0,0,0,0],"sum_hessian":[3.37E2,2.55E2,8.2E1,1.54E2,1.01E2,4.5E1,3.7E1,3.9E1,1.15E2,9E1,1.1E1,2.4E1,2.1E1,1.1E1,2.6E1,1.6E1,2.3E1,1.5E1,1E2,5.5E1,3.5E1,7E0,4E0,4E0,2E1,1.5E1,6E0,2E0,9E0,7E0,1.9E1],"tree_param":{"num_deleted":"0","num_feature":"33","num_nodes":"31","size_leaf_vector":"1"}},{"base_weights":[-8.8822993E-4,-4.8684445E-3,1.8581474E-2,-2.1881042E-3,-3.9497875E-2,3.057911E-2,-2.3470772E-2,-9.9221235E-3,1.1181988E-2,9.102338E-3,-4.811702E-2,4.256241E-2,-9.040283E-3,3.0302133E-3,-4.2712092E-2,-1.46744E-4,-1.8492381E-3,3.0627751E-3,8.2836144E-5,-1.7500234E-4,7.10152E-4,-2.6818947E-3,-7.342297E-5,7.1878085E-4,2.7490582E-3,-2.011243E-3,9.897205E-4,7.952214E-4,-2.994445E-4,-2.4492794E-3,8.6782E-5],"categories":[],"categories_nodes":[],"categories_segments":[],"categories_sizes":[],"default_left":[0,0,0,0,0,0,0,0,0,0,0,0,0,0,0,0,0,0,0,0,0,0,0,0,0,0,0,0,0,0,0],"id":23,"left_children":[1,3,5,7,9,11,13,15,17,19,21,23,25,27,29,-1,-1,-1,-1,-1,-1,-1,-1,-1,-1,-1,-1,-1,-1,-1,-1],"loss_changes":[2.807214E-2,2.7762368E-2,3.2105014E-2,2.91714E-2,9.66315E-3,2.3603566E-2,7.587892E-3,3.359032E-2,4.921349E-2,3.638314E-4,4.646357E-3,1.194109E-2,1.2434311E-2,1.0137289E-3,2.4976935E-3,0E0,0E0,0E0,0E0,0E0,0E0,0E0,0E0,0E0,0E0,0E0,0E0,0E0,0E0,0E0,0E0],"parents":[2147483647,0,0,1,1,2,2,3,3,4,4,5,5,6,6,7,7,8,8,9,9,10,10,11,11,12,12,13,13,14,14],"right_children":[2,4,6,8,10,12,14,16,18,20,22,24,26,28,30,-1,-1,-1,-1,-1,-1,-1,-1,-1,-1,-1,-1,-1,-1,-1,-1],"split_conditions":[-4.6774242E-2,2.103988E0,1.16597E-1,7.138376E-1,3.286915E1,3.065E-1,-3.8354643E-2,3.5306092E-2,-6.9767445E-2,-1.14457674E-1,7.9513176E1,3.3187473E-1,7.720141E-2,4.8323352E-2,2.2210126E-1,-1.46744E-4,-1.8492381E-3,3.0627751E-3,8.2836144E-5,-1.7500234E-4,7.10152E-4,-2.6818947E-3,-7.342297E-5,7.1878085E-4,2.7490582E-3,-2.011243E-3,9.897205E-4,7.952214E-4,-2.994445E-4,-2.4492794E-3,8.6782E-5],"split_indices":[23,25,1,20,12,29,23,1,22,1,11,25,21,5,1,0,0,0,0,0,0,0,0,0,0,0,0,0,0,0,0],"split_type":[0,0,0,0,0,0,0,0,0,0,0,0,0,0,0,0,0,0,0,0,0,0,0,0,0,0,0,0,0,0,0],"sum_hessian":[3.59E2,2.99E2,6E1,2.79E2,2E1,4.7E1,1.3E1,1.77E2,1.02E2,3E0,1.7E1,3.6E1,1.1E1,6E0,7E0,1.42E2,3.5E1,1.5E1,8.7E1,1E0,2E0,1.5E1,2E0,1.2E1,2.4E1,5E0,6E0,2E0,4E0,6E0,1E0],"tree_param":{"num_deleted":"0","num_feature":"33","num_nodes":"31","size_leaf_vector":"1"}},{"base_weights":[-2.180458E-4,-5.449378E-3,1.9597735E-2,-1.6368514E-2,2.4613347E-3,-1.063728E-2,2.7109435E-2,2.9908845E-3,-2.6400182E-2,-1.5211231E-3,4.2690054E-2,-1.927147E-2,1.4845886E-3,3.961575E-2,-5.8474066E-3,-3.5524523E-4,2.2907795E-3,-5.658871E-4,-2.0624825E-3,2.3396744E-4,-1.8587845E-3,-2.8936166E-4,3.711053E-3,3.1446494E-4,-1.337992E-3,1.1819532E-3,3.0508197E-3,1.8969494E-3,-8.996854E-4],"categories":[],"categories_nodes":[],"categories_segments":[],"categories_sizes":[],"default_left":[0,0,0,0,0,0,0,0,0,0,0,0,0,0,0,0,0,0,0,0,0,0,0,0,0,0,0,0,0],"id":24,"left_children":[1,3,5,7,9,11,13,15,17,19,21,23,-1,25,27,-1,-1,-1,-1,-1,-1,-1,-1,-1,-1,-1,-1,-1,-1],"loss_changes":[3.846365E-2,2.5412416E-2,1.8034073E-2,2.4103016E-2,2.757328E-2,6.60375E-3,2.6108012E-2,1.929546E-2,1.7552972E-2,3.508027E-2,2.4336632E-2,3.0278736E-3,0E0,1.3393417E-2,1.0863083E-2,0E0,0E0,0E0,0E0,0E0,0E0,0E0,0E0,0E0,0E0,0E0,0E0,0E0,0E0],"parents":[2147483647,0,0,1,1,2,2,3,3,4,4,5,5,6,6,7,7,8,8,9,9,10,10,11,11,13,13,14,14],"right_children":[2,4,6,8,10,12,14,16,18,20,22,24,-1,26,28,-1,-1,-1,-1,-1,-1,-1,-1,-1,-1,-1,-1,-1,-1],"split_conditions":[-5.1428575E-2,-1.9108934E-2,-4.08072E-2,4.0604385E1,3.5047352E-1,2.3433144E-1,7.275986E1,1.07370004E-1,9.97168E-1,2.6816857E-1,8.849437E-1,1.7840342E-1,1.4845886E-3,1.9733217E-1,-4.270276E-2,-3.5524523E-4,2.2907795E-3,-5.658871E-4,-2.0624825E-3,2.3396744E-4,-1.8587845E-3,-2.8936166E-4,3.711053E-3,3.1446494E-4,-1.337992E-3,1.1819532E-3,3.0508197E-3,1.8969494E-3,-8.996854E-4],"split_indices":[23,5,22,12,8,8,12,26,9,8,25,3,0,8,23,0,0,0,0,0,0,0,0,0,0,0,0,0,0],"split_type":[0,0,0,0,0,0,0,0,0,0,0,0,0,0,0,0,0,0,0,0,0,0,0,0,0,0,0,0,0],"sum_hessian":[3.68E2,2.92E2,7.6E1,1.22E2,1.7E2,1.5E1,6.1E1,4.2E1,8E1,1.56E2,1.4E1,1.3E1,2E0,4.4E1,1.7E1,3.5E1,7E0,4.1E1,3.9E1,1.34E2,2.2E1,6E0,8E0,3E0,1E1,2.7E1,1.7E1,3E0,1.4E1],"tree_param":{"num_deleted":"0","num_feature":"33","num_nodes":"29","size_leaf_vector":"1"}},{"base_weights":[1.264683E-3,-4.2430945E-3,2.5213623E-2,2.3329465E-2,-6.9814995E-3,9.180449E-3,4.3686528E-2,3.958146E-2,-2.4759276E-3,4.996422E-4,-2.504244E-2,2.8478736E-3,9.2539523E-4,6.387274E-2,-3.888071E-3,2.544048E-3,-1.1288435E-3,-1.762317E-4,2.2878426E-3,-5.001132E-4,-2.076292E-3,1.0011758E-3,-4.2397808E-4,-2.898581E-4,4.275592E-3,-2.3229697E-3,7.1637135E-4],"categories":[],"categories_nodes":[],"categories_segments":[],"categories_sizes":[],"default_left":[0,0,0,0,0,0,0,0,0,0,0,0,0,0,0,0,0,0,0,0,0,0,0,0,0,0,0],"id":25,"left_children":[1,3,5,7,9,11,13,15,-1,17,19,-1,21,23,25,-1,-1,-1,-1,-1,-1,-1,-1,-1,-1,-1,-1],"loss_changes":[4.692095E-2,2.2102961E-2,1.909433E-2,3.431405E-2,3.5757072E-2,1.471101E-2,2.9663209E-2,1.752616E-2,0E0,3.4572948E-2,1.8590245E-2,0E0,6.271855E-3,3.315687E-2,9.140772E-3,0E0,0E0,0E0,0E0,0E0,0E0,0E0,0E0,0E0,0E0,0E0,0E0],"parents":[2147483647,0,0,1,1,2,2,3,3,4,4,5,5,6,6,7,7,9,9,10,10,12,12,13,13,14,14],"right_children":[2,4,6,8,10,12,14,16,-1,18,20,-1,22,24,26,-1,-1,-1,-1,-1,-1,-1,-1,-1,-1,-1,-1],"split_conditions":[-5.021278E-2,-1.6940473E-1,1.9733217E-1,5.558654E-1,2.5719666E-1,1.0761672E-1,3.9934522E-1,9.2067915E-1,-2.4759276E-3,2.1324E-1,2.5355676E-1,2.8478736E-3,1.811854E-1,1.8997124E-1,5.844156E1,2.544048E-3,-1.1288435E-3,-1.762317E-4,2.2878426E-3,-5.001132E-4,-2.076292E-3,1.0011758E-3,-4.2397808E-4,-2.898581E-4,4.275592E-3,-2.3229697E-3,7.1637135E-4],"split_indices":[23,23,8,6,7,7,16,20,0,26,8,0,3,16,11,0,0,0,0,0,0,0,0,0,0,0,0],"split_type":[0,0,0,0,0,0,0,0,0,0,0,0,0,0,0,0,0,0,0,0,0,0,0,0,0,0,0],"sum_hessian":[3.53E2,2.88E2,6.5E1,2.5E1,2.63E2,3.6E1,2.9E1,2.1E1,4E0,1.87E2,7.6E1,4E0,3.2E1,2E1,9E0,1.8E1,3E0,1.73E2,1.4E1,4.1E1,3.5E1,1E1,2.2E1,5E0,1.5E1,2E0,7E0],"tree_param":{"num_deleted":"0","num_feature":"33","num_nodes":"27","size_leaf_vector":"1"}},{"base_weights":[1.6893578E-3,-1.0755189E-3,5.9598193E-2,2.2137696E-3,-2.4681738E-2,8.2490385E-2,5.3431946E-3,-1.4009556E-3,2.7336705E-2,3.4609584E-3,-4.364712E-2,2.6585774E-2,5.349451E-3,-1.269749E-3,2.1286884E-3,-2.4289137E-4,1.3426287E-3,2.7403058E-3,2.07458E-4,1.4954549E-3,-1.6466288E-3,1.2739423E-5,-2.7186775E-3,1.938289E-4,1.5170036E-3],"categories":[],"categories_nodes":[],"categories_segments":[],"categories_sizes":[],"default_left":[0,0,0,0,0,0,0,0,0,0,0,0,0,0,0,0,0,0,0,0,0,0,0,0,0],"id":26,"left_children":[1,3,5,7,9,11,13,15,17,19,21,23,-1,-1,-1,-1,-1,-1,-1,-1,-1,-1,-1,-1,-1],"loss_changes":[5.7976197E-2,2.6986875E-2,1.9832116E-2,2.7800664E-2,2.2910412E-2,1.1483669E-2,9.060338E-3,2.6419751E-2,2.4181409E-2,1.9284492E-2,1.2029E-2,2.9249E-4,0E0,0E0,0E0,0E0,0E0,0E0,0E0,0E0,0E0,0E0,0E0,0E0,0E0],"parents":[2147483647,0,0,1,1,2,2,3,3,4,4,5,5,6,6,7,7,8,8,9,9,10,10,11,11],"right_children":[2,4,6,8,10,12,14,16,18,20,22,24,-1,-1,-1,-1,-1,-1,-1,-1,-1,-1,-1,-1,-1],"split_conditions":[3.563466E-1,2.6902327E-1,-6.9767445E-2,2.1324E-1,9.2784977E-1,-5.944147E-2,8.956547E-2,1.305524E0,2.7763018E-1,6.047762E-1,4.3595806E1,-4.8765812E-2,5.349451E-3,-1.269749E-3,2.1286884E-3,-2.4289137E-4,1.3426287E-3,2.7403058E-3,2.07458E-4,1.4954549E-3,-1.6466288E-3,1.2739423E-5,-2.7186775E-3,1.938289E-4,1.5170036E-3],"split_indices":[8,8,22,26,9,5,5,9,16,4,12,0,0,0,0,0,0,0,0,0,0,0,0,0,0],"split_type":[0,0,0,0,0,0,0,0,0,0,0,0,0,0,0,0,0,0,0,0,0,0,0,0,0],"sum_hessian":[3.6E2,3.45E2,1.5E1,3.04E2,4.1E1,1E1,5E0,2.67E2,3.7E1,1.7E1,2.4E1,4E0,6E0,3E0,2E0,2.39E2,2.8E1,1.6E1,2.1E1,1E1,7E0,5E0,1.9E1,1E0,3E0],"tree_param":{"num_deleted":"0","num_feature":"33","num_nodes":"25","size_leaf_vector":"1"}},{"base_weights":[-1.6443395E-3,9.840168E-5,-3.3963684E-2,-1.6883807E-3,4.0937766E-2,-3.143049E-3,-1.2549662E-2,-2.9316984E-4,-7.138127E-2,6.3102834E-2,-2.7883973E-3,-3.1034179E-2,1.1674702E-2,-7.262933E-4,1.9456747E-4,-7.5968145E-4,-3.8726744E-3,6.331749E-4,4.230213E-3,-6.651804E-4,-1.9210012E-3,-6.106033E-5,8.906643E-4],"categories":[],"categories_nodes":[],"categories_segments":[],"categories_sizes":[],"default_left":[0,0,0,0,0,0,0,0,0,0,0,0,0,0,0,0,0,0,0,0,0,0,0],"id":27,"left_children":[1,3,5,7,9,-1,11,13,15,17,-1,19,21,-1,-1,-1,-1,-1,-1,-1,-1,-1,-1],"loss_changes":[2.036623E-2,2.5242206E-2,1.0264609E-2,3.2202438E-2,3.635925E-2,0E0,6.140668E-3,1.9530144E-2,4.524924E-4,1.1949386E-2,0E0,2.1547684E-4,5.471876E-4,0E0,0E0,0E0,0E0,0E0,0E0,0E0,0E0,0E0,0E0],"parents":[2147483647,0,0,1,1,2,2,3,3,4,4,6,6,7,7,8,8,9,9,11,11,12,12],"right_children":[2,4,6,8,10,-1,12,14,16,18,-1,20,22,-1,-1,-1,-1,-1,-1,-1,-1,-1,-1],"split_conditions":[8.401044E-3,3.6782783E-1,4.701247E-2,6.926268E-1,6.8051704E1,-3.143049E-3,2.0434587E-1,-3.438393E-3,2.4584334E-1,7.5378686E-1,-2.7883973E-3,7.9768375E-2,2.4213947E-1,-7.262933E-4,1.9456747E-4,-7.5968145E-4,-3.8726744E-3,6.331749E-4,4.230213E-3,-6.651804E-4,-1.9210012E-3,-6.106033E-5,8.906643E-4],"split_indices":[19,8,5,3,12,0,3,19,6,25,0,15,7,0,0,0,0,0,0,0,0,0,0],"split_type":[0,0,0,0,0,0,0,0,0,0,0,0,0,0,0,0,0,0,0,0,0,0,0],"sum_hessian":[3.6E2,3.43E2,1.7E1,3.3E2,1.3E1,6E0,1.1E1,3.25E2,5E0,1.1E1,2E0,6E0,5E0,7.3E1,2.52E2,1E0,4E0,4E0,7E0,3E0,3E0,2E0,3E0],"tree_param":{"num_deleted":"0","num_feature":"33","num_nodes":"23","size_leaf_vector":"1"}},{"base_weights":[3.3340245E-3,-9.05139E-3,1.0347766E-2,3.3517063E-3,-3.26051E-2,-2.4783819E-3,1.9301623E-2,1.0091595E-2,-3.829862E-2,-4.1171014E-2,2.8291367E-2,-8.42841E-3,3.8517214E-2,5.593925E-2,1.3028322E-2,-2.8582002E-4,9.697328E-4,8.284808E-5,-3.2633531E-3,1.8746927E-4,-2.312394E-3,2.5863466E-3,3.1662606E-5,1.0201791E-4,-1.370343E-3,3.999207E-3,6.396658E-4,3.7664117E-3,8.777205E-4,1.3200962E-3,-2.2362261E-5],"categories":[],"categories_nodes":[],"categories_segments":[],"categories_sizes":[],"default_left":[0,0,0,0,0,0,0,0,0,0,0,0,0,0,0,0,0,0,0,0,0,0,0,0,0,0,0,0,0,0,0],"id":28,"left_children":[1,3,5,7,9,11,13,15,17,19,21,23,25,27,29,-1,-1,-1,-1,-1,-1,-1,-1,-1,-1,-1,-1,-1,-1,-1,-1],"loss_changes":[3.1543307E-2,3.85802E-2,2.6658025E-2,2.5142618E-2,2.54815E-2,2.4025712E-2,3.0279808E-2,1.1416601E-2,1.3631465E-2,9.496324E-3,4.1640596E-3,1.7071106E-2,1.1798745E-2,1.252922E-2,2.1373415E-2,0E0,0E0,0E0,0E0,0E0,0E0,0E0,0E0,0E0,0E0,0E0,0E0,0E0,0E0,0E0,0E0],"parents":[2147483647,0,0,1,1,2,2,3,3,4,4,5,5,6,6,7,7,8,8,9,9,10,10,11,11,12,12,13,13,14,14],"right_children":[2,4,6,8,10,12,14,16,18,20,22,24,26,28,30,-1,-1,-1,-1,-1,-1,-1,-1,-1,-1,-1,-1,-1,-1,-1,-1],"split_conditions":[9.618E-2,4.2154565E-2,1.0608337E-2,1.7384655E0,2.3518126E-1,3.8501787E-1,4.721344E-3,3.5950002E-1,3.3435677E1,7.6858395E-1,2.6274368E-1,2.2027227E-1,2.466559E-1,6.933613E1,7.568997E-1,-2.8582002E-4,9.697328E-4,8.284808E-5,-3.2633531E-3,1.8746927E-4,-2.312394E-3,2.5863466E-3,3.1662606E-5,1.0201791E-4,-1.370343E-3,3.999207E-3,6.396658E-4,3.7664117E-3,8.777205E-4,1.3200962E-3,-2.2362261E-5],"split_indices":[26,2,14,25,2,3,18,29,11,9,2,6,6,10,25,0,0,0,0,0,0,0,0,0,0,0,0,0,0,0,0],"split_type":[0,0,0,0,0,0,0,0,0,0,0,0,0,0,0,0,0,0,0,0,0,0,0,0,0,0,0,0,0,0,0],"sum_hessian":[3.6E2,1.3E2,2.3E2,8.6E1,4.4E1,9.5E1,1.35E2,7.5E1,1.1E1,3.9E1,5E0,8.4E1,1.1E1,1.8E1,1.17E2,2.8E1,4.7E1,5E0,6E0,4E0,3.5E1,2E0,3E0,5.5E1,2.9E1,3E0,8E0,1.1E1,7E0,5.8E1,5.9E1],"tree_param":{"num_deleted":"0","num_feature":"33","num_nodes":"31","size_leaf_vector":"1"}},{"base_weights":[1.4552524E-3,-8.5085846E-4,4.1611556E-2,9.432207E-3,-8.367955E-3,-5.668997E-3,7.5241804E-2,2.6866967E-2,2.6051346E-3,-1.2983098E-2,1.6571356E-2,-3.688013E-2,2.7088229E-2,-6.1874925E-3,9.336179E-2,1.5732689E-3,-1.0204386E-3,-5.6081763E-6,4.0921518E-3,-3.0068198E-4,-1.6321347E-3,1.2440275E-3,-1.4747037E-3,-2.0232932E-3,-4.1488698E-4,2.046957E-4,1.5416719E-3,-8.708696E-4,4.3774513E-4,4.9327044E-3,9.6754654E-4],"categories":[],"categories_nodes":[],"categories_segments":[],"categories_sizes":[],"default_left":[0,0,0,0,0,0,0,0,0,0,0,0,0,0,0,0,0,0,0,0,0,0,0,0,0,0,0,0,0,0,0],"id":29,"left_children":[1,3,5,7,9,11,13,15,17,19,21,23,25,27,29,-1,-1,-1,-1,-1,-1,-1,-1,-1,-1,-1,-1,-1,-1,-1,-1],"loss_changes":[3.325196E-2,2.6438631E-2,3.164594E-2,1.7094608E-2,2.305467E-2,1.1211233E-2,1.783473E-2,9.767681E-3,2.272929E-2,2.2655852E-2,1.3157891E-2,6.0025603E-5,2.8430764E-4,8.1603695E-4,8.5745007E-4,0E0,0E0,0E0,0E0,0E0,0E0,0E0,0E0,0E0,0E0,0E0,0E0,0E0,0E0,0E0,0E0],"parents":[2147483647,0,0,1,1,2,2,3,3,4,4,5,5,6,6,7,7,8,8,9,9,10,10,11,11,12,12,13,13,14,14],"right_children":[2,4,6,8,10,12,14,16,18,20,22,24,26,28,30,-1,-1,-1,-1,-1,-1,-1,-1,-1,-1,-1,-1,-1,-1,-1,-1],"split_conditions":[3.563466E-1,8.0728866E-2,8.2356226E-1,1.7693783E-1,1.2970883E0,4.6872443E-1,-1.0825367E-1,2.1625741E-1,7.0769264E1,2.958716E-1,2.6709068E-1,6.9388494E-2,-4.8765812E-2,8.356345E-3,4.8608539E-1,1.5732689E-3,-1.0204386E-3,-5.6081763E-6,4.0921518E-3,-3.0068198E-4,-1.6321347E-3,1.2440275E-3,-1.4747037E-3,-2.0232932E-3,-4.1488698E-4,2.046957E-4,1.5416719E-3,-8.708696E-4,4.3774513E-4,4.9327044E-3,9.6754654E-4],"split_indices":[8,21,25,7,9,8,5,8,11,6,8,5,0,0,7,0,0,0,0,0,0,0,0,0,0,0,0,0,0,0,0],"split_type":[0,0,0,0,0,0,0,0,0,0,0,0,0,0,0,0,0,0,0,0,0,0,0,0,0,0,0,0,0,0,0],"sum_hessian":[3.57E2,3.39E2,1.8E1,1.43E2,1.96E2,8E0,1E1,3.9E1,1.04E2,1.66E2,3E1,4E0,4E0,2E0,8E0,3.6E1,3E0,1.02E2,2E0,1.24E2,4.2E1,2.6E1,4E0,3E0,1E0,1E0,3E0,1E0,1E0,7E0,1E0],"tree_param":{"num_deleted":"0","num_feature":"33","num_nodes":"31","size_leaf_vector":"1"}},{"base_weights":[2.6877157E-3,-1.6675334E-3,2.1942195E-2,-3.822363E-3,3.693322E-2,4.864013E-3,5.022421E-2,-7.782641E-4,-3.1342845E-2,-8.306365E-3,5.9662502E-2,4.1801833E-2,-5.51875E-3,7.651522E-2,2.4177112E-2,-2.3172608E-4,1.3126299E-3,7.0773787E-4,-1.8890299E-3,-1.2281316E-3,1.6220618E-3,2.7613025E-4,4.0106974E-3,-4.0426054E-5,2.6663148E-3,-1.4474414E-3,2.9084628E-4,1.7308173E-3,5.0378367E-3,2.0593167E-3,3.2286594E-6],"categories":[],"categories_nodes":[],"categories_segments":[],"categories_sizes":[],"default_left":[0,0,0,0,0,0,0,0,0,0,0,0,0,0,0,0,0,0,0,0,0,0,0,0,0,0,0,0,0,0,0],"id":30,"left_children":[1,3,5,7,9,11,13,15,17,19,21,23,25,27,29,-1,-1,-1,-1,-1,-1,-1,-1,-1,-1,-1,-1,-1,-1,-1,-1],"loss_changes":[2.9782563E-2,2.437498E-2,3.127042E-2,2.3127219E-2,1.668145E-2,1.6645499E-2,1.4002837E-2,2.6294112E-2,8.856975E-3,5.5008885E-3,1.1018369E-2,4.729757E-3,9.415644E-3,6.448716E-3,5.942976E-3,0E0,0E0,0E0,0E0,0E0,0E0,0E0,0E0,0E0,0E0,0E0,0E0,0E0,0E0,0E0,0E0],"parents":[2147483647,0,0,1,1,2,2,3,3,4,4,5,5,6,6,7,7,8,8,9,9,10,10,11,11,12,12,13,13,14,14],"right_children":[2,4,6,8,10,12,14,16,18,20,22,24,26,28,30,-1,-1,-1,-1,-1,-1,-1,-1,-1,-1,-1,-1,-1,-1,-1,-1],"split_conditions":[-5.021278E-2,3.6782783E-1,2.3080537E-1,3.1568184E-1,2.0434587E-1,1.1484492E-1,1.8502818E-2,1.2739692E0,3.35062E1,2.2210126E-1,-1.0825367E-1,5.8178827E-2,3.4109586E-1,3.2296756E-1,6.707726E-3,-2.3172608E-4,1.3126299E-3,7.0773787E-4,-1.8890299E-3,-1.2281316E-3,1.6220618E-3,2.7613025E-4,4.0106974E-3,-4.0426054E-5,2.6663148E-3,-1.4474414E-3,2.9084628E-4,1.7308173E-3,5.0378367E-3,2.0593167E-3,3.2286594E-6],"split_indices":[23,8,2,7,3,6,0,9,12,1,5,6,25,3,5,0,0,0,0,0,0,0,0,0,0,0,0,0,0,0,0],"split_type":[0,0,0,0,0,0,0,0,0,0,0,0,0,0,0,0,0,0,0,0,0,0,0,0,0,0,0,0,0,0,0],"sum_hessian":[3.53E2,2.89E2,6.4E1,2.75E2,1.4E1,4.1E1,2.3E1,2.49E2,2.6E1,5E0,9E0,8E0,3.3E1,1E1,1.3E1,2.19E2,3E1,3E0,2.3E1,4E0,1E0,3E0,6E0,2E0,6E0,1E1,2.3E1,5E0,5E0,7E0,6E0],"tree_param":{"num_deleted":"0","num_feature":"33","num_nodes":"31","size_leaf_vector":"1"}},{"base_weights":[1.0174173E-3,-1.2810147E-2,8.632497E-3,-2.3035724E-3,-2.9083904E-2,1.2217895E-2,-2.0769386E-2,-3.0416772E-3,1.2307352E-3,-3.643095E-2,1.2783786E-2,-5.5920463E-3,1.9971237E-2,-3.5164848E-2,-1.5783228E-3,-1.1531505E-3,5.304281E-4,-2.2089544E-3,8.3384896E-4,1.4474854E-3,-5.6179124E-4,-8.957875E-4,9.0294314E-4,-7.712736E-4,1.2141606E-3,-2.119435E-3,1.2471428E-3,1.4052173E-3,-1.0253115E-3],"categories":[],"categories_nodes":[],"categories_segments":[],"categories_sizes":[],"default_left":[0,0,0,0,0,0,0,0,0,0,0,0,0,0,0,0,0,0,0,0,0,0,0,0,0,0,0,0,0],"id":31,"left_children":[1,3,5,7,9,11,13,-1,15,17,19,21,23,25,27,-1,-1,-1,-1,-1,-1,-1,-1,-1,-1,-1,-1,-1,-1],"loss_changes":[3.749402E-2,2.1528652E-2,2.457394E-2,1.6351044E-2,1.5924979E-2,2.8544305E-2,6.9614863E-3,0E0,1.7567597E-2,1.8593382E-2,3.7884535E-3,1.8993448E-2,2.2464242E-2,7.881975E-3,7.887355E-3,0E0,0E0,0E0,0E0,0E0,0E0,0E0,0E0,0E0,0E0,0E0,0E0,0E0,0E0],"parents":[2147483647,0,0,1,1,2,2,3,3,4,4,5,5,6,6,8,8,9,9,10,10,11,11,12,12,13,13,14,14],"right_children":[2,4,6,8,10,12,14,-1,16,18,20,22,24,26,28,-1,-1,-1,-1,-1,-1,-1,-1,-1,-1,-1,-1,-1,-1],"split_conditions":[9.618E-2,5.3961803E1,7.5272446E1,1.716124E-1,9.628479E-1,4.629482E-1,1.8453121E-3,-3.0416772E-3,-4.696869E-3,1.2930194E0,4.4542164E-2,8.9863735E-1,1.25E0,3.9031003E-2,8.481775E-1,-1.1531505E-3,5.304281E-4,-2.2089544E-3,8.3384896E-4,1.4474854E-3,-5.6179124E-4,-8.957875E-4,9.0294314E-4,-7.712736E-4,1.2141606E-3,-2.119435E-3,1.2471428E-3,1.4052173E-3,-1.0253115E-3],"split_indices":[26,12,12,7,20,20,19,0,19,9,0,25,30,0,20,0,0,0,0,0,0,0,0,0,0,0,0,0,0],"split_type":[0,0,0,0,0,0,0,0,0,0,0,0,0,0,0,0,0,0,0,0,0,0,0,0,0,0,0,0,0],"sum_hessian":[3.53E2,1.25E2,2.28E2,7.7E1,4.8E1,2.04E2,2.4E1,3E0,7.4E1,4.1E1,7E0,6.2E1,1.42E2,1.3E1,1.1E1,2E1,5.4E1,3.6E1,5E0,4E0,3E0,4.1E1,2.1E1,1.5E1,1.27E2,1.2E1,1E0,4E0,7E0],"tree_param":{"num_deleted":"0","num_feature":"33","num_nodes":"29","size_leaf_vector":"1"}},{"base_weights":[1.3773663E-3,-8.969612E-3,7.567534E-3,6.1181583E-3,-2.009248E-2,9.203569E-3,-4.26998E-2,2.5068838E-2,-1.1920644E-2,-2.3787012E-2,2.6889276E-2,7.407098E-3,4.708139E-3,7.749149E-3,-3.1579142E-3,1.8967845E-3,-4.0045596E-4,2.6644772E-4,-1.9389754E-3,-5.082962E-4,-1.8063771E-3,5.363822E-5,2.4278979E-3,5.601589E-4,-6.0948567E-4,-7.292498E-5,6.1536545E-4],"categories":[],"categories_nodes":[],"categories_segments":[],"categories_sizes":[],"default_left":[0,0,0,0,0,0,0,0,0,0,0,0,0,0,0,0,0,0,0,0,0,0,0,0,0,0,0],"id":32,"left_children":[1,3,5,7,9,11,13,15,17,19,21,23,-1,25,-1,-1,-1,-1,-1,-1,-1,-1,-1,-1,-1,-1,-1],"loss_changes":[2.3511924E-2,2.3259543E-2,1.9463357E-2,2.0788183E-2,1.47586875E-2,3.306587E-2,8.474951E-3,1.3011221E-2,1.4904077E-2,1.197191E-2,3.5580266E-3,1.6608078E-2,0E0,1.7382008E-4,0E0,0E0,0E0,0E0,0E0,0E0,0E0,0E0,0E0,0E0,0E0,0E0,0E0],"parents":[2147483647,0,0,1,1,2,2,3,3,4,4,5,5,6,6,7,7,8,8,9,9,10,10,11,11,13,13],"right_children":[2,4,6,8,10,12,14,16,18,20,22,24,-1,26,-1,-1,-1,-1,-1,-1,-1,-1,-1,-1,-1,-1,-1],"split_conditions":[9.618E-2,-1.6680606E-2,1.1888928E0,-4.5034114E-2,2.2126438E-1,9.495156E-2,6.926268E-1,7.5219996E-2,4.773245E1,4.2154565E-2,1.06212154E-1,1.04225E0,4.708139E-3,4.6353135E-2,-3.1579142E-3,1.8967845E-3,-4.0045596E-4,2.6644772E-4,-1.9389754E-3,-5.082962E-4,-1.8063771E-3,5.363822E-5,2.4278979E-3,5.601589E-4,-6.0948567E-4,-7.292498E-5,6.1536545E-4],"split_indices":[26,2,4,3,2,0,3,26,11,2,1,27,0,0,0,0,0,0,0,0,0,0,0,0,0,0,0],"split_type":[0,0,0,0,0,0,0,0,0,0,0,0,0,0,0,0,0,0,0,0,0,0,0,0,0,0,0],"sum_hessian":[3.64E2,1.36E2,2.28E2,5.8E1,7.8E1,2.22E2,6E0,2.8E1,3E1,7.3E1,5E0,2.19E2,3E0,2E0,4E0,2E1,8E0,1.9E1,1.1E1,3.6E1,3.7E1,3E0,2E0,1.84E2,3.5E1,1E0,1E0],"tree_param":{"num_deleted":"0","num_feature":"33","num_nodes":"27","size_leaf_vector":"1"}},{"base_weights":[1.3338162E-4,-5.5830013E-3,1.6167989E-2,-9.603155E-3,2.885629E-2,-2.1923073E-2,2.1712607E-2,-1.1474188E-2,7.1089E-2,-5.38941E-3,5.2176703E-2,-1.9334209E-3,-3.0258275E-3,3.327547E-2,-3.613621E-4,-2.0843516E-4,-1.3146311E-3,-3.7237228E-4,4.5512016E-3,1.0130022E-3,-1.3270528E-3,3.205311E-3,-5.0203624E-5,5.0455955E-4,-5.2738976E-4,2.6065505E-3,7.6423207E-4,2.7669687E-4,-1.379778E-3],"categories":[],"categories_nodes":[],"categories_segments":[],"categories_sizes":[],"default_left":[0,0,0,0,0,0,0,0,0,0,0,0,0,0,0,0,0,0,0,0,0,0,0,0,0,0,0,0,0],"id":33,"left_children":[1,3,5,7,9,11,13,15,17,19,21,-1,23,25,27,-1,-1,-1,-1,-1,-1,-1,-1,-1,-1,-1,-1,-1,-1],"loss_changes":[3.2262214E-2,3.634377E-2,2.0250045E-2,3.6476824E-2,2.2383958E-2,3.7800046E-3,2.0819955E-2,2.4680305E-2,9.627791E-3,7.588186E-3,1.0564495E-2,0E0,8.996532E-4,1.695342E-2,4.9654036E-3,0E0,0E0,0E0,0E0,0E0,0E0,0E0,0E0,0E0,0E0,0E0,0E0,0E0,0E0],"parents":[2147483647,0,0,1,1,2,2,3,3,4,4,5,5,6,6,7,7,8,8,9,9,10,10,12,12,13,13,14,14],"right_children":[2,4,6,8,10,12,14,16,18,20,22,-1,24,26,28,-1,-1,-1,-1,-1,-1,-1,-1,-1,-1,-1,-1,-1,-1],"split_conditions":[1.3793999E-1,-6.479608E-2,-1.2881314E-2,8.963248E-2,3.4109586E-1,-3.8020862E-3,8.053912E-2,5.8496403E1,5.5660336E1,4.6828385E-2,-3.4615386E-2,-1.9334209E-3,2.9878503E-1,-8.30945E-2,1.6068287E-1,-2.0843516E-4,-1.3146311E-3,-3.7237228E-4,4.5512016E-3,1.0130022E-3,-1.3270528E-3,3.205311E-3,-5.0203624E-5,5.0455955E-4,-5.2738976E-4,2.6065505E-3,7.6423207E-4,2.7669687E-4,-1.379778E-3],"split_indices":[26,24,1,0,25,19,15,12,12,15,23,0,4,24,15,0,0,0,0,0,0,0,0,0,0,0,0,0,0],"split_type":[0,0,0,0,0,0,0,0,0,0,0,0,0,0,0,0,0,0,0,0,0,0,0,0,0,0,0,0,0],"sum_hessian":[3.49E2,2.58E2,9.1E1,2.32E2,2.6E1,1.1E1,8E1,2.28E2,4E0,1.1E1,1.5E1,5E0,6E0,5.2E1,2.8E1,1.54E2,7.4E1,1E0,3E0,5E0,6E0,1.2E1,3E0,2E0,4E0,2.4E1,2.8E1,2.4E1,4E0],"tree_param":{"num_deleted":"0","num_feature":"33","num_nodes":"29","size_leaf_vector":"1"}},{"base_weights":[5.7013606E-4,-1.27238305E-2,4.1202796E-3,5.9504E-3,-2.8078284E-2,2.601317E-2,9.946465E-5,-2.670301E-3,3.1198065E-3,7.751082E-3,-3.9032087E-2,7.602094E-3,5.3217642E-2,-3.386738E-2,2.3948962E-3,2.3745443E-3,-5.3664215E-4,7.674301E-4,-3.7475728E-4,-1.0284177E-3,-3.3427277E-3,1.4281044E-3,-5.0184055E-4,3.257984E-3,-9.532038E-4,-3.1601035E-3,-1.0036172E-4,2.528036E-4,-1.6130231E-3],"categories":[],"categories_nodes":[],"categories_segments":[],"categories_sizes":[],"default_left":[0,0,0,0,0,0,0,0,0,0,0,0,0,0,0,0,0,0,0,0,0,0,0,0,0,0,0,0,0],"id":34,"left_children":[1,3,5,7,9,11,13,15,-1,17,19,21,23,25,27,-1,-1,-1,-1,-1,-1,-1,-1,-1,-1,-1,-1,-1,-1],"loss_changes":[1.6007116E-2,2.0751998E-2,2.354341E-2,1.6551083E-2,1.5956286E-2,2.017899E-2,1.7859513E-2,1.3099581E-2,0E0,1.3888121E-3,1.360542E-2,1.0227358E-2,1.6105961E-2,1.3361517E-2,2.0026715E-2,0E0,0E0,0E0,0E0,0E0,0E0,0E0,0E0,0E0,0E0,0E0,0E0,0E0,0E0],"parents":[2147483647,0,0,1,1,2,2,3,3,4,4,5,5,6,6,7,7,9,9,10,10,11,11,12,12,13,13,14,14],"right_children":[2,4,6,8,10,12,14,16,-1,18,20,22,24,26,28,-1,-1,-1,-1,-1,-1,-1,-1,-1,-1,-1,-1,-1,-1],"split_conditions":[-3.438393E-3,2.5E0,-1.5661364E-2,5.168552E-3,3.993559E1,9.5344853E-1,1.13E0,-6.2795945E-2,3.1198065E-3,2.9E-1,1.0905843E0,-2.1668088E-3,1.2354091E0,4.2369656E-4,7.5272446E1,2.3745443E-3,-5.3664215E-4,7.674301E-4,-3.7475728E-4,-1.0284177E-3,-3.3427277E-3,1.4281044E-3,-5.0184055E-4,3.257984E-3,-9.532038E-4,-3.1601035E-3,-1.0036172E-4,2.528036E-4,-1.6130231E-3],"split_indices":[19,30,0,0,12,25,30,0,0,28,9,19,9,19,12,0,0,0,0,0,0,0,0,0,0,0,0,0,0],"split_type":[0,0,0,0,0,0,0,0,0,0,0,0,0,0,0,0,0,0,0,0,0,0,0,0,0,0,0,0,0],"sum_hessian":[3.36E2,7E1,2.66E2,3.2E1,3.8E1,4E1,2.26E2,2.9E1,3E0,9E0,2.9E1,2.5E1,1.5E1,1.3E1,2.13E2,3E0,2.6E1,6E0,3E0,1.9E1,1E1,1.1E1,1.4E1,1.3E1,2E0,6E0,7E0,1.99E2,1.4E1],"tree_param":{"num_deleted":"0","num_feature":"33","num_nodes":"29","size_leaf_vector":"1"}},{"base_weights":[-3.0509717E-4,1.4770132E-3,-3.2888163E-2,-4.5851124E-3,1.3880422E-2,-3.6837023E-3,-5.997391E-2,-1.9550612E-2,2.2092788E-3,2.4479095E-2,-7.1694916E-3,-2.461592E-2,2.2059018E-2,-3.3383244E-3,-4.4739954E-5,-5.4996746E-4,-2.929633E-3,-4.341946E-5,1.9130324E-3,-6.080227E-4,1.590287E-3,-1.2618806E-3,5.270927E-4,-1.7902589E-3,1.5997475E-5,1.3395328E-4,1.2736326E-3],"categories":[],"categories_nodes":[],"categories_segments":[],"categories_sizes":[],"default_left":[0,0,0,0,0,0,0,0,0,0,0,0,0,0,0,0,0,0,0,0,0,0,0,0,0,0,0],"id":35,"left_children":[1,3,5,7,9,11,13,15,17,19,21,23,25,-1,-1,-1,-1,-1,-1,-1,-1,-1,-1,-1,-1,-1,-1],"loss_changes":[2.0715548E-2,2.5547627E-2,1.4302565E-2,2.3299005E-2,2.5139034E-2,6.4724525E-3,3.7227347E-3,2.2904186E-2,1.7636066E-2,2.05793E-2,1.2719491E-2,1.8307739E-3,2.6149396E-4,0E0,0E0,0E0,0E0,0E0,0E0,0E0,0E0,0E0,0E0,0E0,0E0,0E0,0E0],"parents":[2147483647,0,0,1,1,2,2,3,3,4,4,5,5,6,6,7,7,8,8,9,9,10,10,11,11,12,12],"right_children":[2,4,6,8,10,12,14,16,18,20,22,24,26,-1,-1,-1,-1,-1,-1,-1,-1,-1,-1,-1,-1,-1,-1],"split_conditions":[5.9911096E-1,4.3218398E-1,8.0359495E-1,6.3145196E-1,2.642574E-1,6.6330385E-1,1.3708602E0,2.958716E-1,3.4806207E-1,1.733834E-1,3.0886582E-1,2.253504E-1,-3.6392916E-2,-3.3383244E-3,-4.4739954E-5,-5.4996746E-4,-2.929633E-3,-4.341946E-5,1.9130324E-3,-6.080227E-4,1.590287E-3,-1.2618806E-3,5.270927E-4,-1.7902589E-3,1.5997475E-5,1.3395328E-4,1.2736326E-3],"split_indices":[3,4,25,25,6,25,4,6,8,7,6,21,0,0,0,0,0,0,0,0,0,0,0,0,0,0,0],"split_type":[0,0,0,0,0,0,0,0,0,0,0,0,0,0,0,0,0,0,0,0,0,0,0,0,0,0,0],"sum_hessian":[3.54E2,3.37E2,1.7E1,2.27E2,1.1E2,9E0,8E0,7E1,1.57E2,7.3E1,3.7E1,5E0,4E0,7E0,1E0,5.9E1,1.1E1,1.46E2,1.1E1,1.2E1,6.1E1,1.8E1,1.9E1,3E0,2E0,1E0,3E0],"tree_param":{"num_deleted":"0","num_feature":"33","num_nodes":"27","size_leaf_vector":"1"}},{"base_weights":[-8.2512175E-5,-3.8758852E-3,1.7551066E-2,8.6070504E-4,-2.1533938E-2,6.1965402E-2,8.342147E-3,-8.751223E-3,1.0379045E-2,-3.6306065E-2,-1.2898846E-3,3.6471274E-3,8.750022E-3,1.4183571E-2,-3.7168972E-2,5.378817E-4,-1.0716285E-3,-3.1554082E-4,9.957579E-4,-1.1147661E-3,-2.6113417E-3,-5.6600425E-4,2.6874472E-3,-1.5771762E-5,6.2827335E-4,-7.2336016E-4,1.1094494E-3,-2.7723284E-3,1.130177E-4],"categories":[],"categories_nodes":[],"categories_segments":[],"categories_sizes":[],"default_left":[0,0,0,0,0,0,0,0,0,0,0,0,0,0,0,0,0,0,0,0,0,0,0,0,0,0,0,0,0],"id":36,"left_children":[1,3,5,7,9,11,13,15,17,19,21,-1,23,25,27,-1,-1,-1,-1,-1,-1,-1,-1,-1,-1,-1,-1,-1,-1],"loss_changes":[2.361413E-2,2.4324918E-2,2.4787618E-2,2.1224597E-2,1.832119E-2,5.176235E-3,1.5013743E-2,2.8920382E-2,1.8730242E-2,6.172072E-3,1.609405E-2,0E0,1.2700603E-4,1.1605545E-2,4.8723705E-3,0E0,0E0,0E0,0E0,0E0,0E0,0E0,0E0,0E0,0E0,0E0,0E0,0E0,0E0],"parents":[2147483647,0,0,1,1,2,2,3,3,4,4,5,5,6,6,7,7,8,8,9,9,10,10,12,12,13,13,14,14],"right_children":[2,4,6,8,10,12,14,16,18,20,22,-1,24,26,28,-1,-1,-1,-1,-1,-1,-1,-1,-1,-1,-1,-1,-1,-1],"split_conditions":[-5.021278E-2,6.418388E1,1.3859999E-1,5.0785347E1,1.1176053E0,1.7702553E-2,4.2271525E-1,4.0604385E1,9.618E-2,1.053239E0,1.9881888E-1,3.6471274E-3,6.2219538E-2,7.8145E-1,3.0748898E-2,5.378817E-4,-1.0716285E-3,-3.1554082E-4,9.957579E-4,-1.1147661E-3,-2.6113417E-3,-5.6600425E-4,2.6874472E-3,-1.5771762E-5,6.2827335E-4,-7.2336016E-4,1.1094494E-3,-2.7723284E-3,1.130177E-4],"split_indices":[23,12,29,12,9,0,16,12,26,25,1,0,0,27,0,0,0,0,0,0,0,0,0,0,0,0,0,0,0],"split_type":[0,0,0,0,0,0,0,0,0,0,0,0,0,0,0,0,0,0,0,0,0,0,0,0,0,0,0,0,0],"sum_hessian":[3.5E2,2.89E2,6.1E1,2.29E2,6E1,9E0,5.2E1,1.14E2,1.15E2,3.4E1,2.6E1,7E0,2E0,4.7E1,5E0,4.5E1,6.9E1,4.2E1,7.3E1,2E1,1.4E1,2.3E1,3E0,1E0,1E0,1E1,3.7E1,3E0,2E0],"tree_param":{"num_deleted":"0","num_feature":"33","num_nodes":"29","size_leaf_vector":"1"}},{"base_weights":[-3.62296E-5,2.7321998E-2,-2.0580161E-3,4.7963288E-2,8.124907E-3,-1.9094632E-4,-2.651636E-2,7.294212E-3,3.409731E-3,-1.6118128E-2,4.1682053E-2,2.0570585E-3,-2.431438E-2,-5.361337E-2,-1.0146716E-2,-2.4909115E-5,4.5959582E-4,5.916024E-5,-1.2188203E-3,3.0417417E-3,-4.033412E-5,-2.9398227E-4,7.3172443E-4,-2.7454302E-3,-4.5540486E-4,-3.0227227E-3,-4.61055E-5,5.79796E-4,-8.1334246E-4],"categories":[],"categories_nodes":[],"categories_segments":[],"categories_sizes":[],"default_left":[0,0,0,0,0,0,0,0,0,0,0,0,0,0,0,0,0,0,0,0,0,0,0,0,0,0,0,0,0],"id":37,"left_children":[1,3,5,7,9,11,13,15,-1,17,19,21,23,25,27,-1,-1,-1,-1,-1,-1,-1,-1,-1,-1,-1,-1,-1,-1],"loss_changes":[1.9692624E-2,9.123646E-3,1.5130496E-2,8.715937E-3,1.2803897E-2,1.6859084E-2,9.607859E-3,8.820099E-5,0E0,1.4006158E-3,5.3631645E-3,2.8528808E-2,1.1578277E-2,2.9803347E-3,2.4785623E-3,0E0,0E0,0E0,0E0,0E0,0E0,0E0,0E0,0E0,0E0,0E0,0E0,0E0,0E0],"parents":[2147483647,0,0,1,1,2,2,3,3,4,4,5,5,6,6,7,7,9,9,10,10,11,11,12,12,13,13,14,14],"right_children":[2,4,6,8,10,12,14,16,-1,18,20,22,24,26,28,-1,-1,-1,-1,-1,-1,-1,-1,-1,-1,-1,-1,-1,-1],"split_conditions":[-1.6940473E-1,3.2398647E-1,2.2900712E0,2.6662436E-1,3.5047352E-1,6.675463E-3,2.6080034E0,-6.018482E-2,3.409731E-3,4.4378986E1,1.3717347E-3,7.138376E-1,6.941794E1,1.1333932E-2,2.7705513E1,-2.4909115E-5,4.5959582E-4,5.916024E-5,-1.2188203E-3,3.0417417E-3,-4.033412E-5,-2.9398227E-4,7.3172443E-4,-2.7454302E-3,-4.5540486E-4,-3.0227227E-3,-4.61055E-5,5.79796E-4,-8.1334246E-4],"split_indices":[23,7,25,7,8,19,25,0,0,12,0,20,11,0,10,0,0,0,0,0,0,0,0,0,0,0,0,0,0],"split_type":[0,0,0,0,0,0,0,0,0,0,0,0,0,0,0,0,0,0,0,0,0,0,0,0,0,0,0,0,0],"sum_hessian":[3.53E2,2.3E1,3.3E2,1E1,1.3E1,3.08E2,2.2E1,4E0,6E0,8E0,5E0,2.83E2,2.5E1,7E0,1.5E1,1E0,3E0,3E0,5E0,3E0,2E0,1.74E2,1.09E2,7E0,1.8E1,6E0,1E0,3E0,1.2E1],"tree_param":{"num_deleted":"0","num_feature":"33","num_nodes":"29","size_leaf_vector":"1"}},{"base_weights":[-2.613288E-4,4.328916E-2,-1.4542224E-3,-1.1092592E-3,2.745353E-3,-1.3717578E-2,2.4254431E-3,2.1586623E-2,-2.0095624E-2,4.8944123E-2,-8.651609E-4,3.9125458E-4,2.877584E-3,-1.1881659E-3,2.1216671E-3,3.0412592E-3,-1.2324023E-3,-1.18738986E-4,2.7943566E-3],"categories":[],"categories_nodes":[],"categories_segments":[],"categories_sizes":[],"default_left":[0,0,0,0,0,0,0,0,0,0,0,0,0,0,0,0,0,0,0],"id":38,"left_children":[1,3,5,-1,-1,7,9,11,13,15,17,-1,-1,-1,-1,-1,-1,-1,-1],"loss_changes":[1.8511092E-2,9.053588E-3,1.6535586E-2,0E0,0E0,1.9452544E-2,4.0551737E-2,6.0060923E-3,1.7910134E-2,1.755001E-2,2.1489145E-2,0E0,0E0,0E0,0E0,0E0,0E0,0E0,0E0],"parents":[2147483647,0,0,1,1,2,2,5,5,6,6,7,7,8,8,9,9,10,10],"right_children":[2,4,6,-1,-1,8,10,12,14,16,18,-1,-1,-1,-1,-1,-1,-1,-1],"split_conditions":[-1.0432431E-1,-1.2251733E-1,-3.1915205E-3,-1.1092592E-3,2.745353E-3,4.033817E1,-2.5657846E-2,1.06929995E-1,1.3728433E-2,2.7217627E-2,4.663E-1,3.9125458E-4,2.877584E-3,-1.1881659E-3,2.1216671E-3,3.0412592E-3,-1.2324023E-3,-1.18738986E-4,2.7943566E-3],"split_indices":[16,1,19,0,0,12,0,26,0,5,7,0,0,0,0,0,0,0,0],"split_type":[0,0,0,0,0,0,0,0,0,0,0,0,0,0,0,0,0,0,0],"sum_hessian":[3.53E2,8E0,3.45E2,1E0,7E0,8.2E1,2.63E2,1.2E1,7E1,1.6E1,2.47E2,1E1,2E0,6.7E1,3E0,1.4E1,2E0,2.42E2,5E0],"tree_param":{"num_deleted":"0","num_feature":"33","num_nodes":"19","size_leaf_vector":"1"}},{"base_weights":[1.118596E-3,-1.8880491E-3,3.070226E-2,7.8031356E-3,-8.659085E-3,4.267922E-2,-2.5212023E-2,9.665261E-3,-4.6730526E-2,-4.1407673E-3,-4.4282243E-2,3.134343E-2,4.382541E-3,-1.9488785E-3,1.6458447E-4,2.2550525E-4,3.0090136E-3,-4.7667278E-4,-2.6636247E-3,-1.9477009E-3,-8.750451E-5,4.0524264E-4,-2.6978794E-3,-5.938236E-4,1.702804E-3],"categories":[],"categories_nodes":[],"categories_segments":[],"categories_sizes":[],"default_left":[0,0,0,0,0,0,0,0,0,0,0,0,0,0,0,0,0,0,0,0,0,0,0,0,0],"id":39,"left_children":[1,3,5,7,9,11,13,15,17,19,21,23,-1,-1,-1,-1,-1,-1,-1,-1,-1,-1,-1,-1,-1],"loss_changes":[3.0373601E-2,2.0476164E-2,2.2709062E-2,1.372648E-2,2.9260524E-2,9.388484E-3,2.7428525E-3,3.2274675E-2,3.332328E-4,1.358862E-2,1.1046674E-2,3.361851E-3,0E0,0E0,0E0,0E0,0E0,0E0,0E0,0E0,0E0,0E0,0E0,0E0,0E0],"parents":[2147483647,0,0,1,1,2,2,3,3,4,4,5,5,6,6,7,7,8,8,9,9,10,10,11,11],"right_children":[2,4,6,8,10,12,14,16,18,20,22,24,-1,-1,-1,-1,-1,-1,-1,-1,-1,-1,-1,-1,-1],"split_conditions":[-4.08657E-2,2.05E0,8.0837265E1,5.371825E-1,3.6495763E-1,4.0550277E-1,8.612857E-1,4.107921E-1,-3.0973451E-2,-8.179388E-2,2.3584099E-1,1.13471545E-1,4.382541E-3,-1.9488785E-3,1.6458447E-4,2.2550525E-4,3.0090136E-3,-4.7667278E-4,-2.6636247E-3,-1.9477009E-3,-8.750451E-5,4.0524264E-4,-2.6978794E-3,-5.938236E-4,1.702804E-3],"split_indices":[23,30,11,2,3,3,20,8,0,5,6,8,0,0,0,0,0,0,0,0,0,0,0,0,0],"split_type":[0,0,0,0,0,0,0,0,0,0,0,0,0,0,0,0,0,0,0,0,0,0,0,0,0],"sum_hessian":[3.39E2,3.09E2,3E1,1.27E2,1.82E2,2.5E1,5E0,1.24E2,3E0,1.63E2,1.9E1,2.2E1,3E0,3E0,2E0,1.14E2,1E1,1E0,2E0,9E0,1.54E2,3E0,1.6E1,1E0,2.1E1],"tree_param":{"num_deleted":"0","num_feature":"33","num_nodes":"25","size_leaf_vector":"1"}},{"base_weights":[-2.2086098E-3,-6.35612E-3,1.5055701E-2,-4.478742E-3,-4.410137E-2,1.8767225E-2,-3.325128E-2,-6.9420664E-3,3.257349E-2,-1.0595573E-2,-6.878689E-2,2.6965262E-3,3.496071E-2,-2.5418655E-3,9.177168E-4,-1.7601295E-4,-1.3574802E-3,2.2957146E-3,-2.0233633E-3,2.500129E-4,-1.1329773E-3,-6.329935E-4,-3.7250153E-3,1.6823255E-3,-8.026616E-4,2.6882547E-3,7.1171165E-4],"categories":[],"categories_nodes":[],"categories_segments":[],"categories_sizes":[],"default_left":[0,0,0,0,0,0,0,0,0,0,0,0,0,0,0,0,0,0,0,0,0,0,0,0,0,0,0],"id":40,"left_children":[1,3,5,7,9,11,13,15,17,19,21,23,25,-1,-1,-1,-1,-1,-1,-1,-1,-1,-1,-1,-1,-1,-1],"loss_changes":[2.5670337E-2,2.0147435E-2,1.3396883E-2,2.5575805E-2,1.0072706E-2,1.6904354E-2,6.3910848E-3,1.7869253E-2,1.9839425E-2,1.5810629E-3,9.903312E-4,2.0830713E-2,1.151887E-2,0E0,0E0,0E0,0E0,0E0,0E0,0E0,0E0,0E0,0E0,0E0,0E0,0E0,0E0],"parents":[2147483647,0,0,1,1,2,2,3,3,4,4,5,5,6,6,7,7,8,8,9,9,10,10,11,11,12,12],"right_children":[2,4,6,8,10,12,14,16,18,20,22,24,26,-1,-1,-1,-1,-1,-1,-1,-1,-1,-1,-1,-1,-1,-1],"split_conditions":[-5.021278E-2,8.638925E-1,6.926268E-1,3.5047352E-1,5.758294E-1,2.0900726E-1,2.2210126E-1,2.5871685E-1,1.3145659E0,2.8849706E-1,2.1251723E-1,1.3537027E-1,-9.24739E-6,-2.5418655E-3,9.177168E-4,-1.7601295E-4,-1.3574802E-3,2.2957146E-3,-2.0233633E-3,2.500129E-4,-1.1329773E-3,-6.329935E-4,-3.7250153E-3,1.6823255E-3,-8.026616E-4,2.6882547E-3,7.1171165E-4],"split_indices":[23,4,3,8,3,16,1,8,9,7,2,7,19,0,0,0,0,0,0,0,0,0,0,0,0,0,0],"split_type":[0,0,0,0,0,0,0,0,0,0,0,0,0,0,0,0,0,0,0,0,0,0,0,0,0,0,0],"sum_hessian":[3.55E2,2.87E2,6.8E1,2.75E2,1.2E1,6.4E1,4E0,2.59E2,1.6E1,6E0,6E0,3.3E1,3.1E1,3E0,1E0,2.23E2,3.6E1,1.4E1,2E0,3E0,3E0,1E0,5E0,1.2E1,2.1E1,1.5E1,1.6E1],"tree_param":{"num_deleted":"0","num_feature":"33","num_nodes":"27","size_leaf_vector":"1"}},{"base_weights":[8.980051E-4,-3.4217255E-3,2.0332519E-2,3.0408173E-3,-9.939731E-3,2.385318E-2,-3.299595E-2,7.2560427E-3,-2.9807819E-2,-1.4894548E-2,2.6162231E-2,1.2979915E-2,5.34631E-2,8.993624E-4,-2.76357E-3,5.1738316E-4,-1.8926349E-3,3.8950227E-4,-2.6202588E-3,-8.258595E-5,-1.2669418E-3,2.1128345E-3,-1.0238747E-3,9.957588E-4,-5.060983E-4,6.607915E-4,3.5370246E-3],"categories":[],"categories_nodes":[],"categories_segments":[],"categories_sizes":[],"default_left":[0,0,0,0,0,0,0,0,0,0,0,0,0,0,0,0,0,0,0,0,0,0,0,0,0,0,0],"id":41,"left_children":[1,3,5,7,9,11,13,15,17,19,21,23,25,-1,-1,-1,-1,-1,-1,-1,-1,-1,-1,-1,-1,-1,-1],"loss_changes":[2.885787E-2,1.190293E-2,1.29150525E-2,2.0055607E-2,2.571696E-2,1.811549E-2,6.601802E-3,1.8368565E-2,1.4630962E-2,1.7157052E-2,1.4434185E-2,7.592271E-3,9.375863E-3,0E0,0E0,0E0,0E0,0E0,0E0,0E0,0E0,0E0,0E0,0E0,0E0,0E0,0E0],"parents":[2147483647,0,0,1,1,2,2,3,3,4,4,5,5,6,6,7,7,8,8,9,9,10,10,11,11,12,12],"right_children":[2,4,6,8,10,12,14,16,18,20,22,24,26,-1,-1,-1,-1,-1,-1,-1,-1,-1,-1,-1,-1,-1,-1],"split_conditions":[-5.021278E-2,5.21069E-2,6.926268E-1,3.1572056E-1,3.9860672E-1,3.3469677E-1,1.0689308E-2,4.2991064E-2,8.5297257E-1,7.280541E-1,2.697009E-1,2.1231149E-1,4.028563E-1,8.993624E-4,-2.76357E-3,5.1738316E-4,-1.8926349E-3,3.8950227E-4,-2.6202588E-3,-8.258595E-5,-1.2669418E-3,2.1128345E-3,-1.0238747E-3,9.957588E-4,-5.060983E-4,6.607915E-4,3.5370246E-3],"split_indices":[23,2,3,8,6,3,0,14,9,25,21,7,25,0,0,0,0,0,0,0,0,0,0,0,0,0,0],"split_type":[0,0,0,0,0,0,0,0,0,0,0,0,0,0,0,0,0,0,0,0,0,0,0,0,0,0,0],"sum_hessian":[3.41E2,2.8E2,6.1E1,1.41E2,1.39E2,5.8E1,3E0,1.26E2,1.5E1,1.23E2,1.6E1,4.4E1,1.4E1,1E0,2E0,1.19E2,7E0,6E0,9E0,5.5E1,6.8E1,1.2E1,4E0,3.4E1,1E1,5E0,9E0],"tree_param":{"num_deleted":"0","num_feature":"33","num_nodes":"27","size_leaf_vector":"1"}},{"base_weights":[-1.0926257E-4,-4.4345907E-3,1.2632157E-2,1.326501E-3,-1.8228266E-2,2.857924E-2,-7.6141823E-3,2.1996768E-2,-7.243901E-3,1.967819E-3,-2.7014893E-2,-1.1396992E-2,3.8624007E-2,-2.223823E-3,-7.367557E-4,4.7069366E-4,2.5822476E-3,-2.2591315E-3,-1.1773948E-4,-8.613393E-4,7.0018374E-4,-1.7820379E-3,5.318607E-4,5.309105E-4,-1.0520433E-3,7.2989805E-4,2.3827523E-3,1.0637498E-3,-5.123661E-4],"categories":[],"categories_nodes":[],"categories_segments":[],"categories_sizes":[],"default_left":[0,0,0,0,0,0,0,0,0,0,0,0,0,0,0,0,0,0,0,0,0,0,0,0,0,0,0,0,0],"id":42,"left_children":[1,3,5,7,9,11,13,15,17,19,21,23,25,-1,27,-1,-1,-1,-1,-1,-1,-1,-1,-1,-1,-1,-1,-1,-1],"loss_changes":[1.9896368E-2,2.1452527E-2,2.9869024E-2,3.4163717E-2,1.4187448E-2,2.1340221E-2,1.0471828E-2,2.0348618E-2,2.5159335E-2,6.252957E-3,1.8594079E-2,2.77671E-3,7.961176E-3,0E0,7.968081E-3,0E0,0E0,0E0,0E0,0E0,0E0,0E0,0E0,0E0,0E0,0E0,0E0,0E0,0E0],"parents":[2147483647,0,0,1,1,2,2,3,3,4,4,5,5,6,6,7,7,8,8,9,9,10,10,11,11,12,12,14,14],"right_children":[2,4,6,8,10,12,14,16,18,20,22,24,26,-1,28,-1,-1,-1,-1,-1,-1,-1,-1,-1,-1,-1,-1,-1,-1],"split_conditions":[1.3793999E-1,1.152E0,3.1455877E-1,-1.0769231E-1,-8.827002E-3,-8.0579175E-3,2.1059775E-1,1.19048E0,-7.185631E-2,-2.0737173E1,3.090148E-1,-1.3498705E1,-1.09E-1,-2.223823E-3,1.8954595E0,4.7069366E-4,2.5822476E-3,-2.2591315E-3,-1.1773948E-4,-8.613393E-4,7.0018374E-4,-1.7820379E-3,5.318607E-4,5.309105E-4,-1.0520433E-3,7.2989805E-4,2.3827523E-3,1.0637498E-3,-5.123661E-4],"split_indices":[26,28,3,23,18,1,8,25,22,13,16,13,28,0,13,0,0,0,0,0,0,0,0,0,0,0,0,0,0],"split_type":[0,0,0,0,0,0,0,0,0,0,0,0,0,0,0,0,0,0,0,0,0,0,0,0,0,0,0,0,0],"sum_hessian":[3.58E2,2.68E2,9E1,1.9E2,7.8E1,5E1,4E1,5.5E1,1.35E2,2.4E1,5.4E1,1E1,4E1,5E0,3.5E1,4E1,1.5E1,1.4E1,1.21E2,9E0,1.5E1,4.4E1,1E1,3E0,7E0,1.2E1,2.8E1,1E1,2.5E1],"tree_param":{"num_deleted":"0","num_feature":"33","num_nodes":"29","size_leaf_vector":"1"}}]},"name":"gbtree"},"learner_model_param":{"base_score":"[1.649842E-2]","boost_from_average":"1","num_class":"0","num_feature":"33","num_target":"1"},"objective":{"name":"reg:squarederror","reg_loss_param":{"scale_pos_weight":"1"}}},"version":[3,2,0]}